<?xml version="1.0"?>
<opencv_storage>
<cascade>
  <stageType>BOOST</stageType>
  <featureType>LBP</featureType>
  <height>30</height>
  <width>16</width>
  <stageParams>
    <boostType>GAB</boostType>
    <minHitRate>9.9900001287460327e-01</minHitRate>
    <maxFalseAlarm>3.8999998569488525e-01</maxFalseAlarm>
    <weightTrimRate>9.4999998807907104e-01</weightTrimRate>
    <maxDepth>1</maxDepth>
    <maxWeakCount>100</maxWeakCount></stageParams>
  <featureParams>
    <maxCatCount>256</maxCatCount>
    <featSize>1</featSize></featureParams>
  <stageNum>15</stageNum>
  <stages>
    <!-- stage 0 -->
    <_>
      <maxWeakCount>5</maxWeakCount>
      <stageThreshold>-1.5487715005874634e+00</stageThreshold>
      <weakClassifiers>
        <_>
          <internalNodes>
            0 -1 51 -169869313 -704915109 1967913983 1373631941
            -204996609 550539860 1998321343 1363669727</internalNodes>
          <leafValues>
            -9.0199691057205200e-01 4.5047923922538757e-01</leafValues></_>
        <_>
          <internalNodes>
            0 -1 92 -720912 -35061776 2010699772 -33752100 -11993356
            -579274340 -18285572 -38732316</internalNodes>
          <leafValues>
            -8.6295944452285767e-01 3.9134880900382996e-01</leafValues></_>
        <_>
          <internalNodes>
            0 -1 124 -2146115536 -872370704 -218179083 -3354404
            -51315728 -3417694 -90899460 -53704364</internalNodes>
          <leafValues>
            -7.7748757600784302e-01 4.2850491404533386e-01</leafValues></_>
        <_>
          <internalNodes>
            0 -1 29 -201984006 -168791592 -170526209 -280621 -1326386192
            284226192 -194530321 937423358</internalNodes>
          <leafValues>
            -7.4998509883880615e-01 4.5448833703994751e-01</leafValues></_>
        <_>
          <internalNodes>
            0 -1 39 -36702258 -2011122782 -1382026256 -85935180
            -11561986 -283848813 -136882697 -40373261</internalNodes>
          <leafValues>
            -5.9055715799331665e-01 5.3766500949859619e-01</leafValues></_></weakClassifiers></_>
    <!-- stage 1 -->
    <_>
      <maxWeakCount>7</maxWeakCount>
      <stageThreshold>-1.5780363082885742e+00</stageThreshold>
      <weakClassifiers>
        <_>
          <internalNodes>
            0 -1 142 -1 -33 -715128865 -2100513 -856687361 -403569
            -838874881 -1056969473</internalNodes>
          <leafValues>
            -6.9557642936706543e-01 5.7806915044784546e-01</leafValues></_>
        <_>
          <internalNodes>
            0 -1 14 -1 -2105379 2109849487 -11548307 -270860289
            -278005730 -891814001 1078421255</internalNodes>
          <leafValues>
            -7.6482403278350830e-01 4.5351389050483704e-01</leafValues></_>
        <_>
          <internalNodes>
            0 -1 113 -16777281 -541919344 2128599007 -4146476 2109689084
            -547735074 -104224260 -200984</internalNodes>
          <leafValues>
            -6.0269182920455933e-01 5.0129109621047974e-01</leafValues></_>
        <_>
          <internalNodes>
            0 -1 57 -805834785 -3218739 -7541835 134153057 1073692671
            -4509509 1877982591 186852727</internalNodes>
          <leafValues>
            -5.8208149671554565e-01 4.7349169850349426e-01</leafValues></_>
        <_>
          <internalNodes>
            0 -1 28 -205 2077972447 -246229517 -3269 -172820688
            -415218830 -224234122 -144488633</internalNodes>
          <leafValues>
            -5.9189909696578979e-01 4.7090789675712585e-01</leafValues></_>
        <_>
          <internalNodes>
            0 -1 60 -566243394 -556468225 -15663364 -69273636 -16917548
            -603587613 -136511528 -800786716</internalNodes>
          <leafValues>
            -8.5901212692260742e-01 2.5382626056671143e-01</leafValues></_>
        <_>
          <internalNodes>
            0 -1 141 -15206060 1978889175 -1706339466 94329993 817178656
            -120608261 577276042 142602299</internalNodes>
          <leafValues>
            -6.4432567358016968e-01 3.5849258303642273e-01</leafValues></_></weakClassifiers></_>
    <!-- stage 2 -->
    <_>
      <maxWeakCount>8</maxWeakCount>
      <stageThreshold>-1.9341394901275635e+00</stageThreshold>
      <weakClassifiers>
        <_>
          <internalNodes>
            0 -1 185 -385945601 -388830509 -985676289 -840046617
            -1575817286 -1973239117 -1457783813 -268697861</internalNodes>
          <leafValues>
            -7.7374410629272461e-01 4.5872393250465393e-01</leafValues></_>
        <_>
          <internalNodes>
            0 -1 65 -460812 -84610572 -753147905 -173150833 -328533580
            -1063204828 2010509231 -4198417</internalNodes>
          <leafValues>
            -5.9060758352279663e-01 5.3484082221984863e-01</leafValues></_>
        <_>
          <internalNodes>
            0 -1 163 -932165564 -589966467 -54756361 -50856233
            -936091148 -549787464 -420157188 -125272092</internalNodes>
          <leafValues>
            -7.1497285366058350e-01 3.9965522289276123e-01</leafValues></_>
        <_>
          <internalNodes>
            0 -1 22 -16779471 -571255529 -70329067 1570470007 -723192812
            -697610192 -537739983 -8914569</internalNodes>
          <leafValues>
            -5.6993120908737183e-01 4.5505309104919434e-01</leafValues></_>
        <_>
          <internalNodes>
            0 -1 107 -1460338948 1424028852 -69994055 -172959427
            1355341052 -118167323 -24576790 -662118913</internalNodes>
          <leafValues>
            -6.8515872955322266e-01 3.5746219754219055e-01</leafValues></_>
        <_>
          <internalNodes>
            0 -1 36 1741352942 -1474101460 -268706314 -341789312 -919554
            -321389065 -16818177 -796681</internalNodes>
          <leafValues>
            -4.5539185404777527e-01 5.1023167371749878e-01</leafValues></_>
        <_>
          <internalNodes>
            0 -1 98 -805769860 -1812795044 -544686465 1069592296
            1826574453 166412919 -35835844 2146434495</internalNodes>
          <leafValues>
            -5.6268632411956787e-01 4.0007817745208740e-01</leafValues></_>
        <_>
          <internalNodes>
            0 -1 12 -289 -738467489 -787919095 1607663167 -874587393
            -357841933 -607133896 2102515474</internalNodes>
          <leafValues>
            -5.5373317003250122e-01 4.1296765208244324e-01</leafValues></_></weakClassifiers></_>
    <!-- stage 3 -->
    <_>
      <maxWeakCount>10</maxWeakCount>
      <stageThreshold>-1.9073842763900757e+00</stageThreshold>
      <weakClassifiers>
        <_>
          <internalNodes>
            0 -1 150 -572523009 -570434629 -149160449 -1537 -855965697
            -1929659393 -56771329 -1392509953</internalNodes>
          <leafValues>
            -6.6067725419998169e-01 4.9019607901573181e-01</leafValues></_>
        <_>
          <internalNodes>
            0 -1 31 -136314881 -18433 -169869331 2145865426 -526341
            1895284663 -134742018 1659336446</internalNodes>
          <leafValues>
            -6.7425256967544556e-01 3.7102550268173218e-01</leafValues></_>
        <_>
          <internalNodes>
            0 -1 4 -253762842 -10881582 -1261069584 -167878666
            -542451457 -35275329 -235929606 -168296457</internalNodes>
          <leafValues>
            -5.2559387683868408e-01 3.8769453763961792e-01</leafValues></_>
        <_>
          <internalNodes>
            0 -1 179 -503595009 -34090539 1285474223 14993853 1558132718
            -13160257 200215983 10485727</internalNodes>
          <leafValues>
            -5.4450881481170654e-01 3.9601591229438782e-01</leafValues></_>
        <_>
          <internalNodes>
            0 -1 144 -872874060 2043737084 -342491651 -1074202308
            -80028772 -80039491 -1127325187 -1359974604</internalNodes>
          <leafValues>
            -6.2859863042831421e-01 3.3263194561004639e-01</leafValues></_>
        <_>
          <internalNodes>
            0 -1 73 -136324097 1085075421 -36208641 1574952443
            -166620362 -1208292182 2070150399 1600109535</internalNodes>
          <leafValues>
            -4.3803521990776062e-01 4.4174376130104065e-01</leafValues></_>
        <_>
          <internalNodes>
            0 -1 176 -823204286 -135023105 2084957270 -1325858850
            1961843716 1415235751 -167981248 -84148225</internalNodes>
          <leafValues>
            -5.6066864728927612e-01 3.5620558261871338e-01</leafValues></_>
        <_>
          <internalNodes>
            0 -1 17 -13124553 -1098143394 -632602609 -1156060278
            -6828631 674429805 1979122548 2064869750</internalNodes>
          <leafValues>
            -5.7643890380859375e-01 2.9608455300331116e-01</leafValues></_>
        <_>
          <internalNodes>
            0 -1 128 -488659529 -304875809 -55846435 -29081925
            -1970332235 -1140877270 -1141380131 -290407244</internalNodes>
          <leafValues>
            -4.6347582340240479e-01 3.9370980858802795e-01</leafValues></_>
        <_>
          <internalNodes>
            0 -1 116 -1344757324 960036848 -918491139 1509073759
            1574572024 1583124145 1148757496 -68211058</internalNodes>
          <leafValues>
            -4.7945576906204224e-01 3.7347233295440674e-01</leafValues></_></weakClassifiers></_>
    <!-- stage 4 -->
    <_>
      <maxWeakCount>10</maxWeakCount>
      <stageThreshold>-1.8251991271972656e+00</stageThreshold>
      <weakClassifiers>
        <_>
          <internalNodes>
            0 -1 122 -239010324 -572664867 1368118127 -8396649 -5177345
            -72047960 -1145045057 -1</internalNodes>
          <leafValues>
            -7.0983326435089111e-01 4.6984571218490601e-01</leafValues></_>
        <_>
          <internalNodes>
            0 -1 146 -795934924 -1676365024 -1719479363 -235956289
            -71387623 -215848671 -8388689 -149688565</internalNodes>
          <leafValues>
            -5.5159348249435425e-01 4.2509633302688599e-01</leafValues></_>
        <_>
          <internalNodes>
            0 -1 80 -206902430 -886125333 2141908730 -135565398
            -394072448 -1935229736 -938681684 -839912029</internalNodes>
          <leafValues>
            -4.3571221828460693e-01 4.8462063074111938e-01</leafValues></_>
        <_>
          <internalNodes>
            0 -1 102 136330784 -1967615216 -301805323 -33759760
            -478609456 -207748861 -83998483 -1191967584</internalNodes>
          <leafValues>
            -7.5074344873428345e-01 2.7977928519248962e-01</leafValues></_>
        <_>
          <internalNodes>
            0 -1 148 -287309825 -1062801296 1758712925 -691145507
            -359664641 -1606582212 -1384016898 -2134913921</internalNodes>
          <leafValues>
            -5.5287879705429077e-01 3.9791935682296753e-01</leafValues></_>
        <_>
          <internalNodes>
            0 -1 140 -161554624 -547654681 -696705282 -35687441
            1880853264 1569698053 -1129776964 -1192396289</internalNodes>
          <leafValues>
            -5.3575682640075684e-01 3.4856718778610229e-01</leafValues></_>
        <_>
          <internalNodes>
            0 -1 46 -1496414688 -948831582 2128609136 -135266656
            1053283458 -1076396554 -1763736352 -402938462</internalNodes>
          <leafValues>
            -4.3433463573455811e-01 4.6045038104057312e-01</leafValues></_>
        <_>
          <internalNodes>
            0 -1 132 -318862940 1678783988 -1749347971 -1118325860
            -350447108 -131024835 -796149266 -117441617</internalNodes>
          <leafValues>
            -4.8620003461837769e-01 4.0628299117088318e-01</leafValues></_>
        <_>
          <internalNodes>
            0 -1 20 -6293726 -245934028 -1056849125 1406359645
            1674819600 1478451204 952150795 -814786505</internalNodes>
          <leafValues>
            -5.4482805728912354e-01 3.7922900915145874e-01</leafValues></_>
        <_>
          <internalNodes>
            0 -1 35 -427639198 1791144068 -274999198 -3257918 47166141
            -1812397837 -201770242 -134778633</internalNodes>
          <leafValues>
            -4.9887180328369141e-01 3.6935183405876160e-01</leafValues></_></weakClassifiers></_>
    <!-- stage 5 -->
    <_>
      <maxWeakCount>12</maxWeakCount>
      <stageThreshold>-2.1008150577545166e+00</stageThreshold>
      <weakClassifiers>
        <_>
          <internalNodes>
            0 -1 27 -67895297 -657545 -2097153 -934025 -76193793
            -9185161 -273940481 -524429</internalNodes>
          <leafValues>
            -6.5379178524017334e-01 3.8514026999473572e-01</leafValues></_>
        <_>
          <internalNodes>
            0 -1 188 -270534657 788262911 -33556993 -1929469953 -1
            -1075856389 -67108929 -352321537</internalNodes>
          <leafValues>
            -5.3947389125823975e-01 4.2577427625656128e-01</leafValues></_>
        <_>
          <internalNodes>
            0 -1 38 -5179401 -52101124 -41297922 -34275340 -638451803
            -17498121 -395779 -34213007</internalNodes>
          <leafValues>
            -5.6753516197204590e-01 3.5975345969200134e-01</leafValues></_>
        <_>
          <internalNodes>
            0 -1 84 -8388737 1935800319 -295169 -2037838 -537669633
            1073479679 -1107541812 -655366</internalNodes>
          <leafValues>
            -3.8338789343833923e-01 4.8238536715507507e-01</leafValues></_>
        <_>
          <internalNodes>
            0 -1 129 1274806055 225967095 -95944724 49870575 972418429
            1857027070 779856558 184245547</internalNodes>
          <leafValues>
            -5.6991428136825562e-01 3.5522079467773438e-01</leafValues></_>
        <_>
          <internalNodes>
            0 -1 151 -332117932 -16419 -2163329 -536936483 -59477932
            -1074021122 -27328564 -1124532684</internalNodes>
          <leafValues>
            -6.3638442754745483e-01 2.3055437207221985e-01</leafValues></_>
        <_>
          <internalNodes>
            0 -1 18 -482870465 -1347683329 -1416962588 -385890325
            -699369497 -258292481 1435891445 1710741363</internalNodes>
          <leafValues>
            -4.9430739879608154e-01 3.5497203469276428e-01</leafValues></_>
        <_>
          <internalNodes>
            0 -1 91 -2133543084 -1620017159 -67184775 -2098219
            -1644903372 -11305 -587321347 -16941099</internalNodes>
          <leafValues>
            -5.4740351438522339e-01 2.8707006573677063e-01</leafValues></_>
        <_>
          <internalNodes>
            0 -1 167 -187764834 -1099105026 -636367850 1509358431
            1951354996 2124864011 -274022280 -400491225</internalNodes>
          <leafValues>
            -5.8567523956298828e-01 2.7651593089103699e-01</leafValues></_>
        <_>
          <internalNodes>
            0 -1 118 799050584 -1954791427 -268718785 -134795269
            -34179591 -680182793 -167791173 -67166466</internalNodes>
          <leafValues>
            -3.6389955878257751e-01 4.5600539445877075e-01</leafValues></_>
        <_>
          <internalNodes>
            0 -1 34 -25431243 -406923271 1829658613 -551556387
            1943952243 2073262755 1029136916 2147221105</internalNodes>
          <leafValues>
            -5.8830058574676514e-01 2.8177839517593384e-01</leafValues></_>
        <_>
          <internalNodes>
            0 -1 76 640200450 -393416638 -20227084 -107685290
            -1855195649 -89026353 -1825605133 -100794379</internalNodes>
          <leafValues>
            -5.3721088171005249e-01 3.2356071472167969e-01</leafValues></_></weakClassifiers></_>
    <!-- stage 6 -->
    <_>
      <maxWeakCount>12</maxWeakCount>
      <stageThreshold>-1.6141295433044434e+00</stageThreshold>
      <weakClassifiers>
        <_>
          <internalNodes>
            0 -1 134 -198660 -269484049 -135015425 -9 -65553 -306200833
            -134218241 -1</internalNodes>
          <leafValues>
            -6.6248601675033569e-01 2.5966849923133850e-01</leafValues></_>
        <_>
          <internalNodes>
            0 -1 41 -537530369 -4227173 -732432290 -100679686 -135266833
            -59715633 -537920274 -252397316</internalNodes>
          <leafValues>
            -6.4005404710769653e-01 2.4220930039882660e-01</leafValues></_>
        <_>
          <internalNodes>
            0 -1 74 -606013452 -25501697 -134217729 -4677 1465942000
            -39321858 -269156367 -557069</internalNodes>
          <leafValues>
            -4.3774312734603882e-01 3.7618544697761536e-01</leafValues></_>
        <_>
          <internalNodes>
            0 -1 143 202650996 477689844 -1073808387 -66563 2130016733
            -1083475009 -16892035 -1073938499</internalNodes>
          <leafValues>
            -6.7783784866333008e-01 2.2617349028587341e-01</leafValues></_>
        <_>
          <internalNodes>
            0 -1 52 -16777217 1156904606 -50279937 898367406 2010643414
            1892016208 2146425740 1944056783</internalNodes>
          <leafValues>
            -6.0186004638671875e-01 2.5984984636306763e-01</leafValues></_>
        <_>
          <internalNodes>
            0 -1 7 -676397076 -1000310354 -44568580 -33236510 -658506787
            -153036374 -1213507609 -169356365</internalNodes>
          <leafValues>
            -5.4691886901855469e-01 2.9576826095581055e-01</leafValues></_>
        <_>
          <internalNodes>
            0 -1 114 -4276523 64155001 1562244574 -867140366 1278639357
            -585962019 1895619816 -1075007768</internalNodes>
          <leafValues>
            -5.0899249315261841e-01 2.9645496606826782e-01</leafValues></_>
        <_>
          <internalNodes>
            0 -1 166 -1611530298 -67158049 -94462244 986423134
            -1770222012 -306202215 -51056932 -127937793</internalNodes>
          <leafValues>
            -4.5547100901603699e-01 3.4836745262145996e-01</leafValues></_>
        <_>
          <internalNodes>
            0 -1 16 -889458316 -266853 -221254273 1553734303 -950583055
            -805863561 -1042172747 -503373785</internalNodes>
          <leafValues>
            -5.0017344951629639e-01 2.9865404963493347e-01</leafValues></_>
        <_>
          <internalNodes>
            0 -1 59 -563085568 -403052737 -73738771 -3213481 -103154711
            -820403463 -389160003 -35521033</internalNodes>
          <leafValues>
            -3.9515393972396851e-01 3.9556634426116943e-01</leafValues></_>
        <_>
          <internalNodes>
            0 -1 87 33557504 -1463898881 792037215 799746289 -1495326415
            580628087 -16584 335219455</internalNodes>
          <leafValues>
            -6.3331091403961182e-01 2.1825715899467468e-01</leafValues></_>
        <_>
          <internalNodes>
            0 -1 139 -938445296 -52665098 -541156924 -40602665
            -1426534948 -73668433 -789004325 -361190892</internalNodes>
          <leafValues>
            -5.3417444229125977e-01 2.8168460726737976e-01</leafValues></_></weakClassifiers></_>
    <!-- stage 7 -->
    <_>
      <maxWeakCount>11</maxWeakCount>
      <stageThreshold>-1.5156452655792236e+00</stageThreshold>
      <weakClassifiers>
        <_>
          <internalNodes>
            0 -1 95 -1 -1082392641 -1075838977 -983042 2146899583
            -67108993 -134228500 -196612</internalNodes>
          <leafValues>
            -7.1908175945281982e-01 1.1442307382822037e-01</leafValues></_>
        <_>
          <internalNodes>
            0 -1 26 -203 -13 -271188161 -67108929 -1150878415 -839974913
            -134807756 -420022281</internalNodes>
          <leafValues>
            -5.6414437294006348e-01 3.0457094311714172e-01</leafValues></_>
        <_>
          <internalNodes>
            0 -1 110 -1016331 -409607 -77890573 -131091 1002240436
            -268525666 -201523204 -101143244</internalNodes>
          <leafValues>
            -4.7405833005905151e-01 3.5831889510154724e-01</leafValues></_>
        <_>
          <internalNodes>
            0 -1 169 -289409089 -1266679811 -4196353 -118227077
            -84005255 -20971523 -130285894 -2144604917</internalNodes>
          <leafValues>
            -4.1879513859748840e-01 3.9385038614273071e-01</leafValues></_>
        <_>
          <internalNodes>
            0 -1 99 749996348 1926913919 -1352753217 -1208604049
            2113224533 2013100607 2147409406 1069290216</internalNodes>
          <leafValues>
            -5.3661322593688965e-01 3.1634613871574402e-01</leafValues></_>
        <_>
          <internalNodes>
            0 -1 105 -276844625 -1075858181 -35680257 -1157726225
            -1074317313 -328705 536608689 -1999346380</internalNodes>
          <leafValues>
            -4.8225697875022888e-01 3.4810033440589905e-01</leafValues></_>
        <_>
          <internalNodes>
            0 -1 186 -419500033 -1494552587 -434116609 -1109492737
            -319029765 -1561140238 -92611334 -990118413</internalNodes>
          <leafValues>
            -4.3825098872184753e-01 3.8510987162590027e-01</leafValues></_>
        <_>
          <internalNodes>
            0 -1 89 615008544 -1494697480 -186647566 -150995178 -8985677
            -1059658 -4195353 -19082044</internalNodes>
          <leafValues>
            -6.0287207365036011e-01 2.5329554080963135e-01</leafValues></_>
        <_>
          <internalNodes>
            0 -1 40 -75532884 1623696879 2075525036 -270113937
            -1790181976 330658815 -34789091 296967519</internalNodes>
          <leafValues>
            -5.8928596973419189e-01 2.7125582098960876e-01</leafValues></_>
        <_>
          <internalNodes>
            0 -1 180 -425852964 -150997107 -285283175 -68952211 -4458737
            -60293543 -247 -1166540993</internalNodes>
          <leafValues>
            -3.6502259969711304e-01 4.5810750126838684e-01</leafValues></_>
        <_>
          <internalNodes>
            0 -1 0 741276942 -293057182 1788815978 -1477498368
            -168821025 2133797807 -162058407 -302550697</internalNodes>
          <leafValues>
            -4.4632035493850708e-01 3.3970031142234802e-01</leafValues></_></weakClassifiers></_>
    <!-- stage 8 -->
    <_>
      <maxWeakCount>15</maxWeakCount>
      <stageThreshold>-2.0146589279174805e+00</stageThreshold>
      <weakClassifiers>
        <_>
          <internalNodes>
            0 -1 88 -720899 -33685505 -14680065 -8257 -286982153 -43
            -4195361 -1</internalNodes>
          <leafValues>
            -6.1467057466506958e-01 3.8937282562255859e-01</leafValues></_>
        <_>
          <internalNodes>
            0 -1 9 -262241 -1103171713 -262273 -8405125 -1 -143393033
            -142606337 -46663881</internalNodes>
          <leafValues>
            -3.7592157721519470e-01 4.5635214447975159e-01</leafValues></_>
        <_>
          <internalNodes>
            0 -1 81 -151726124 -336658435 -8392771 -704671921 -856756508
            -436277251 -168304673 -974139457</internalNodes>
          <leafValues>
            -3.9711332321166992e-01 3.9461949467658997e-01</leafValues></_>
        <_>
          <internalNodes>
            0 -1 173 184289856 2010381305 -18878490 -84148353 -221152436
            -102877385 -165347608 -17238026</internalNodes>
          <leafValues>
            -5.2230519056320190e-01 2.9431658983230591e-01</leafValues></_>
        <_>
          <internalNodes>
            0 -1 157 -1296241416 -698813508 -591293697 -68223364
            -1104286803 -4592871 -196610 -1435982364</internalNodes>
          <leafValues>
            -4.8941537737846375e-01 3.0822136998176575e-01</leafValues></_>
        <_>
          <internalNodes>
            0 -1 187 -822153739 -318906401 -1115752977 -285316097
            -840315911 -234939905 -2519235 -319030273</internalNodes>
          <leafValues>
            -4.6735772490501404e-01 2.8354811668395996e-01</leafValues></_>
        <_>
          <internalNodes>
            0 -1 8 -8208521 -37034313 2012991374 1600726028 -1793876205
            -49282 159383423 1327973435</internalNodes>
          <leafValues>
            -4.3391585350036621e-01 3.3158072829246521e-01</leafValues></_>
        <_>
          <internalNodes>
            0 -1 47 -24222110 1586422730 -642790448 -274759710
            -1530431497 -1603278402 -1045991232 -588255497</internalNodes>
          <leafValues>
            -4.1156041622161865e-01 3.4065410494804382e-01</leafValues></_>
        <_>
          <internalNodes>
            0 -1 118 1843408700 1551286265 -142891715 -201715777
            1069316477 1610188223 -1111545795 1073495240</internalNodes>
          <leafValues>
            -5.1237517595291138e-01 2.8196898102760315e-01</leafValues></_>
        <_>
          <internalNodes>
            0 -1 182 -289452117 -1677810177 -825277088 -1566639250
            -84054697 1375678479 1337593918 7863983</internalNodes>
          <leafValues>
            -5.7791471481323242e-01 2.1336130797863007e-01</leafValues></_>
        <_>
          <internalNodes>
            0 -1 96 -20971529 589987135 -49413 -1277119826 1504629883
            657686014 -1862425444 -1087127809</internalNodes>
          <leafValues>
            -3.4431672096252441e-01 3.8865834474563599e-01</leafValues></_>
        <_>
          <internalNodes>
            0 -1 5 -13802729 -1097880653 1138152274 -243543141
            -1886408771 -136983351 -183508263 -792431776</internalNodes>
          <leafValues>
            -6.4185082912445068e-01 2.0081125199794769e-01</leafValues></_>
        <_>
          <internalNodes>
            0 -1 153 75439108 113049445 286971054 1039679132 -8541916
            368957799 2079129356 251658155</internalNodes>
          <leafValues>
            -5.5300903320312500e-01 2.4554295837879181e-01</leafValues></_>
        <_>
          <internalNodes>
            0 -1 104 -61542956 1003909929 -501425867 -50955427
            1838699252 -269515143 -1100600795 -1407922668</internalNodes>
          <leafValues>
            -5.9004592895507813e-01 2.0882242918014526e-01</leafValues></_>
        <_>
          <internalNodes>
            0 -1 70 -1469962208 -2116121730 -1347991553 802295522
            1970982263 1652240639 2143895074 2004812798</internalNodes>
          <leafValues>
            -7.1187025308609009e-01 1.6927567124366760e-01</leafValues></_></weakClassifiers></_>
    <!-- stage 9 -->
    <_>
      <maxWeakCount>16</maxWeakCount>
      <stageThreshold>-1.9505952596664429e+00</stageThreshold>
      <weakClassifiers>
        <_>
          <internalNodes>
            0 -1 67 -6292481 -67372037 -205531526 -203752824 -70258177
            -1145338662 -69213976 -67374854</internalNodes>
          <leafValues>
            -6.7325359582901001e-01 2.5525903701782227e-01</leafValues></_>
        <_>
          <internalNodes>
            0 -1 171 -419954689 762691583 -1578375537 -1353601113
            1213327103 -1933850025 -868427540 -868487169</internalNodes>
          <leafValues>
            -4.6661767363548279e-01 2.6566323637962341e-01</leafValues></_>
        <_>
          <internalNodes>
            0 -1 61 -805310713 740753214 -2889348 -8978977 1073631351
            121068155 2010644444 -525313</internalNodes>
          <leafValues>
            -4.1570898890495300e-01 3.1805530190467834e-01</leafValues></_>
        <_>
          <internalNodes>
            0 -1 56 2080257535 -4212770 -44116497 -1108071858 1409247347
            2147378039 -202949259 2135385719</internalNodes>
          <leafValues>
            -5.7644921541213989e-01 2.1563710272312164e-01</leafValues></_>
        <_>
          <internalNodes>
            0 -1 58 2128339106 -67909163 -995197216 -153626190
            -1446055681 -22371435 -1527792906 609741623</internalNodes>
          <leafValues>
            -5.5670434236526489e-01 2.3664875328540802e-01</leafValues></_>
        <_>
          <internalNodes>
            0 -1 115 -2126316806 -917712276 -1247050241 121399368
            858441011 -393423280 202308735 1009777407</internalNodes>
          <leafValues>
            -4.8324933648109436e-01 2.4832969903945923e-01</leafValues></_>
        <_>
          <internalNodes>
            0 -1 189 -295961581 303280959 -1706401922 279100899
            2079849797 -77372409 -4457797 -229116930</internalNodes>
          <leafValues>
            -3.6777842044830322e-01 3.2884189486503601e-01</leafValues></_>
        <_>
          <internalNodes>
            0 -1 64 -579862538 -4216206 -1044124674 1063260021
            1518358238 -105948169 1604995065 88277255</internalNodes>
          <leafValues>
            -4.9816086888313293e-01 2.4140571057796478e-01</leafValues></_>
        <_>
          <internalNodes>
            0 -1 174 -3676669 2004090175 -1951774024 1908388767
            -1075881696 1912257087 -1462792436 -60835202</internalNodes>
          <leafValues>
            -4.0128967165946960e-01 2.8764930367469788e-01</leafValues></_>
        <_>
          <internalNodes>
            0 -1 159 -318767972 -595535860 -178366275 -227246180
            -1610613859 -1753034987 -1697924326 1127725086</internalNodes>
          <leafValues>
            -4.6929466724395752e-01 2.6512280106544495e-01</leafValues></_>
        <_>
          <internalNodes>
            0 -1 194 436018173 224167860 2128388049 536650616
            -1781172332 -805715237 -3703810 -1140854788</internalNodes>
          <leafValues>
            -3.8998314738273621e-01 2.9235908389091492e-01</leafValues></_>
        <_>
          <internalNodes>
            0 -1 43 -971507841 2121002903 238514390 1927660055
            -611386406 -120659270 734896974 1348792560</internalNodes>
          <leafValues>
            -7.8573101758956909e-01 1.5770258009433746e-01</leafValues></_>
        <_>
          <internalNodes>
            0 -1 2 -1398276122 773998530 -719867552 1072978634
            -686032001 1848422838 -340675099 -5123338</internalNodes>
          <leafValues>
            -5.8298569917678833e-01 1.9194661080837250e-01</leafValues></_>
        <_>
          <internalNodes>
            0 -1 123 225353663 1053432735 2107347897 -112299305
            -1147197493 -109709686 -1092853796 1022896932</internalNodes>
          <leafValues>
            -5.0465959310531616e-01 2.4510779976844788e-01</leafValues></_>
        <_>
          <internalNodes>
            0 -1 63 1860939311 -2113763858 -1108419221 -10586260
            645611572 492015349 -72157205 -208009</internalNodes>
          <leafValues>
            -3.7483137845993042e-01 3.0459442734718323e-01</leafValues></_>
        <_>
          <internalNodes>
            0 -1 177 -329333228 215802417 -729886556 284861436
            -457888844 -373774225 -348345508 477323059</internalNodes>
          <leafValues>
            -6.1925792694091797e-01 1.7445687949657440e-01</leafValues></_></weakClassifiers></_>
    <!-- stage 10 -->
    <_>
      <maxWeakCount>17</maxWeakCount>
      <stageThreshold>-1.6255073547363281e+00</stageThreshold>
      <weakClassifiers>
        <_>
          <internalNodes>
            0 -1 69 -1025 2004088311 -917243909 1599142768 -17409
            1333000415 -587211777 -524293</internalNodes>
          <leafValues>
            -6.1455303430557251e-01 2.9719033837318420e-01</leafValues></_>
        <_>
          <internalNodes>
            0 -1 158 -4393476 -321914371 -79782915 -4456485 -96477361
            -1079565457 1072430815 -8935553</internalNodes>
          <leafValues>
            -3.8840731978416443e-01 3.2575967907905579e-01</leafValues></_>
        <_>
          <internalNodes>
            0 -1 122 1951463404 -654508612 1040187247 -9607891
            -228288623 -16976224 -1371603010 1550298742</internalNodes>
          <leafValues>
            -4.7739309072494507e-01 2.3475162684917450e-01</leafValues></_>
        <_>
          <internalNodes>
            0 -1 66 -352392690 -294723617 -23579 -74770 9784854
            -1906508956 1341357970 -939530765</internalNodes>
          <leafValues>
            -4.6991115808486938e-01 2.3450832068920135e-01</leafValues></_>
        <_>
          <internalNodes>
            0 -1 42 -204472926 -1647002140 -1642096961 -157457431
            -62586924 -296699115 -18572307 -619588137</internalNodes>
          <leafValues>
            -3.9049974083900452e-01 2.8581297397613525e-01</leafValues></_>
        <_>
          <internalNodes>
            0 -1 154 1877982767 14667647 2121781198 1149042078
            2049923445 1442568383 -48375347 -16927123</internalNodes>
          <leafValues>
            -4.4773828983306885e-01 2.6033338904380798e-01</leafValues></_>
        <_>
          <internalNodes>
            0 -1 193 -1897992197 718967807 -551940130 -1359575090
            -155190537 -1406208325 -407896146 -277958674</internalNodes>
          <leafValues>
            -4.3600380420684814e-01 2.2843882441520691e-01</leafValues></_>
        <_>
          <internalNodes>
            0 -1 191 -360726006 -244351129 -792789890 1889185998
            2120043092 1999831651 -78676348 -160194830</internalNodes>
          <leafValues>
            -3.9116144180297852e-01 2.7564480900764465e-01</leafValues></_>
        <_>
          <internalNodes>
            0 -1 120 -263851241 -961220468 -640289545 213015550
            -581837465 1567666920 491015041 559228814</internalNodes>
          <leafValues>
            -4.9737343192100525e-01 2.2271396219730377e-01</leafValues></_>
        <_>
          <internalNodes>
            0 -1 79 -227610880 458282464 -107721695 -2924040 -1812577164
            1380069717 -95880588 -722220</internalNodes>
          <leafValues>
            -5.2603346109390259e-01 2.0247350633144379e-01</leafValues></_>
        <_>
          <internalNodes>
            0 -1 108 -882596484 -28008016 -1048399555 -104944676
            1024241653 -50922571 -134950244 -1893005027</internalNodes>
          <leafValues>
            -4.7056680917739868e-01 2.4534933269023895e-01</leafValues></_>
        <_>
          <internalNodes>
            0 -1 195 198324020 433619932 -715319811 -1610836554
            1738350573 254284362 -1411519240 -1140981831</internalNodes>
          <leafValues>
            -4.2568260431289673e-01 2.6715421676635742e-01</leafValues></_>
        <_>
          <internalNodes>
            0 -1 117 746725632 -1026016926 1595899165 805152991
            -94685645 1979650683 968310334 938991614</internalNodes>
          <leafValues>
            -5.4916065931320190e-01 1.8586890399456024e-01</leafValues></_>
        <_>
          <internalNodes>
            0 -1 3 1976497142 -1430077322 1674910132 -481535248
            -389047298 2063256976 1808364541 1398101987</internalNodes>
          <leafValues>
            -4.7342684864997864e-01 2.1815855801105499e-01</leafValues></_>
        <_>
          <internalNodes>
            0 -1 181 -2130801071 343270385 -208477748 1358724054
            1738897757 1599570437 -1156990129 1890975359</internalNodes>
          <leafValues>
            -5.1653605699539185e-01 2.1774926781654358e-01</leafValues></_>
        <_>
          <internalNodes>
            0 -1 113 1207954999 1513263803 1779930495 2012278822
            1000237301 525019532 -963829524 -545415186</internalNodes>
          <leafValues>
            -3.8643854856491089e-01 2.8804725408554077e-01</leafValues></_>
        <_>
          <internalNodes>
            0 -1 178 -995170784 -1599426352 -1324039734 -120129831
            2019498456 274302192 965535990 -57737635</internalNodes>
          <leafValues>
            -4.8466676473617554e-01 2.3328480124473572e-01</leafValues></_></weakClassifiers></_>
    <!-- stage 11 -->
    <_>
      <maxWeakCount>18</maxWeakCount>
      <stageThreshold>-1.7014437913894653e+00</stageThreshold>
      <weakClassifiers>
        <_>
          <internalNodes>
            0 -1 161 -37898955 -6696519 -15384641 -1 -4472897
            -1073742849 -37765201 -1073742913</internalNodes>
          <leafValues>
            -5.6055802106857300e-01 4.6043166518211365e-01</leafValues></_>
        <_>
          <internalNodes>
            0 -1 53 -747607107 -7113409 -1080828707 -537802765
            -1350038083 981408319 1059234043 2138261319</internalNodes>
          <leafValues>
            -4.2565762996673584e-01 2.9599431157112122e-01</leafValues></_>
        <_>
          <internalNodes>
            0 -1 112 -261 -714084619 -67108865 -1679582273 -210307465
            -209738243 2134581725 -68177153</internalNodes>
          <leafValues>
            -2.2702834010124207e-01 5.7307928800582886e-01</leafValues></_>
        <_>
          <internalNodes>
            0 -1 126 1890563430 2120013806 2135848396 -237961762
            -27432075 -16479265 -144911238 -335479042</internalNodes>
          <leafValues>
            -5.5750107765197754e-01 2.0647335052490234e-01</leafValues></_>
        <_>
          <internalNodes>
            0 -1 11 -69225669 285523486 1098299197 1397892382
            -1027344391 -2046103221 -178585668 1563489079</internalNodes>
          <leafValues>
            -4.1654127836227417e-01 3.0435514450073242e-01</leafValues></_>
        <_>
          <internalNodes>
            0 -1 13 -404822266 1820471118 -63189282 -8761004 1898606342
            1214452347 1604050431 -541701</internalNodes>
          <leafValues>
            -4.3630301952362061e-01 2.4495221674442291e-01</leafValues></_>
        <_>
          <internalNodes>
            0 -1 45 -335622314 -167976206 1312284110 -973164991
            -603981441 201607628 1799306654 1125828367</internalNodes>
          <leafValues>
            -5.5914282798767090e-01 1.9450230896472931e-01</leafValues></_>
        <_>
          <internalNodes>
            0 -1 138 -35651585 343735263 -560595489 -1906534945
            -538185746 352165755 2136995430 82795738</internalNodes>
          <leafValues>
            -5.6580764055252075e-01 1.9151265919208527e-01</leafValues></_>
        <_>
          <internalNodes>
            0 -1 175 1335094984 -149946914 -1759535466 637523407
            1456558080 -10756323 929196296 141293430</internalNodes>
          <leafValues>
            -5.5636167526245117e-01 1.8551981449127197e-01</leafValues></_>
        <_>
          <internalNodes>
            0 -1 23 1060387100 1061951966 -88588299 -102967075
            1416639524 -71250007 -1091735652 -285415498</internalNodes>
          <leafValues>
            -4.7217485308647156e-01 2.5280049443244934e-01</leafValues></_>
        <_>
          <internalNodes>
            0 -1 48 -638128322 -289464162 345758783 1809170511
            -579544864 279471679 -1287292929 1476265983</internalNodes>
          <leafValues>
            -4.3297129869461060e-01 2.3877316713333130e-01</leafValues></_>
        <_>
          <internalNodes>
            0 -1 121 759434800 -49149058 441952535 2008433618 729511860
            1282659255 29332668 1066147824</internalNodes>
          <leafValues>
            -4.7739380598068237e-01 2.2533050179481506e-01</leafValues></_>
        <_>
          <internalNodes>
            0 -1 97 643305244 787146697 -579121857 -353310774
            -1551079132 -1895311297 588493616 913245098</internalNodes>
          <leafValues>
            -5.5664688348770142e-01 1.7709489166736603e-01</leafValues></_>
        <_>
          <internalNodes>
            0 -1 165 -84179252 -3385956 1548637276 -118564011 -530683420
            -77909153 -291735568 -1157841551</internalNodes>
          <leafValues>
            -4.8147287964820862e-01 2.0526698231697083e-01</leafValues></_>
        <_>
          <internalNodes>
            0 -1 55 -873599028 1910513975 -744991412 1837008911
            -211048146 15735154 -1414861266 650840087</internalNodes>
          <leafValues>
            -6.6772717237472534e-01 1.6131776571273804e-01</leafValues></_>
        <_>
          <internalNodes>
            0 -1 109 -1537293312 1603943229 -18177606 -1175425359
            -68282124 -1081370117 1337871051 -4405467</internalNodes>
          <leafValues>
            -4.5767641067504883e-01 2.1409031748771667e-01</leafValues></_>
        <_>
          <internalNodes>
            0 -1 101 609226232 -688720393 -305315875 692831661
            -1351241738 -1610736902 1178304491 247756821</internalNodes>
          <leafValues>
            -4.5834988355636597e-01 2.1649807691574097e-01</leafValues></_>
        <_>
          <internalNodes>
            0 -1 15 1744764672 -528565210 424344407 -1064377160
            -881897023 2069086016 -316510064 604192806</internalNodes>
          <leafValues>
            -6.7271929979324341e-01 1.4991006255149841e-01</leafValues></_></weakClassifiers></_>
    <!-- stage 12 -->
    <_>
      <maxWeakCount>20</maxWeakCount>
      <stageThreshold>-1.6059508323669434e+00</stageThreshold>
      <weakClassifiers>
        <_>
          <internalNodes>
            0 -1 162 -36048451 -2499777 -117334625 -41987 -643040769
            -805577815 -54657857 -1124073733</internalNodes>
          <leafValues>
            -6.0962378978729248e-01 2.3877781629562378e-01</leafValues></_>
        <_>
          <internalNodes>
            0 -1 68 -268435457 196345819 -805831077 -103745680
            -808517633 -1692143749 -136588080 -268435981</internalNodes>
          <leafValues>
            -3.7065216898918152e-01 3.6453887820243835e-01</leafValues></_>
        <_>
          <internalNodes>
            0 -1 131 -2108955379 1181810554 -9175042 724753006
            -975465147 -1133252365 -122721538 -4325829</internalNodes>
          <leafValues>
            -3.5612878203392029e-01 3.0240234732627869e-01</leafValues></_>
        <_>
          <internalNodes>
            0 -1 75 -6324743 -539046945 1193811965 -42080257 2145873783
            -85558824 -835723 2142466803</internalNodes>
          <leafValues>
            -4.3602517247200012e-01 2.3924659192562103e-01</leafValues></_>
        <_>
          <internalNodes>
            0 -1 137 -606011436 -27484643 -1207959685 -33689615
            -272703504 -287326288 -347226689 -4378017</internalNodes>
          <leafValues>
            -2.5726670026779175e-01 3.9554649591445923e-01</leafValues></_>
        <_>
          <internalNodes>
            0 -1 125 -118141472 -277821393 -1019407396 -102888969
            -84018746 -50480149 -5223816 -51065602</internalNodes>
          <leafValues>
            -5.4814797639846802e-01 1.7073936760425568e-01</leafValues></_>
        <_>
          <internalNodes>
            0 -1 152 2092420172 1375600629 -1164250373 2057271165
            -205918144 1931471030 -90180936 -1125060106</internalNodes>
          <leafValues>
            -4.5890989899635315e-01 2.4037662148475647e-01</leafValues></_>
        <_>
          <internalNodes>
            0 -1 6 -328869630 1323475878 -1408257760 -6883100
            -1147162193 2007159445 -1550458384 -88083465</internalNodes>
          <leafValues>
            -4.2058381438255310e-01 2.4127301573753357e-01</leafValues></_>
        <_>
          <internalNodes>
            0 -1 145 2078064092 -268979735 -2081171979 1194438106
            1784606543 -1348035019 -603988033 -982013541</internalNodes>
          <leafValues>
            -3.4421095252037048e-01 3.0862003564834595e-01</leafValues></_>
        <_>
          <internalNodes>
            0 -1 136 1315226036 553569913 434071903 603704028 -271854287
            589499003 -1859669110 938352372</internalNodes>
          <leafValues>
            -4.8599505424499512e-01 2.0051839947700500e-01</leafValues></_>
        <_>
          <internalNodes>
            0 -1 19 -1276281921 -72695826 -1048612 -402753934
            -1149258513 1740472311 2013263777 -167788866</internalNodes>
          <leafValues>
            -2.6547202467918396e-01 3.9104706048965454e-01</leafValues></_>
        <_>
          <internalNodes>
            0 -1 71 -581115845 -1067822186 -608472385 1341284211
            -550062736 1120027761 2082355624 189862723</internalNodes>
          <leafValues>
            -5.5647313594818115e-01 1.8780452013015747e-01</leafValues></_>
        <_>
          <internalNodes>
            0 -1 93 -142610337 1340799228 -16451 1576438718 2121727734
            -1288511500 20427862 -117458690</internalNodes>
          <leafValues>
            -2.8576195240020752e-01 3.8038200139999390e-01</leafValues></_>
        <_>
          <internalNodes>
            0 -1 86 -847772192 -890623474 1972088705 1072565999
            -1753385242 -866276584 -1208092076 2142978043</internalNodes>
          <leafValues>
            -4.0178939700126648e-01 2.5349214673042297e-01</leafValues></_>
        <_>
          <internalNodes>
            0 -1 25 -1294816398 -15069985 -442246226 -1617817838
            573571380 1060571223 -308546836 2103531031</internalNodes>
          <leafValues>
            -4.6081304550170898e-01 2.2396032512187958e-01</leafValues></_>
        <_>
          <internalNodes>
            0 -1 106 -442520130 -917783660 -142279205 2096885495
            730524653 -1677743698 1811888973 -1129704992</internalNodes>
          <leafValues>
            -3.6114716529846191e-01 2.9991766810417175e-01</leafValues></_>
        <_>
          <internalNodes>
            0 -1 196 249311100 -1114838017 -451313185 -91822092
            667888381 -1112114286 -44188708 -2131482400</internalNodes>
          <leafValues>
            -4.8489698767662048e-01 2.0768460631370544e-01</leafValues></_>
        <_>
          <internalNodes>
            0 -1 190 540338718 1977209558 -893216929 2050502526
            -782243740 -1034227405 -2364478 -218901654</internalNodes>
          <leafValues>
            -3.6427405476570129e-01 2.7094951272010803e-01</leafValues></_>
        <_>
          <internalNodes>
            0 -1 119 2055744824 1455090167 2076336091 1499078519
            1250820023 571672581 -1440368519 221184526</internalNodes>
          <leafValues>
            -3.8929784297943115e-01 2.6756361126899719e-01</leafValues></_>
        <_>
          <internalNodes>
            0 -1 54 -134219778 1356816780 -779399089 -1742312569
            -223675450 888658804 -45507800 2003528614</internalNodes>
          <leafValues>
            -5.9887552261352539e-01 1.6269564628601074e-01</leafValues></_></weakClassifiers></_>
    <!-- stage 13 -->
    <_>
      <maxWeakCount>21</maxWeakCount>
      <stageThreshold>-1.6509678363800049e+00</stageThreshold>
      <weakClassifiers>
        <_>
          <internalNodes>
            0 -1 160 -140509189 -264321 -144969249 -2885665 -72352513
            -4484869 -34801420 -773</internalNodes>
          <leafValues>
            -5.5885493755340576e-01 3.9366516470909119e-01</leafValues></_>
        <_>
          <internalNodes>
            0 -1 100 -103944756 -536873489 -134754369 -4241755
            -137953538 -1073807379 -135276545 -17847633</internalNodes>
          <leafValues>
            -3.0365806818008423e-01 3.9448279142379761e-01</leafValues></_>
        <_>
          <internalNodes>
            0 -1 49 -406848645 -46203166 -305159949 -370475332
            -453589009 -1930494084 -790120463 -168822793</internalNodes>
          <leafValues>
            -2.7108740806579590e-01 3.7284618616104126e-01</leafValues></_>
        <_>
          <internalNodes>
            0 -1 135 -1073966788 842954524 1570531326 1946078942
            1228699929 472511871 2110782509 -1083230277</internalNodes>
          <leafValues>
            -3.6422067880630493e-01 2.5640818476676941e-01</leafValues></_>
        <_>
          <internalNodes>
            0 -1 127 -1030753033 1678078454 1160577022 1332606711
            -1177031443 1841290747 186629890 188481343</internalNodes>
          <leafValues>
            -3.3120194077491760e-01 2.9506161808967590e-01</leafValues></_>
        <_>
          <internalNodes>
            0 -1 172 973065721 582875382 -807666322 749656823 861245676
            12490215 -114794197 685767517</internalNodes>
          <leafValues>
            -6.1356252431869507e-01 1.7994056642055511e-01</leafValues></_>
        <_>
          <internalNodes>
            0 -1 156 -2045055996 -1967640012 2135826484 794612245
            788846839 -69260355 -1233239851 -1426298603</internalNodes>
          <leafValues>
            -5.5219155550003052e-01 1.7150506377220154e-01</leafValues></_>
        <_>
          <internalNodes>
            0 -1 24 729556796 823477071 609246199 1073228766 1338255028
            588068932 1790717946 -16980491</internalNodes>
          <leafValues>
            -4.2113763093948364e-01 2.3564298450946808e-01</leafValues></_>
        <_>
          <internalNodes>
            0 -1 78 -471865553 764551990 -811795274 1460263022 38395198
            362823537 1924069375 -1158284417</internalNodes>
          <leafValues>
            -3.3958387374877930e-01 2.8911554813385010e-01</leafValues></_>
        <_>
          <internalNodes>
            0 -1 37 -1752963197 22997242 542576818 -1077945860
            2089609977 -1974796262 -875437139 -273547520</internalNodes>
          <leafValues>
            -4.7385054826736450e-01 2.3190116882324219e-01</leafValues></_>
        <_>
          <internalNodes>
            0 -1 164 -92448768 1400093471 -929815434 -765912657
            -521979584 2034835474 -46598004 -1131283873</internalNodes>
          <leafValues>
            -5.1165950298309326e-01 1.8081553280353546e-01</leafValues></_>
        <_>
          <internalNodes>
            0 -1 183 -491782352 -545786946 -1358987587 -739315747
            1744830272 -1157628160 -591754068 -194527265</internalNodes>
          <leafValues>
            -2.8627327084541321e-01 3.5333189368247986e-01</leafValues></_>
        <_>
          <internalNodes>
            0 -1 10 -858001645 1519943808 1094770496 1172283650
            925376374 2010314801 13180276 980903746</internalNodes>
          <leafValues>
            -5.8094346523284912e-01 1.6437736153602600e-01</leafValues></_>
        <_>
          <internalNodes>
            0 -1 147 -1995823820 1056196958 -572663017 639566430
            2107300381 727151378 2056456584 838281727</internalNodes>
          <leafValues>
            -4.9092870950698853e-01 1.9012387096881866e-01</leafValues></_>
        <_>
          <internalNodes>
            0 -1 32 811340032 -824389011 1565865459 -1685020716
            -1153846352 -611649020 -572621168 -709329520</internalNodes>
          <leafValues>
            -4.3661579489707947e-01 2.2052459418773651e-01</leafValues></_>
        <_>
          <internalNodes>
            0 -1 111 1275892784 -386238988 396776444 -1157666766
            317113425 1197841627 -1222691567 1431798403</internalNodes>
          <leafValues>
            -6.0897535085678101e-01 1.6653823852539063e-01</leafValues></_>
        <_>
          <internalNodes>
            0 -1 103 1212338291 -56520240 -645884749 -1077866127
            -1129129485 -6585725 -896991814 -833736124</internalNodes>
          <leafValues>
            -3.1690159440040588e-01 2.9804915189743042e-01</leafValues></_>
        <_>
          <internalNodes>
            0 -1 192 -16857953 -775946444 -16786757 -797509793
            -1619145536 -520782012 -134244756 -1300779017</internalNodes>
          <leafValues>
            -3.0574515461921692e-01 3.2311722636222839e-01</leafValues></_>
        <_>
          <internalNodes>
            0 -1 50 -1500792172 665043120 25809863 -416108474 -428965716
            881033711 130699943 7300419</internalNodes>
          <leafValues>
            -4.0396979451179504e-01 2.4291202425956726e-01</leafValues></_>
        <_>
          <internalNodes>
            0 -1 90 -1320913164 2090150516 1598669815 -854262808
            -1544319072 -1906316610 -858460368 219750758</internalNodes>
          <leafValues>
            -4.8161855340003967e-01 2.1411667764186859e-01</leafValues></_>
        <_>
          <internalNodes>
            0 -1 1 1325724450 1284153666 310616872 1765734328 -401045103
            218405425 -979371016 477590423</internalNodes>
          <leafValues>
            -4.3650537729263306e-01 2.1883898973464966e-01</leafValues></_></weakClassifiers></_>
    <!-- stage 14 -->
    <_>
      <maxWeakCount>19</maxWeakCount>
      <stageThreshold>-1.5555090904235840e+00</stageThreshold>
      <weakClassifiers>
        <_>
          <internalNodes>
            0 -1 184 -67634177 -265225 -635970886 -15207457 -463473508
            -608497262 -117524226 -131073</internalNodes>
          <leafValues>
            -5.7870215177536011e-01 3.2198581099510193e-01</leafValues></_>
        <_>
          <internalNodes>
            0 -1 82 -100687905 -1087635593 -32905 -344206 -285295169
            -1145045193 -1090546436 -268702213</internalNodes>
          <leafValues>
            -3.0941680073738098e-01 4.5075017213821411e-01</leafValues></_>
        <_>
          <internalNodes>
            0 -1 83 -419508516 -1007884306 -1745212453 -140333084
            -402659424 -925007889 -1611143251 -1067053</internalNodes>
          <leafValues>
            -2.7043774724006653e-01 3.7309995293617249e-01</leafValues></_>
        <_>
          <internalNodes>
            0 -1 33 -1142161603 -33578945 -2053846561 -279984929
            -135049417 -302814725 1535236864 1534529303</internalNodes>
          <leafValues>
            -5.0505352020263672e-01 2.0672802627086639e-01</leafValues></_>
        <_>
          <internalNodes>
            0 -1 133 -1080261508 -541154404 1419178719 1039700220
            1897673080 -44063944 -33658407 -1360245280</internalNodes>
          <leafValues>
            -5.0729644298553467e-01 2.2031541168689728e-01</leafValues></_>
        <_>
          <internalNodes>
            0 -1 85 -759443260 405689557 -1328063147 490804995
            -283051453 -1421879555 1650930046 346303242</internalNodes>
          <leafValues>
            -5.5582678318023682e-01 1.4957971870899200e-01</leafValues></_>
        <_>
          <internalNodes>
            0 -1 124 -1138195408 -1666922064 -594099812 2011625685
            -1158219072 -89140837 -127861761 -290717648</internalNodes>
          <leafValues>
            -5.0743991136550903e-01 2.0263016223907471e-01</leafValues></_>
        <_>
          <internalNodes>
            0 -1 72 1820329220 -1998707786 1362208255 -1342373673
            528642357 221686883 -1400292034 1119557747</internalNodes>
          <leafValues>
            -5.7317447662353516e-01 1.7622922360897064e-01</leafValues></_>
        <_>
          <internalNodes>
            0 -1 168 -416045319 -212360398 1078158411 -15473893
            -1336483668 -67087928 -922285333 141814008</internalNodes>
          <leafValues>
            -4.6695250272750854e-01 2.1025726199150085e-01</leafValues></_>
        <_>
          <internalNodes>
            0 -1 170 -345536581 -340640322 1874769534 1878724474
            1316955506 1610610174 -1637466178 -270733314</internalNodes>
          <leafValues>
            -3.0115583539009094e-01 3.5527423024177551e-01</leafValues></_>
        <_>
          <internalNodes>
            0 -1 62 -11011652 -84112843 -1969786776 -1353334107
            1937832880 -628061327 -336856596 1231737311</internalNodes>
          <leafValues>
            -3.3592626452445984e-01 3.0128309130668640e-01</leafValues></_>
        <_>
          <internalNodes>
            0 -1 21 536788991 -1073826305 -1363297281 -386 1932615549
            1073741684 1845439996 -44080386</internalNodes>
          <leafValues>
            -2.7375060319900513e-01 3.7116423249244690e-01</leafValues></_>
        <_>
          <internalNodes>
            0 -1 77 -1005683168 -295385880 -746211524 -142822960
            -1146426634 -1909792065 2137616613 -1376930907</internalNodes>
          <leafValues>
            -4.2521423101425171e-01 2.2177603840827942e-01</leafValues></_>
        <_>
          <internalNodes>
            0 -1 155 -2169 917684010 2130706421 -302711699 -44608452
            1413478399 517275646 -890381827</internalNodes>
          <leafValues>
            -3.0640622973442078e-01 3.1781801581382751e-01</leafValues></_>
        <_>
          <internalNodes>
            0 -1 149 -230627346 1614288204 -888858129 -548079014
            -167753370 539128640 -1136282842 618892036</internalNodes>
          <leafValues>
            -5.3828430175781250e-01 1.8475534021854401e-01</leafValues></_>
        <_>
          <internalNodes>
            0 -1 44 -1051772055 1556717611 147876159 1564566388
            -796263686 1217110049 -791828162 1298331492</internalNodes>
          <leafValues>
            -5.0688856840133667e-01 1.9051961600780487e-01</leafValues></_>
        <_>
          <internalNodes>
            0 -1 30 713831996 2140570590 -804966147 -695791149
            -1144653132 -134231671 -1614351488 -1779126628</internalNodes>
          <leafValues>
            -3.7826293706893921e-01 2.5184544920921326e-01</leafValues></_>
        <_>
          <internalNodes>
            0 -1 94 645032760 -1945186046 -1005366545 -147805449
            -1680922620 -1595103050 1098843064 362424078</internalNodes>
          <leafValues>
            -4.8129162192344666e-01 2.2335813939571381e-01</leafValues></_>
        <_>
          <internalNodes>
            0 -1 130 -1487208414 -1763883661 -841576098 675946367
            -1438438277 2145055547 1089292793 179443185</internalNodes>
          <leafValues>
            -5.2185583114624023e-01 1.7893812060356140e-01</leafValues></_></weakClassifiers></_></stages>
  <features>
    <_>
      <rect>
        0 0 2 3</rect></_>
    <_>
      <rect>
        0 0 2 5</rect></_>
    <_>
      <rect>
        0 0 3 1</rect></_>
    <_>
      <rect>
        0 0 3 2</rect></_>
    <_>
      <rect>
        0 0 5 1</rect></_>
    <_>
      <rect>
        0 0 5 8</rect></_>
    <_>
      <rect>
        0 1 2 1</rect></_>
    <_>
      <rect>
        0 1 3 1</rect></_>
    <_>
      <rect>
        0 1 4 3</rect></_>
    <_>
      <rect>
        0 2 2 9</rect></_>
    <_>
      <rect>
        0 2 3 2</rect></_>
    <_>
      <rect>
        0 5 2 8</rect></_>
    <_>
      <rect>
        0 5 3 8</rect></_>
    <_>
      <rect>
        0 5 4 1</rect></_>
    <_>
      <rect>
        0 7 5 3</rect></_>
    <_>
      <rect>
        0 8 2 2</rect></_>
    <_>
      <rect>
        0 9 2 2</rect></_>
    <_>
      <rect>
        0 10 2 4</rect></_>
    <_>
      <rect>
        0 11 2 2</rect></_>
    <_>
      <rect>
        0 13 1 1</rect></_>
    <_>
      <rect>
        0 13 2 5</rect></_>
    <_>
      <rect>
        0 14 1 3</rect></_>
    <_>
      <rect>
        0 14 2 5</rect></_>
    <_>
      <rect>
        0 15 1 3</rect></_>
    <_>
      <rect>
        0 16 1 3</rect></_>
    <_>
      <rect>
        0 16 3 1</rect></_>
    <_>
      <rect>
        0 17 2 4</rect></_>
    <_>
      <rect>
        0 17 3 1</rect></_>
    <_>
      <rect>
        0 17 3 4</rect></_>
    <_>
      <rect>
        0 18 5 4</rect></_>
    <_>
      <rect>
        0 24 1 1</rect></_>
    <_>
      <rect>
        0 24 5 2</rect></_>
    <_>
      <rect>
        0 25 1 1</rect></_>
    <_>
      <rect>
        0 26 2 1</rect></_>
    <_>
      <rect>
        0 27 2 1</rect></_>
    <_>
      <rect>
        1 0 2 1</rect></_>
    <_>
      <rect>
        1 0 2 2</rect></_>
    <_>
      <rect>
        1 0 2 7</rect></_>
    <_>
      <rect>
        1 0 3 5</rect></_>
    <_>
      <rect>
        1 1 2 1</rect></_>
    <_>
      <rect>
        1 1 5 3</rect></_>
    <_>
      <rect>
        1 1 5 7</rect></_>
    <_>
      <rect>
        1 3 4 4</rect></_>
    <_>
      <rect>
        1 5 5 8</rect></_>
    <_>
      <rect>
        1 6 2 8</rect></_>
    <_>
      <rect>
        1 9 5 2</rect></_>
    <_>
      <rect>
        1 10 1 1</rect></_>
    <_>
      <rect>
        1 11 1 1</rect></_>
    <_>
      <rect>
        1 11 3 2</rect></_>
    <_>
      <rect>
        1 12 1 1</rect></_>
    <_>
      <rect>
        1 12 1 2</rect></_>
    <_>
      <rect>
        1 13 5 5</rect></_>
    <_>
      <rect>
        1 15 5 5</rect></_>
    <_>
      <rect>
        1 17 3 1</rect></_>
    <_>
      <rect>
        1 18 5 4</rect></_>
    <_>
      <rect>
        1 20 5 2</rect></_>
    <_>
      <rect>
        1 27 2 1</rect></_>
    <_>
      <rect>
        2 0 3 3</rect></_>
    <_>
      <rect>
        2 0 4 1</rect></_>
    <_>
      <rect>
        2 0 4 5</rect></_>
    <_>
      <rect>
        2 0 4 7</rect></_>
    <_>
      <rect>
        2 5 3 1</rect></_>
    <_>
      <rect>
        2 5 3 3</rect></_>
    <_>
      <rect>
        2 6 2 1</rect></_>
    <_>
      <rect>
        2 8 2 2</rect></_>
    <_>
      <rect>
        2 11 4 2</rect></_>
    <_>
      <rect>
        2 12 2 1</rect></_>
    <_>
      <rect>
        2 12 4 3</rect></_>
    <_>
      <rect>
        2 13 3 3</rect></_>
    <_>
      <rect>
        2 14 2 3</rect></_>
    <_>
      <rect>
        2 15 3 1</rect></_>
    <_>
      <rect>
        2 15 3 4</rect></_>
    <_>
      <rect>
        2 15 4 1</rect></_>
    <_>
      <rect>
        2 15 4 4</rect></_>
    <_>
      <rect>
        2 22 3 2</rect></_>
    <_>
      <rect>
        2 27 1 1</rect></_>
    <_>
      <rect>
        3 0 1 1</rect></_>
    <_>
      <rect>
        3 1 1 1</rect></_>
    <_>
      <rect>
        3 4 3 1</rect></_>
    <_>
      <rect>
        3 7 1 1</rect></_>
    <_>
      <rect>
        3 11 1 2</rect></_>
    <_>
      <rect>
        3 11 2 2</rect></_>
    <_>
      <rect>
        3 12 3 3</rect></_>
    <_>
      <rect>
        3 13 1 1</rect></_>
    <_>
      <rect>
        3 13 3 3</rect></_>
    <_>
      <rect>
        3 14 2 4</rect></_>
    <_>
      <rect>
        3 15 1 1</rect></_>
    <_>
      <rect>
        3 15 3 1</rect></_>
    <_>
      <rect>
        3 20 3 3</rect></_>
    <_>
      <rect>
        4 0 1 1</rect></_>
    <_>
      <rect>
        4 2 3 3</rect></_>
    <_>
      <rect>
        4 5 2 2</rect></_>
    <_>
      <rect>
        4 6 2 2</rect></_>
    <_>
      <rect>
        4 12 3 5</rect></_>
    <_>
      <rect>
        4 13 2 1</rect></_>
    <_>
      <rect>
        4 13 2 3</rect></_>
    <_>
      <rect>
        4 13 3 3</rect></_>
    <_>
      <rect>
        4 14 2 1</rect></_>
    <_>
      <rect>
        4 14 3 2</rect></_>
    <_>
      <rect>
        4 16 2 1</rect></_>
    <_>
      <rect>
        4 20 2 3</rect></_>
    <_>
      <rect>
        4 21 2 2</rect></_>
    <_>
      <rect>
        5 0 1 1</rect></_>
    <_>
      <rect>
        5 0 2 1</rect></_>
    <_>
      <rect>
        5 1 2 1</rect></_>
    <_>
      <rect>
        5 2 2 1</rect></_>
    <_>
      <rect>
        5 3 1 1</rect></_>
    <_>
      <rect>
        5 4 3 3</rect></_>
    <_>
      <rect>
        5 5 2 3</rect></_>
    <_>
      <rect>
        5 7 1 1</rect></_>
    <_>
      <rect>
        5 8 1 1</rect></_>
    <_>
      <rect>
        5 11 2 2</rect></_>
    <_>
      <rect>
        5 12 2 5</rect></_>
    <_>
      <rect>
        5 13 2 3</rect></_>
    <_>
      <rect>
        5 14 2 3</rect></_>
    <_>
      <rect>
        5 14 3 4</rect></_>
    <_>
      <rect>
        5 15 2 2</rect></_>
    <_>
      <rect>
        5 15 3 1</rect></_>
    <_>
      <rect>
        5 16 2 1</rect></_>
    <_>
      <rect>
        5 16 2 2</rect></_>
    <_>
      <rect>
        5 16 2 4</rect></_>
    <_>
      <rect>
        5 17 2 1</rect></_>
    <_>
      <rect>
        5 20 2 3</rect></_>
    <_>
      <rect>
        5 24 1 2</rect></_>
    <_>
      <rect>
        6 0 1 1</rect></_>
    <_>
      <rect>
        6 0 3 5</rect></_>
    <_>
      <rect>
        6 0 3 6</rect></_>
    <_>
      <rect>
        6 1 3 3</rect></_>
    <_>
      <rect>
        6 2 1 1</rect></_>
    <_>
      <rect>
        6 2 3 2</rect></_>
    <_>
      <rect>
        6 3 2 1</rect></_>
    <_>
      <rect>
        6 4 3 2</rect></_>
    <_>
      <rect>
        6 5 3 2</rect></_>
    <_>
      <rect>
        6 8 1 1</rect></_>
    <_>
      <rect>
        6 11 1 2</rect></_>
    <_>
      <rect>
        6 15 2 2</rect></_>
    <_>
      <rect>
        6 16 2 1</rect></_>
    <_>
      <rect>
        6 22 2 2</rect></_>
    <_>
      <rect>
        6 24 3 2</rect></_>
    <_>
      <rect>
        7 0 1 1</rect></_>
    <_>
      <rect>
        7 0 3 1</rect></_>
    <_>
      <rect>
        7 0 3 3</rect></_>
    <_>
      <rect>
        7 0 3 10</rect></_>
    <_>
      <rect>
        7 5 1 2</rect></_>
    <_>
      <rect>
        7 8 1 1</rect></_>
    <_>
      <rect>
        7 11 1 2</rect></_>
    <_>
      <rect>
        7 11 2 2</rect></_>
    <_>
      <rect>
        7 14 2 1</rect></_>
    <_>
      <rect>
        7 15 3 5</rect></_>
    <_>
      <rect>
        7 17 2 4</rect></_>
    <_>
      <rect>
        7 17 3 1</rect></_>
    <_>
      <rect>
        8 0 1 1</rect></_>
    <_>
      <rect>
        8 0 2 1</rect></_>
    <_>
      <rect>
        8 3 2 2</rect></_>
    <_>
      <rect>
        8 5 2 1</rect></_>
    <_>
      <rect>
        8 6 2 1</rect></_>
    <_>
      <rect>
        8 7 1 1</rect></_>
    <_>
      <rect>
        8 8 1 1</rect></_>
    <_>
      <rect>
        8 11 1 2</rect></_>
    <_>
      <rect>
        8 11 2 2</rect></_>
    <_>
      <rect>
        8 12 2 3</rect></_>
    <_>
      <rect>
        8 15 2 1</rect></_>
    <_>
      <rect>
        8 17 2 1</rect></_>
    <_>
      <rect>
        9 0 1 1</rect></_>
    <_>
      <rect>
        9 0 2 1</rect></_>
    <_>
      <rect>
        9 1 1 1</rect></_>
    <_>
      <rect>
        9 1 2 1</rect></_>
    <_>
      <rect>
        9 1 2 6</rect></_>
    <_>
      <rect>
        9 4 2 7</rect></_>
    <_>
      <rect>
        9 8 2 2</rect></_>
    <_>
      <rect>
        9 13 1 3</rect></_>
    <_>
      <rect>
        9 14 2 3</rect></_>
    <_>
      <rect>
        9 27 2 1</rect></_>
    <_>
      <rect>
        10 0 1 1</rect></_>
    <_>
      <rect>
        10 0 2 1</rect></_>
    <_>
      <rect>
        10 0 2 3</rect></_>
    <_>
      <rect>
        10 1 2 1</rect></_>
    <_>
      <rect>
        10 3 2 3</rect></_>
    <_>
      <rect>
        10 7 1 1</rect></_>
    <_>
      <rect>
        10 9 2 4</rect></_>
    <_>
      <rect>
        10 11 1 2</rect></_>
    <_>
      <rect>
        10 11 2 2</rect></_>
    <_>
      <rect>
        10 12 2 2</rect></_>
    <_>
      <rect>
        10 13 1 1</rect></_>
    <_>
      <rect>
        10 13 1 3</rect></_>
    <_>
      <rect>
        10 13 2 5</rect></_>
    <_>
      <rect>
        10 14 2 5</rect></_>
    <_>
      <rect>
        10 24 2 1</rect></_>
    <_>
      <rect>
        10 27 2 1</rect></_>
    <_>
      <rect>
        11 11 1 1</rect></_>
    <_>
      <rect>
        12 10 1 1</rect></_>
    <_>
      <rect>
        12 11 1 1</rect></_>
    <_>
      <rect>
        12 12 1 1</rect></_>
    <_>
      <rect>
        12 27 1 1</rect></_>
    <_>
      <rect>
        13 15 1 3</rect></_>
    <_>
      <rect>
        13 16 1 3</rect></_>
    <_>
      <rect>
        13 22 1 2</rect></_></features></cascade>
</opencv_storage>
