<?xml version="1.0"?>
<opencv_storage>
<cascade>
  <stageType>BOOST</stageType>
  <featureType>LBP</featureType>
  <height>30</height>
  <width>16</width>
  <stageParams>
    <boostType>GAB</boostType>
    <minHitRate>9.9900001287460327e-01</minHitRate>
    <maxFalseAlarm>5.0000000000000000e-01</maxFalseAlarm>
    <weightTrimRate>9.4999998807907104e-01</weightTrimRate>
    <maxDepth>1</maxDepth>
    <maxWeakCount>100</maxWeakCount></stageParams>
  <featureParams>
    <maxCatCount>256</maxCatCount>
    <featSize>1</featSize></featureParams>
  <stageNum>20</stageNum>
  <stages>
    <!-- stage 0 -->
    <_>
      <maxWeakCount>4</maxWeakCount>
      <stageThreshold>-1.7577170133590698e+00</stageThreshold>
      <weakClassifiers>
        <_>
          <internalNodes>
            0 -1 14 -170393601 -169871369 -674496547 1470060999
            -236454401 1972535986 1460927471 1431827407</internalNodes>
          <leafValues>
            -9.1605067253112793e-01 3.9954337477684021e-01</leafValues></_>
        <_>
          <internalNodes>
            0 -1 145 -318771201 -397743617 -82055681 -33694721
            -2113144325 -2132122973 -875566305 -352589061</internalNodes>
          <leafValues>
            -6.9264048337936401e-01 6.3237726688385010e-01</leafValues></_>
        <_>
          <internalNodes>
            0 -1 28 -513 -2427569 1897106894 -573582489 -69468161
            -72578615 -1013191029 1078195975</internalNodes>
          <leafValues>
            -7.3240298032760620e-01 5.4662793874740601e-01</leafValues></_>
        <_>
          <internalNodes>
            0 -1 23 -541067431 -42994753 -44040257 -606091778 1513049975
            -14975233 1057455925 -524737</internalNodes>
          <leafValues>
            -6.9565379619598389e-01 5.9534245729446411e-01</leafValues></_></weakClassifiers></_>
    <!-- stage 1 -->
    <_>
      <maxWeakCount>5</maxWeakCount>
      <stageThreshold>-1.6172006130218506e+00</stageThreshold>
      <weakClassifiers>
        <_>
          <internalNodes>
            0 -1 8 -2097153 -2099209 -714966957 1937199327 -569639937
            -71315719 -472910849 1909977846</internalNodes>
          <leafValues>
            -8.7012290954589844e-01 2.7030032873153687e-01</leafValues></_>
        <_>
          <internalNodes>
            0 -1 75 -117639180 -36905508 -711657475 -1822308 -548081668
            -54724431 -103756804 -1129260604</internalNodes>
          <leafValues>
            -8.8632088899612427e-01 3.0025172233581543e-01</leafValues></_>
        <_>
          <internalNodes>
            0 -1 113 -18874373 -2133926917 -171180577 -201332773
            -1361051653 -1963299617 -1675626817 -2144342849</internalNodes>
          <leafValues>
            -6.8034619092941284e-01 5.1701062917709351e-01</leafValues></_>
        <_>
          <internalNodes>
            0 -1 126 -688897724 -594218787 -888843810 -587860970
            -190692240 -888373118 -92225284 -124977436</internalNodes>
          <leafValues>
            -8.1134301424026489e-01 4.3738895654678345e-01</leafValues></_>
        <_>
          <internalNodes>
            0 -1 65 -1610417742 -1529479022 -1861631490 -707440228
            1755503347 -116555639 1795356919 -7040268</internalNodes>
          <leafValues>
            -6.9444131851196289e-01 4.4435974955558777e-01</leafValues></_></weakClassifiers></_>
    <!-- stage 2 -->
    <_>
      <maxWeakCount>5</maxWeakCount>
      <stageThreshold>-1.3645519018173218e+00</stageThreshold>
      <weakClassifiers>
        <_>
          <internalNodes>
            0 -1 137 -2097153 -77601025 -108790945 -539492509 -808497217
            -6714902 -875566337 -923283457</internalNodes>
          <leafValues>
            -7.5483286380767822e-01 4.8031497001647949e-01</leafValues></_>
        <_>
          <internalNodes>
            0 -1 19 -204147722 -151194117 -707142145 -2106914 -487523359
            1422260145 -37748737 1895823359</internalNodes>
          <leafValues>
            -8.0770969390869141e-01 2.9282256960868835e-01</leafValues></_>
        <_>
          <internalNodes>
            0 -1 109 -1905219724 -539045519 -243098625 -1060391
            -586162179 -1140929813 -86057985 -68643</internalNodes>
          <leafValues>
            -6.5763610601425171e-01 4.2498946189880371e-01</leafValues></_>
        <_>
          <internalNodes>
            0 -1 148 -889459969 788319187 -537538849 215931358
            -607126529 -1348790085 -325420113 -1346376709</internalNodes>
          <leafValues>
            -6.4378958940505981e-01 4.2826372385025024e-01</leafValues></_>
        <_>
          <internalNodes>
            0 -1 34 -299696158 -1463102050 -539897635 -213510894
            1543502846 -11351914 -304287753 -67765259</internalNodes>
          <leafValues>
            -6.5526252985000610e-01 4.5906299352645874e-01</leafValues></_></weakClassifiers></_>
    <!-- stage 3 -->
    <_>
      <maxWeakCount>5</maxWeakCount>
      <stageThreshold>-2.1610803604125977e+00</stageThreshold>
      <weakClassifiers>
        <_>
          <internalNodes>
            0 -1 12 -134217929 -9178025 -775434049 -527521 -202903243
            -27299824 -282067077 -526217</internalNodes>
          <leafValues>
            -8.0969297885894775e-01 2.6328957080841064e-01</leafValues></_>
        <_>
          <internalNodes>
            0 -1 43 -1 -2425089 -11603208 -205983702 -67109896
            2011656663 -3325864 -103550886</internalNodes>
          <leafValues>
            -6.4603966474533081e-01 4.2415112257003784e-01</leafValues></_>
        <_>
          <internalNodes>
            0 -1 40 -2097161 -537118730 -147588641 -1882223379
            -537526795 -232502 -550510601 -1000259520</internalNodes>
          <leafValues>
            -6.9806659221649170e-01 3.7836673855781555e-01</leafValues></_>
        <_>
          <internalNodes>
            0 -1 106 -201326609 -230229505 -174750779 2113584287
            1423927485 -361012643 -188761928 -999508737</internalNodes>
          <leafValues>
            -6.1872708797454834e-01 4.0283533930778503e-01</leafValues></_>
        <_>
          <internalNodes>
            0 -1 108 -53385 -65538 -278537 -81923 -131085 -131073 -4369
            -323158160</internalNodes>
          <leafValues>
            -4.6498742699623108e-01 5.7440197467803955e-01</leafValues></_></weakClassifiers></_>
    <!-- stage 4 -->
    <_>
      <maxWeakCount>7</maxWeakCount>
      <stageThreshold>-1.4040966033935547e+00</stageThreshold>
      <weakClassifiers>
        <_>
          <internalNodes>
            0 -1 46 -1 -7087105 -108266509 -34540560 -68223489
            -1728844885 -4206344 -786509</internalNodes>
          <leafValues>
            -7.5561332702636719e-01 3.2620319724082947e-01</leafValues></_>
        <_>
          <internalNodes>
            0 -1 6 -133 2050473775 -129 2105536379 -1 -786561 -8388740
            -42469513</internalNodes>
          <leafValues>
            -5.1507341861724854e-01 5.4277229309082031e-01</leafValues></_>
        <_>
          <internalNodes>
            0 -1 1 -270610585 -543625473 1604290500 737812768 959445951
            -1161977 1543208959 1633122167</internalNodes>
          <leafValues>
            -6.2553083896636963e-01 3.9472433924674988e-01</leafValues></_>
        <_>
          <internalNodes>
            0 -1 154 -285212682 -123758604 -85534945 1892993727
            -1177821247 -335710 -2372883 -227018241</internalNodes>
          <leafValues>
            -4.8898294568061829e-01 5.1402640342712402e-01</leafValues></_>
        <_>
          <internalNodes>
            0 -1 31 1166016511 1457254143 647492071 1440546796
            2001205238 1894050659 928799727 1364522749</internalNodes>
          <leafValues>
            -8.3202314376831055e-01 2.8951895236968994e-01</leafValues></_>
        <_>
          <internalNodes>
            0 -1 2 -411304230 -18890498 -2094096100 -269438476
            -551701580 -566133041 -610942343 -101581323</internalNodes>
          <leafValues>
            -6.3156461715698242e-01 3.7564009428024292e-01</leafValues></_>
        <_>
          <internalNodes>
            0 -1 155 -1923158017 -1361121190 -1168999937 -1362229298
            -343441989 -73408053 -225723394 -1092686869</internalNodes>
          <leafValues>
            -5.7298320531845093e-01 4.2142713069915771e-01</leafValues></_></weakClassifiers></_>
    <!-- stage 5 -->
    <_>
      <maxWeakCount>7</maxWeakCount>
      <stageThreshold>-2.3458225727081299e+00</stageThreshold>
      <weakClassifiers>
        <_>
          <internalNodes>
            0 -1 89 -2752530 -201991713 -413148201 -2103853 -214041601
            -69337397 -554177537 -4097</internalNodes>
          <leafValues>
            -7.1897894144058228e-01 4.5314010977745056e-01</leafValues></_>
        <_>
          <internalNodes>
            0 -1 111 -134283404 -548094668 -644973739 -35130881 -2885763
            -4818391 -111149393 -1080557765</internalNodes>
          <leafValues>
            -4.8972585797309875e-01 4.9569344520568848e-01</leafValues></_>
        <_>
          <internalNodes>
            0 -1 16 -2105481 -189402146 -82585124 1976040667 -196744714
            1149293298 1927000990 1936192399</internalNodes>
          <leafValues>
            -7.5050884485244751e-01 3.0746766924858093e-01</leafValues></_>
        <_>
          <internalNodes>
            0 -1 105 1608515390 369046519 -711919203 1038063103
            -1096057075 -1078245397 716059965 182871487</internalNodes>
          <leafValues>
            -6.2907135486602783e-01 3.4633556008338928e-01</leafValues></_>
        <_>
          <internalNodes>
            0 -1 92 -2010591136 -1132397616 -992436804 -142690119
            -624295982 -3286866 -1324295717 -828579532</internalNodes>
          <leafValues>
            -6.5452224016189575e-01 3.4075406193733215e-01</leafValues></_>
        <_>
          <internalNodes>
            0 -1 128 2059794244 -606087201 1431233788 -1163733734
            -700248492 -655685390 -87364716 -531103753</internalNodes>
          <leafValues>
            -6.2621825933456421e-01 3.4740909934043884e-01</leafValues></_>
        <_>
          <internalNodes>
            0 -1 9 -458834123 1936343411 1137329005 -683689133
            -998221317 -259422053 -1780370699 -187185161</internalNodes>
          <leafValues>
            -5.3004997968673706e-01 4.0068501234054565e-01</leafValues></_></weakClassifiers></_>
    <!-- stage 6 -->
    <_>
      <maxWeakCount>8</maxWeakCount>
      <stageThreshold>-1.5865230560302734e+00</stageThreshold>
      <weakClassifiers>
        <_>
          <internalNodes>
            0 -1 41 -6637060 -84127340 16847679 2144667471 -368391428
            -387413852 -375800913 -2117649</internalNodes>
          <leafValues>
            -7.6984500885009766e-01 3.9625585079193115e-01</leafValues></_>
        <_>
          <internalNodes>
            0 -1 85 738723408 1603932573 -485440193 1070804447 991443421
            -1086390033 -237332289 -67223554</internalNodes>
          <leafValues>
            -5.1897591352462769e-01 4.8494109511375427e-01</leafValues></_>
        <_>
          <internalNodes>
            0 -1 152 -522793278 1972482518 810648348 -233129762
            -22287786 -29064565 -801383478 -1292416082</internalNodes>
          <leafValues>
            -4.9553468823432922e-01 4.6179863810539246e-01</leafValues></_>
        <_>
          <internalNodes>
            0 -1 72 -396035132 -145694695 1376492085 -2320816 -106120775
            -913668471 -343360515 -1610748993</internalNodes>
          <leafValues>
            -5.4397076368331909e-01 4.1991978883743286e-01</leafValues></_>
        <_>
          <internalNodes>
            0 -1 13 -16777423 -527241 -16577 -262411 -526987 -109349770
            -81989 -8914369</internalNodes>
          <leafValues>
            -4.4817575812339783e-01 5.1906406879425049e-01</leafValues></_>
        <_>
          <internalNodes>
            0 -1 135 1687661156 1968681351 1090584598 929010062
            1245210756 581664907 2064280204 149672095</internalNodes>
          <leafValues>
            -5.6209063529968262e-01 4.1961961984634399e-01</leafValues></_>
        <_>
          <internalNodes>
            0 -1 76 -1362469520 -795787253 -760478726 -103229008
            -1320284112 -7632849 -610079745 -197740</internalNodes>
          <leafValues>
            -5.9310042858123779e-01 3.8465446233749390e-01</leafValues></_>
        <_>
          <internalNodes>
            0 -1 103 -85983492 -254689142 16859411 1442826907
            -1148468853 -1802873982 -116275013 295668511</internalNodes>
          <leafValues>
            -5.4329353570938110e-01 4.0614449977874756e-01</leafValues></_></weakClassifiers></_>
    <!-- stage 7 -->
    <_>
      <maxWeakCount>7</maxWeakCount>
      <stageThreshold>-1.6284546852111816e+00</stageThreshold>
      <weakClassifiers>
        <_>
          <internalNodes>
            0 -1 81 -1 -8520833 -12846657 -6358082 2079325695 -268446281
            -53617428 -770</internalNodes>
          <leafValues>
            -7.0601534843444824e-01 3.1484794616699219e-01</leafValues></_>
        <_>
          <internalNodes>
            0 -1 23 -4196513 -137890307 -2244609 -69244961 -5275849
            -69256754 -1150321867 -559497</internalNodes>
          <leafValues>
            -6.8502068519592285e-01 3.1734955310821533e-01</leafValues></_>
        <_>
          <internalNodes>
            0 -1 84 1878585788 842334079 -606642755 -42291201 1576886261
            2096037307 1158135228 -269500418</internalNodes>
          <leafValues>
            -5.1770341396331787e-01 4.3219953775405884e-01</leafValues></_>
        <_>
          <internalNodes>
            0 -1 93 -194576516 2130244475 -7935012 -1195580456 -13305371
            -986228 -143861764 -335216898</internalNodes>
          <leafValues>
            -7.9155421257019043e-01 2.8259193897247314e-01</leafValues></_>
        <_>
          <internalNodes>
            0 -1 87 1431697845 1709078439 -543745025 1433956343
            1943011197 -25437285 1983069373 1065299690</internalNodes>
          <leafValues>
            -5.2104252576828003e-01 3.9987379312515259e-01</leafValues></_>
        <_>
          <internalNodes>
            0 -1 3 1868953504 774014274 1410062614 -393284448 919255998
            1983626546 -141064972 -537528393</internalNodes>
          <leafValues>
            -6.5430027246475220e-01 3.2600918412208557e-01</leafValues></_>
        <_>
          <internalNodes>
            0 -1 70 771817264 -625289280 -187959937 -2182788 -89392202
            -85036821 -22086681 -17027616</internalNodes>
          <leafValues>
            -6.8540078401565552e-01 2.6815176010131836e-01</leafValues></_></weakClassifiers></_>
    <!-- stage 8 -->
    <_>
      <maxWeakCount>8</maxWeakCount>
      <stageThreshold>-1.3537670373916626e+00</stageThreshold>
      <weakClassifiers>
        <_>
          <internalNodes>
            0 -1 17 -110036993 -9199657 1566562687 -3857921 -141534721
            -80235465 -1197883649 -558729</internalNodes>
          <leafValues>
            -7.2128850221633911e-01 2.5477707386016846e-01</leafValues></_>
        <_>
          <internalNodes>
            0 -1 146 -333516801 -322768929 -492968451 -277365764
            -1965296645 -2100104286 2070805941 -859963407</internalNodes>
          <leafValues>
            -6.4294505119323730e-01 2.6834112405776978e-01</leafValues></_>
        <_>
          <internalNodes>
            0 -1 120 -1231684227 -555835428 -541009665 -1639555
            -16978945 -72374344 -16974849 -331840028</internalNodes>
          <leafValues>
            -5.5784332752227783e-01 3.4653249382972717e-01</leafValues></_>
        <_>
          <internalNodes>
            0 -1 116 -555229372 1567445877 -16015562 -117572259
            -106728619 1585429168 -189007620 -1259031694</internalNodes>
          <leafValues>
            -6.6662466526031494e-01 2.9593172669410706e-01</leafValues></_>
        <_>
          <internalNodes>
            0 -1 11 -485294273 -1582574210 -716709906 1627345879
            -556498969 -113775693 -1267411995 1706283895</internalNodes>
          <leafValues>
            -5.9408712387084961e-01 3.6175432801246643e-01</leafValues></_>
        <_>
          <internalNodes>
            0 -1 140 -395118724 -1099180161 -552084521 -1334540458
            -1311048238 -130034789 792668989 -1598564549</internalNodes>
          <leafValues>
            -6.0505008697509766e-01 3.3077132701873779e-01</leafValues></_>
        <_>
          <internalNodes>
            0 -1 62 128460052 586285433 -579362945 -1889401960 388938165
            2137212859 1005353534 2145861342</internalNodes>
          <leafValues>
            -6.3999629020690918e-01 3.0742874741554260e-01</leafValues></_>
        <_>
          <internalNodes>
            0 -1 66 2146948899 903346015 2081643500 -1521321409
            -141271652 -286073885 -1437620466 48717167</internalNodes>
          <leafValues>
            -5.8367955684661865e-01 3.2258456945419312e-01</leafValues></_></weakClassifiers></_>
    <!-- stage 9 -->
    <_>
      <maxWeakCount>7</maxWeakCount>
      <stageThreshold>-1.5998365879058838e+00</stageThreshold>
      <weakClassifiers>
        <_>
          <internalNodes>
            0 -1 33 -851977 -540543137 -270337 -656421 -739180553
            -656705 -655369 -524297</internalNodes>
          <leafValues>
            -7.4975073337554932e-01 1.5575915575027466e-01</leafValues></_>
        <_>
          <internalNodes>
            0 -1 82 2130575231 200474527 -306448513 -67585304 2045734397
            1073463295 -692209436 -537067796</internalNodes>
          <leafValues>
            -6.2935853004455566e-01 2.7639111876487732e-01</leafValues></_>
        <_>
          <internalNodes>
            0 -1 133 2139090943 754973023 -2621577 -1358954593 -1048577
            -541079077 -1122260113 -1392508961</internalNodes>
          <leafValues>
            -5.6396120786666870e-01 3.7517508864402771e-01</leafValues></_>
        <_>
          <internalNodes>
            0 -1 73 150736736 -6530051 -42156546 -196620 -2371083
            -1076364705 -74265 -1279395</internalNodes>
          <leafValues>
            -7.9046362638473511e-01 2.7119132876396179e-01</leafValues></_>
        <_>
          <internalNodes>
            0 -1 115 1014776916 -2251521 -784338609 -134223907
            -123808348 -273427871 -78124052 -1091241232</internalNodes>
          <leafValues>
            -6.0105830430984497e-01 3.5274735093116760e-01</leafValues></_>
        <_>
          <internalNodes>
            0 -1 56 -419766436 -303117313 -1612778147 -806360083
            -965320092 -1526793287 -570465451 -2114986889</internalNodes>
          <leafValues>
            -5.8503544330596924e-01 3.3247795701026917e-01</leafValues></_>
        <_>
          <internalNodes>
            0 -1 149 -20976673 -127968771 2073178570 -1536167453
            -201614772 -803561365 -201663596 -83959860</internalNodes>
          <leafValues>
            -4.5110127329826355e-01 4.6314156055450439e-01</leafValues></_></weakClassifiers></_>
    <!-- stage 10 -->
    <_>
      <maxWeakCount>7</maxWeakCount>
      <stageThreshold>-1.3828293085098267e+00</stageThreshold>
      <weakClassifiers>
        <_>
          <internalNodes>
            0 -1 123 -41601739 -12724769 2140127007 -2103299 -1080036417
            -1084242721 -1111507025 -1073741825</internalNodes>
          <leafValues>
            -6.7019921541213989e-01 4.7688564658164978e-01</leafValues></_>
        <_>
          <internalNodes>
            0 -1 89 2144401900 -251797537 -72090641 -4119 -47843337
            -84019230 -1073893377 -16925953</internalNodes>
          <leafValues>
            -4.9676090478897095e-01 3.8551342487335205e-01</leafValues></_>
        <_>
          <internalNodes>
            0 -1 29 -275874976 1322188774 -941629978 -3146882 -706255881
            -1132463109 1267131732 -321913865</internalNodes>
          <leafValues>
            -5.2659744024276733e-01 3.6484450101852417e-01</leafValues></_>
        <_>
          <internalNodes>
            0 -1 0 651096942 -425407553 -1120461454 -68106242
            -1080034369 116181495 -272388633 -699657</internalNodes>
          <leafValues>
            -6.0678946971893311e-01 3.0977255105972290e-01</leafValues></_>
        <_>
          <internalNodes>
            0 -1 142 -856176769 -1394738251 -1742735924 -795018326
            1998539125 -572536787 -759172577 1687678847</internalNodes>
          <leafValues>
            -6.3821125030517578e-01 3.1623858213424683e-01</leafValues></_>
        <_>
          <internalNodes>
            0 -1 118 782828576 786095548 2065680218 -65857 2065412213
            -1088511557 -2331140 -286467076</internalNodes>
          <leafValues>
            -6.5950286388397217e-01 2.8049710392951965e-01</leafValues></_>
        <_>
          <internalNodes>
            0 -1 134 -858502275 1574690041 2136593111 -547620385
            -1414399170 -38049117 -20746310 -21168489</internalNodes>
          <leafValues>
            -4.5257639884948730e-01 4.1639542579650879e-01</leafValues></_></weakClassifiers></_>
    <!-- stage 11 -->
    <_>
      <maxWeakCount>9</maxWeakCount>
      <stageThreshold>-2.0340447425842285e+00</stageThreshold>
      <weakClassifiers>
        <_>
          <internalNodes>
            0 -1 48 -1537 -8937997 -910429953 2136011762 -2097153
            -1354778925 -103830565 -525605</internalNodes>
          <leafValues>
            -6.8437433242797852e-01 2.9682996869087219e-01</leafValues></_>
        <_>
          <internalNodes>
            0 -1 157 771565500 68717526 -245509803 533470100 -544342052
            -805977557 -230421 -1090519105</internalNodes>
          <leafValues>
            -6.2211132049560547e-01 1.9975674152374268e-01</leafValues></_>
        <_>
          <internalNodes>
            0 -1 21 -543163393 1005547935 2008538575 -16810657 -4725761
            2041477845 -741900428 1677163338</internalNodes>
          <leafValues>
            -6.4909589290618896e-01 2.3488463461399078e-01</leafValues></_>
        <_>
          <internalNodes>
            0 -1 101 -9306639 -1466305570 -103681057 351056830
            1964178039 -568671434 45550332 766982086</internalNodes>
          <leafValues>
            -5.8362168073654175e-01 3.0714970827102661e-01</leafValues></_>
        <_>
          <internalNodes>
            0 -1 100 748956416 249000927 218224951 46026462 1071640581
            1671687961 497015599 921646060</internalNodes>
          <leafValues>
            -8.3841437101364136e-01 1.7671450972557068e-01</leafValues></_>
        <_>
          <internalNodes>
            0 -1 97 -1209337228 -878803970 -147367177 -739085857
            -74285192 -847821003 -303711406 -353900262</internalNodes>
          <leafValues>
            -4.7127696871757507e-01 3.3557948470115662e-01</leafValues></_>
        <_>
          <internalNodes>
            0 -1 15 1060385204 -649267364 -1783047683 -36646739
            1397166388 -28622078 2020948956 -21221388</internalNodes>
          <leafValues>
            -6.5907126665115356e-01 2.3787724971771240e-01</leafValues></_>
        <_>
          <internalNodes>
            0 -1 25 -1141909851 -2037199526 -905379662 -7275142
            -842142016 -343128055 1810217965 -688529595</internalNodes>
          <leafValues>
            -5.9582322835922241e-01 2.6032790541648865e-01</leafValues></_>
        <_>
          <internalNodes>
            0 -1 94 -18993373 798447339 -124333907 986586547 -537143011
            -13963109 1999510628 -386914315</internalNodes>
          <leafValues>
            -5.8246487379074097e-01 2.6249235868453979e-01</leafValues></_></weakClassifiers></_>
    <!-- stage 12 -->
    <_>
      <maxWeakCount>10</maxWeakCount>
      <stageThreshold>-1.9324150085449219e+00</stageThreshold>
      <weakClassifiers>
        <_>
          <internalNodes>
            0 -1 49 -791638529 -2112033 -573593601 -555313 -538116097
            -610563397 -1081152513 -36869</internalNodes>
          <leafValues>
            -6.5341144800186157e-01 4.6194225549697876e-01</leafValues></_>
        <_>
          <internalNodes>
            0 -1 114 -589699851 221861207 -250323073 -8826409 -980173329
            205386751 -66209089 -1996505093</internalNodes>
          <leafValues>
            -5.0584131479263306e-01 3.2290473580360413e-01</leafValues></_>
        <_>
          <internalNodes>
            0 -1 5 -1896961249 246997464 -124598324 657695488 446577503
            2147367521 124739109 1903649591</internalNodes>
          <leafValues>
            -7.1191716194152832e-01 2.0866213738918304e-01</leafValues></_>
        <_>
          <internalNodes>
            0 -1 153 -1967158705 -243531937 -65665 1378549534 -159416550
            -545816713 -2097508 -137109601</internalNodes>
          <leafValues>
            -3.7212213873863220e-01 4.5505574345588684e-01</leafValues></_>
        <_>
          <internalNodes>
            0 -1 83 -65671 265432445 -1857564706 1095766228 1643789557
            1597950463 1879111280 1006415528</internalNodes>
          <leafValues>
            -6.6659402847290039e-01 2.1151173114776611e-01</leafValues></_>
        <_>
          <internalNodes>
            0 -1 26 -37751341 -50397185 -1073872977 -33685516 -541204483
            -131075 -4 -10092621</internalNodes>
          <leafValues>
            -3.6806124448776245e-01 4.3900981545448303e-01</leafValues></_>
        <_>
          <internalNodes>
            0 -1 53 2145206105 2113565131 166854140 -280302851
            2055362935 2123892909 2142404469 2137422711</internalNodes>
          <leafValues>
            -7.4185919761657715e-01 2.1709005534648895e-01</leafValues></_>
        <_>
          <internalNodes>
            0 -1 78 -3236236 -151981840 1501180413 -1213473393
            -496044685 1877584607 2010861995 -672158901</internalNodes>
          <leafValues>
            -4.2911487817764282e-01 3.8325718045234680e-01</leafValues></_>
        <_>
          <internalNodes>
            0 -1 136 -1227622846 -116014117 1342932502 -254683790
            417195292 1539041522 -8205360 -117977089</internalNodes>
          <leafValues>
            -4.9629998207092285e-01 3.3837419748306274e-01</leafValues></_>
        <_>
          <internalNodes>
            0 -1 27 -583158046 -187690088 503534856 -184218791
            -1516467204 -257096539 -1914048610 154140314</internalNodes>
          <leafValues>
            -4.4929885864257813e-01 3.8805794715881348e-01</leafValues></_></weakClassifiers></_>
    <!-- stage 13 -->
    <_>
      <maxWeakCount>10</maxWeakCount>
      <stageThreshold>-1.9203761816024780e+00</stageThreshold>
      <weakClassifiers>
        <_>
          <internalNodes>
            0 -1 80 -67372033 -571500545 98817877 -1089482317 -548418561
            -5575713 -89186609 -202398757</internalNodes>
          <leafValues>
            -6.5738576650619507e-01 3.8682633638381958e-01</leafValues></_>
        <_>
          <internalNodes>
            0 -1 139 -20481 -4097 -268439553 -536870914 1191139319
            -671088643 -1913140049 -839385601</internalNodes>
          <leafValues>
            -4.1977453231811523e-01 4.6663120388984680e-01</leafValues></_>
        <_>
          <internalNodes>
            0 -1 129 1042824960 -1395784308 -558105075 -1610614185
            -114322920 -1359338375 -41485315 -117965841</internalNodes>
          <leafValues>
            -4.6082180738449097e-01 3.5840967297554016e-01</leafValues></_>
        <_>
          <internalNodes>
            0 -1 43 -129 -1208287235 -4098 -1275332054 -65542
            -1754565154 -469934008 -371462117</internalNodes>
          <leafValues>
            -3.5671943426132202e-01 4.0914434194564819e-01</leafValues></_>
        <_>
          <internalNodes>
            0 -1 107 -286265396 -329983009 -629269704 -1090715841
            1719756525 -14287287 -118768964 -593626374</internalNodes>
          <leafValues>
            -5.4333114624023438e-01 2.8629735112190247e-01</leafValues></_>
        <_>
          <internalNodes>
            0 -1 39 -289529311 -1899888136 -805243698 -876708458
            2107175540 1530241197 -226463580 -983711</internalNodes>
          <leafValues>
            -6.2083494663238525e-01 2.6118260622024536e-01</leafValues></_>
        <_>
          <internalNodes>
            0 -1 99 1065151164 -1730354722 -218071717 1669903299
            1334822165 794538883 1714480573 662023950</internalNodes>
          <leafValues>
            -5.7348561286926270e-01 2.6721087098121643e-01</leafValues></_>
        <_>
          <internalNodes>
            0 -1 30 -1178632395 1495533866 -1862170635 -592793462
            1622668286 1722534664 -1853365263 -706741325</internalNodes>
          <leafValues>
            -4.3124181032180786e-01 3.5631009936332703e-01</leafValues></_>
        <_>
          <internalNodes>
            0 -1 60 -992032180 -747727889 -166469633 -1140924146
            -1814308908 -1036800977 801110516 1131881466</internalNodes>
          <leafValues>
            -5.4805696010589600e-01 2.8642347455024719e-01</leafValues></_>
        <_>
          <internalNodes>
            0 -1 71 -588322828 -1627465381 -2079189996 -1932236294
            1267356349 -342179553 -1465529739 -867893500</internalNodes>
          <leafValues>
            -7.5729691982269287e-01 1.8647041916847229e-01</leafValues></_></weakClassifiers></_>
    <!-- stage 14 -->
    <_>
      <maxWeakCount>11</maxWeakCount>
      <stageThreshold>-1.9598164558410645e+00</stageThreshold>
      <weakClassifiers>
        <_>
          <internalNodes>
            0 -1 45 -33554465 -76298381 -704777481 -3024912 -540021761
            -71066645 -70258689 -262</internalNodes>
          <leafValues>
            -6.5838116407394409e-01 3.9495798945426941e-01</leafValues></_>
        <_>
          <internalNodes>
            0 -1 141 -287314020 -202379491 -4197 -8656950 -17039842
            -723550627 -8247 -214434017</internalNodes>
          <leafValues>
            -3.9962580800056458e-01 4.2566674947738647e-01</leafValues></_>
        <_>
          <internalNodes>
            0 -1 130 1759313919 -1438747979 898686943 -1281635405
            -57147393 -1182134253 -656409793 -1741164769</internalNodes>
          <leafValues>
            -4.9298352003097534e-01 3.2509288191795349e-01</leafValues></_>
        <_>
          <internalNodes>
            0 -1 64 -248119916 -87158818 -1684276801 519386358 871425904
            -152057799 1067777006 1894979934</internalNodes>
          <leafValues>
            -5.7704806327819824e-01 2.5446921586990356e-01</leafValues></_>
        <_>
          <internalNodes>
            0 -1 150 -1359046487 -1433910854 -129121854 -788736896
            -351766252 1830404095 -661929606 -387908723</internalNodes>
          <leafValues>
            -5.5855828523635864e-01 2.7531582117080688e-01</leafValues></_>
        <_>
          <internalNodes>
            0 -1 38 -1417468113 -664612450 -586098195 2090246622
            959532132 1445693923 -1481389061 -406537</internalNodes>
          <leafValues>
            -4.5026373863220215e-01 3.2695150375366211e-01</leafValues></_>
        <_>
          <internalNodes>
            0 -1 7 -773868879 287150879 -2111911521 1528740399
            -1064834817 1888274523 -380634113 -42927594</internalNodes>
          <leafValues>
            -4.3008878827095032e-01 3.5463693737983704e-01</leafValues></_>
        <_>
          <internalNodes>
            0 -1 119 -337672441 210295722 -1883187731 -302385763
            -113288944 1539277091 463707117 -5640773</internalNodes>
          <leafValues>
            -4.0665495395660400e-01 3.7789955735206604e-01</leafValues></_>
        <_>
          <internalNodes>
            0 -1 104 -141779026 500793815 -718595158 1040099314
            -490636819 -314463857 1005566909 183641906</internalNodes>
          <leafValues>
            -5.6854522228240967e-01 2.8170043230056763e-01</leafValues></_>
        <_>
          <internalNodes>
            0 -1 102 -655068506 -560696514 -212903141 927891059
            -1221072419 -1073954391 -1517999685 1073166324</internalNodes>
          <leafValues>
            -5.3450125455856323e-01 2.8347522020339966e-01</leafValues></_>
        <_>
          <internalNodes>
            0 -1 18 -69730505 -1089998344 1426112862 -604247853
            -1058638992 -376833847 -1368732932 -814219542</internalNodes>
          <leafValues>
            -4.1139107942581177e-01 3.8157668709754944e-01</leafValues></_></weakClassifiers></_>
    <!-- stage 15 -->
    <_>
      <maxWeakCount>10</maxWeakCount>
      <stageThreshold>-1.6942654848098755e+00</stageThreshold>
      <weakClassifiers>
        <_>
          <internalNodes>
            0 -1 143 -1093 -3249 1380316827 -10857 -524037922 -7894893
            -388057894 -131089</internalNodes>
          <leafValues>
            -6.6587007045745850e-01 3.1483456492424011e-01</leafValues></_>
        <_>
          <internalNodes>
            0 -1 35 1523557890 -27289125 -2065866921 -136867561
            -472272129 -7732584 -457069634 342338679</internalNodes>
          <leafValues>
            -5.6012994050979614e-01 2.2420166432857513e-01</leafValues></_>
        <_>
          <internalNodes>
            0 -1 67 -268685452 -1494332514 1786725247 402635639
            -1518407822 -1392793315 1941725055 -1377876673</internalNodes>
          <leafValues>
            -4.2146790027618408e-01 3.4498107433319092e-01</leafValues></_>
        <_>
          <internalNodes>
            0 -1 144 -809818386 968222199 -1056733714 572671787
            2071943224 1492883646 2118858398 39842442</internalNodes>
          <leafValues>
            -6.6771113872528076e-01 2.2546260058879852e-01</leafValues></_>
        <_>
          <internalNodes>
            0 -1 90 88358852 678738907 -544614913 -34712491 1598816085
            -46793802 2018900959 1449471780</internalNodes>
          <leafValues>
            -6.5079176425933838e-01 2.3162920773029327e-01</leafValues></_>
        <_>
          <internalNodes>
            0 -1 37 -637570337 -878738225 1158431118 -1630348816
            -875835764 -1618228578 -70791262 22175584</internalNodes>
          <leafValues>
            -7.8255510330200195e-01 1.7321275174617767e-01</leafValues></_>
        <_>
          <internalNodes>
            0 -1 121 498866576 1724854551 -2095336965 -1293970514
            1065523319 -1355046355 860242766 -1368179393</internalNodes>
          <leafValues>
            -5.2864730358123779e-01 2.7756369113922119e-01</leafValues></_>
        <_>
          <internalNodes>
            0 -1 95 -897628927 1693570367 1594620910 721605472
            -840321187 950568991 -812758113 1543371611</internalNodes>
          <leafValues>
            -4.8471045494079590e-01 3.0727601051330566e-01</leafValues></_>
        <_>
          <internalNodes>
            0 -1 132 1049267807 156214399 -634071041 -1093190690
            334232509 2039026586 -15910530 1023175662</internalNodes>
          <leafValues>
            -5.9617233276367188e-01 2.4351370334625244e-01</leafValues></_>
        <_>
          <internalNodes>
            0 -1 79 2006620532 -1169202884 -1287399506 -287376070
            -624278862 -151825750 1773821936 1776645958</internalNodes>
          <leafValues>
            -5.9048700332641602e-01 2.2740428149700165e-01</leafValues></_></weakClassifiers></_>
    <!-- stage 16 -->
    <_>
      <maxWeakCount>10</maxWeakCount>
      <stageThreshold>-2.0309951305389404e+00</stageThreshold>
      <weakClassifiers>
        <_>
          <internalNodes>
            0 -1 125 -42256076 -11030147 1464458175 -8410117 -272107073
            -2503921 -57951041 -4456517</internalNodes>
          <leafValues>
            -6.7648369073867798e-01 2.4763704836368561e-01</leafValues></_>
        <_>
          <internalNodes>
            0 -1 44 -69226613 521806184 1470743447 -34624312 1378177967
            755104322 -471374337 1742722403</internalNodes>
          <leafValues>
            -4.7099354863166809e-01 2.9240128397941589e-01</leafValues></_>
        <_>
          <internalNodes>
            0 -1 147 -1640974208 794656763 940543389 -1527219860
            -1476657403 2079108923 -1076109652 855625469</internalNodes>
          <leafValues>
            -6.0906302928924561e-01 2.3519025743007660e-01</leafValues></_>
        <_>
          <internalNodes>
            0 -1 68 -1165 -337903745 -1 -1212628994 -352354529
            1073708927 -151203460 -201464328</internalNodes>
          <leafValues>
            -3.7372055649757385e-01 3.8942834734916687e-01</leafValues></_>
        <_>
          <internalNodes>
            0 -1 54 -412093894 -454241944 1360885186 -275564102
            1657912831 -618491262 2076851060 -59969199</internalNodes>
          <leafValues>
            -5.0066620111465454e-01 3.0720180273056030e-01</leafValues></_>
        <_>
          <internalNodes>
            0 -1 20 529538868 -721647138 -630141766 -540142780
            -1756662787 2078919114 -874414988 -38002928</internalNodes>
          <leafValues>
            -6.6693651676177979e-01 2.2807163000106812e-01</leafValues></_>
        <_>
          <internalNodes>
            0 -1 50 -1434409724 2145055071 -2028877473 -1414124129
            -921789057 100920891 -106980557 905406975</internalNodes>
          <leafValues>
            -6.0542637109756470e-01 2.1250644326210022e-01</leafValues></_>
        <_>
          <internalNodes>
            0 -1 55 -404829828 1737922432 286348223 1304252527
            1956178045 -2088218428 -770584258 52873247</internalNodes>
          <leafValues>
            -5.7104283571243286e-01 2.5196933746337891e-01</leafValues></_>
        <_>
          <internalNodes>
            0 -1 74 671066666 -1168576162 1904252382 -860950 -1217848844
            1787414675 -175376152 -583016609</internalNodes>
          <leafValues>
            -4.5080032944679260e-01 3.2344752550125122e-01</leafValues></_>
        <_>
          <internalNodes>
            0 -1 156 114189259 1987253594 855659515 1457444954
            2073896288 1602994435 1792013156 -226636026</internalNodes>
          <leafValues>
            -4.7092416882514954e-01 3.2717078924179077e-01</leafValues></_></weakClassifiers></_>
    <!-- stage 17 -->
    <_>
      <maxWeakCount>11</maxWeakCount>
      <stageThreshold>-1.4408191442489624e+00</stageThreshold>
      <weakClassifiers>
        <_>
          <internalNodes>
            0 -1 57 -1059109 -817108014 1681233887 -268576304
            -1025777669 -1145068663 -926024193 -132133</internalNodes>
          <leafValues>
            -6.5518707036972046e-01 3.7320575118064880e-01</leafValues></_>
        <_>
          <internalNodes>
            0 -1 47 -816849027 -284427889 33849586 -1287069040
            1743766796 -1090343228 -504934259 -67653185</internalNodes>
          <leafValues>
            -4.4010147452354431e-01 3.1929406523704529e-01</leafValues></_>
        <_>
          <internalNodes>
            0 -1 32 1255135998 323930383 -1030182263 1615186847
            667875593 613059208 -978287345 1887563647</internalNodes>
          <leafValues>
            -7.2217464447021484e-01 1.8142831325531006e-01</leafValues></_>
        <_>
          <internalNodes>
            0 -1 124 125839620 612130299 -1424652395 -1544039717 -435587
            -1081573093 -37816833 1944876024</internalNodes>
          <leafValues>
            -5.9908074140548706e-01 2.4398182332515717e-01</leafValues></_>
        <_>
          <internalNodes>
            0 -1 69 -276824229 -877782117 -1156071562 157155518
            2103639879 504539785 808953978 -1124123918</internalNodes>
          <leafValues>
            -4.2505976557731628e-01 3.1547129154205322e-01</leafValues></_>
        <_>
          <internalNodes>
            0 -1 61 173162772 793428859 -854995043 2070847918 1237031703
            1315922011 1569171634 1467098554</internalNodes>
          <leafValues>
            -5.8738386631011963e-01 2.4821636080741882e-01</leafValues></_>
        <_>
          <internalNodes>
            0 -1 4 1797234558 -890580798 33641186 -2034620158 1493183467
            2107634410 684261951 1715863411</internalNodes>
          <leafValues>
            -5.9587609767913818e-01 2.4957837164402008e-01</leafValues></_>
        <_>
          <internalNodes>
            0 -1 112 251572092 1044083548 -1288219777 -139990054
            2021633519 361736558 -7657430 53914699</internalNodes>
          <leafValues>
            -4.9031195044517517e-01 2.7847659587860107e-01</leafValues></_>
        <_>
          <internalNodes>
            0 -1 127 -472023996 2001841255 -933941193 450179262
            940261120 1538902147 1068413664 -1197163649</internalNodes>
          <leafValues>
            -6.2791001796722412e-01 2.2989867627620697e-01</leafValues></_>
        <_>
          <internalNodes>
            0 -1 10 -1856564170 -1935072946 -914321001 -1311850406
            1246094781 -2004843478 1364678756 1595289426</internalNodes>
          <leafValues>
            -6.9714677333831787e-01 1.8939550220966339e-01</leafValues></_>
        <_>
          <internalNodes>
            0 -1 65 -1406469832 -728072030 -795496386 -1249545254
            -385817671 -1685092123 -1421110530 -52651323</internalNodes>
          <leafValues>
            -5.3338140249252319e-01 2.6068118214607239e-01</leafValues></_></weakClassifiers></_>
    <!-- stage 18 -->
    <_>
      <maxWeakCount>11</maxWeakCount>
      <stageThreshold>-1.9296720027923584e+00</stageThreshold>
      <weakClassifiers>
        <_>
          <internalNodes>
            0 -1 58 -822154626 -287144589 -1118583845 -10824929
            -1417080833 -826602853 -272634881 -4194309</internalNodes>
          <leafValues>
            -7.2761285305023193e-01 9.6015676856040955e-02</leafValues></_>
        <_>
          <internalNodes>
            0 -1 91 1473117676 -2767975 -49946817 -77762177 -205984777
            -86117819 -1684734037 -538050562</internalNodes>
          <leafValues>
            -4.2790970206260681e-01 3.6082938313484192e-01</leafValues></_>
        <_>
          <internalNodes>
            0 -1 131 -287841281 -2139295235 877753342 -1493896237
            -65412101 -2017226082 -2018799264 215994047</internalNodes>
          <leafValues>
            -6.5772193670272827e-01 1.9675864279270172e-01</leafValues></_>
        <_>
          <internalNodes>
            0 -1 98 -519427532 244195790 -1017916451 870189530
            -936641777 -140042018 -744506740 -478731858</internalNodes>
          <leafValues>
            -4.0480402112007141e-01 3.4706252813339233e-01</leafValues></_>
        <_>
          <internalNodes>
            0 -1 24 1439842746 -7290342 408130138 -43122185 -1191671503
            -595582317 -1154318160 -267060300</internalNodes>
          <leafValues>
            -7.4548244476318359e-01 1.8801870942115784e-01</leafValues></_>
        <_>
          <internalNodes>
            0 -1 96 -1034640864 44848544 -788344587 2143109149
            1342727283 992649384 681095544 -390286013</internalNodes>
          <leafValues>
            -5.6418699026107788e-01 2.2777995467185974e-01</leafValues></_>
        <_>
          <internalNodes>
            0 -1 59 -679477250 -856164356 -257 1549210329 -143196200
            -713261060 2047292961 -70831494</internalNodes>
          <leafValues>
            -3.4544733166694641e-01 4.2693477869033813e-01</leafValues></_>
        <_>
          <internalNodes>
            0 -1 63 -268633179 1285616638 932796575 1565682099
            -1516182688 2014095463 2031221469 14691652</internalNodes>
          <leafValues>
            -7.4010956287384033e-01 1.8986995518207550e-01</leafValues></_>
        <_>
          <internalNodes>
            0 -1 88 8657156 408711133 -32664609 1997691046 389083557
            555897221 986315148 795501738</internalNodes>
          <leafValues>
            -5.4542791843414307e-01 2.5017389655113220e-01</leafValues></_>
        <_>
          <internalNodes>
            0 -1 158 644878205 -67113025 -134938771 2004860910
            -285212683 -1510113281 1467871181 -1342429700</internalNodes>
          <leafValues>
            -3.7785163521766663e-01 4.0227130055427551e-01</leafValues></_>
        <_>
          <internalNodes>
            0 -1 36 273850944 -183237862 -1315994722 1056860498
            1943039091 -1416666993 183122753 235107637</internalNodes>
          <leafValues>
            -6.8316870927810669e-01 2.1680741012096405e-01</leafValues></_></weakClassifiers></_>
    <!-- stage 19 -->
    <_>
      <maxWeakCount>12</maxWeakCount>
      <stageThreshold>-1.6258726119995117e+00</stageThreshold>
      <weakClassifiers>
        <_>
          <internalNodes>
            0 -1 51 -1997362433 -851457 -644823585 -9331753 -119821825
            -290777032 -375661921 -79169</internalNodes>
          <leafValues>
            -6.6334056854248047e-01 3.0967742204666138e-01</leafValues></_>
        <_>
          <internalNodes>
            0 -1 110 -304143600 1059029533 -716842657 -1612974881
            -58398925 -83789533 2057022205 -673711365</internalNodes>
          <leafValues>
            -4.1699209809303284e-01 3.4365129470825195e-01</leafValues></_>
        <_>
          <internalNodes>
            0 -1 122 -1345867947 -1351960604 -955525286 577140388
            1162830970 -575432537 -59114252 1576139998</internalNodes>
          <leafValues>
            -5.4274809360504150e-01 2.5630649924278259e-01</leafValues></_>
        <_>
          <internalNodes>
            0 -1 52 -319668637 1744224715 -2117631561 797098262
            1149335414 -1698264951 1884028576 1878390759</internalNodes>
          <leafValues>
            -5.7198536396026611e-01 2.3539760708808899e-01</leafValues></_>
        <_>
          <internalNodes>
            0 -1 138 -944266289 -1324293801 285339963 -653106392
            -1014798428 -620519389 -787578221 1080351728</internalNodes>
          <leafValues>
            -5.7241678237915039e-01 2.5146809220314026e-01</leafValues></_>
        <_>
          <internalNodes>
            0 -1 117 1805525509 1326667944 974477512 537893253
            1267450859 1860922095 -133205490 175993043</internalNodes>
          <leafValues>
            -5.6946098804473877e-01 2.3750934004783630e-01</leafValues></_>
        <_>
          <internalNodes>
            0 -1 151 -497029630 454693979 -1070589606 -1836935842
            25883017 -933248460 1405597950 -217328678</internalNodes>
          <leafValues>
            -3.8236749172210693e-01 3.5821405053138733e-01</leafValues></_>
        <_>
          <internalNodes>
            0 -1 86 -540792548 -611447460 1126191541 2012923034
            722492607 1581127715 594249976 -1146354760</internalNodes>
          <leafValues>
            -4.1755646467208862e-01 3.5130584239959717e-01</leafValues></_>
        <_>
          <internalNodes>
            0 -1 77 -7286672 -1631641577 295790975 379265290 -1709038477
            -101473873 1937457926 1162327195</internalNodes>
          <leafValues>
            -5.0983744859695435e-01 2.7262559533119202e-01</leafValues></_>
        <_>
          <internalNodes>
            0 -1 126 850544708 -756954861 -419351618 526241876
            -1446576016 319422473 -1173288730 -1097587808</internalNodes>
          <leafValues>
            -6.9743990898132324e-01 2.0646388828754425e-01</leafValues></_>
        <_>
          <internalNodes>
            0 -1 42 -1006841006 260407516 -586346000 -1351940862
            1155542189 1309580930 -610473990 1709646603</internalNodes>
          <leafValues>
            -4.8225799202919006e-01 2.9995310306549072e-01</leafValues></_>
        <_>
          <internalNodes>
            0 -1 22 983447421 -1881136049 -1744547394 1463735762
            -73869059 -1207859197 -266194796 -611263660</internalNodes>
          <leafValues>
            -4.7264930605888367e-01 3.2400581240653992e-01</leafValues></_></weakClassifiers></_></stages>
  <features>
    <_>
      <rect>
        0 0 3 1</rect></_>
    <_>
      <rect>
        0 0 4 3</rect></_>
    <_>
      <rect>
        0 0 4 5</rect></_>
    <_>
      <rect>
        0 1 2 1</rect></_>
    <_>
      <rect>
        0 1 3 2</rect></_>
    <_>
      <rect>
        0 2 3 2</rect></_>
    <_>
      <rect>
        0 3 2 9</rect></_>
    <_>
      <rect>
        0 5 2 8</rect></_>
    <_>
      <rect>
        0 6 5 8</rect></_>
    <_>
      <rect>
        0 10 2 2</rect></_>
    <_>
      <rect>
        0 10 2 4</rect></_>
    <_>
      <rect>
        0 11 2 2</rect></_>
    <_>
      <rect>
        0 13 2 5</rect></_>
    <_>
      <rect>
        0 14 2 5</rect></_>
    <_>
      <rect>
        0 14 5 5</rect></_>
    <_>
      <rect>
        0 15 1 3</rect></_>
    <_>
      <rect>
        0 15 5 5</rect></_>
    <_>
      <rect>
        0 17 3 1</rect></_>
    <_>
      <rect>
        0 18 2 2</rect></_>
    <_>
      <rect>
        0 20 5 3</rect></_>
    <_>
      <rect>
        0 24 1 2</rect></_>
    <_>
      <rect>
        0 24 5 2</rect></_>
    <_>
      <rect>
        0 25 1 1</rect></_>
    <_>
      <rect>
        0 27 2 1</rect></_>
    <_>
      <rect>
        1 0 5 6</rect></_>
    <_>
      <rect>
        1 1 2 6</rect></_>
    <_>
      <rect>
        1 1 3 5</rect></_>
    <_>
      <rect>
        1 5 5 3</rect></_>
    <_>
      <rect>
        1 7 5 3</rect></_>
    <_>
      <rect>
        1 11 1 1</rect></_>
    <_>
      <rect>
        1 12 1 1</rect></_>
    <_>
      <rect>
        1 13 5 5</rect></_>
    <_>
      <rect>
        1 14 5 3</rect></_>
    <_>
      <rect>
        1 22 2 2</rect></_>
    <_>
      <rect>
        2 0 2 1</rect></_>
    <_>
      <rect>
        2 0 4 1</rect></_>
    <_>
      <rect>
        2 1 3 3</rect></_>
    <_>
      <rect>
        2 4 3 7</rect></_>
    <_>
      <rect>
        2 6 2 1</rect></_>
    <_>
      <rect>
        2 7 1 1</rect></_>
    <_>
      <rect>
        2 7 2 3</rect></_>
    <_>
      <rect>
        2 11 4 2</rect></_>
    <_>
      <rect>
        2 12 2 2</rect></_>
    <_>
      <rect>
        2 12 4 3</rect></_>
    <_>
      <rect>
        2 13 1 2</rect></_>
    <_>
      <rect>
        2 13 2 3</rect></_>
    <_>
      <rect>
        2 13 3 3</rect></_>
    <_>
      <rect>
        2 13 4 3</rect></_>
    <_>
      <rect>
        2 14 2 3</rect></_>
    <_>
      <rect>
        2 15 2 1</rect></_>
    <_>
      <rect>
        2 15 3 1</rect></_>
    <_>
      <rect>
        2 16 2 1</rect></_>
    <_>
      <rect>
        2 23 1 1</rect></_>
    <_>
      <rect>
        2 27 1 1</rect></_>
    <_>
      <rect>
        3 2 1 1</rect></_>
    <_>
      <rect>
        3 9 4 2</rect></_>
    <_>
      <rect>
        3 11 2 2</rect></_>
    <_>
      <rect>
        3 12 1 3</rect></_>
    <_>
      <rect>
        3 12 2 1</rect></_>
    <_>
      <rect>
        3 12 3 5</rect></_>
    <_>
      <rect>
        3 13 2 1</rect></_>
    <_>
      <rect>
        3 14 2 1</rect></_>
    <_>
      <rect>
        3 16 3 1</rect></_>
    <_>
      <rect>
        3 16 3 4</rect></_>
    <_>
      <rect>
        3 18 2 4</rect></_>
    <_>
      <rect>
        4 0 1 1</rect></_>
    <_>
      <rect>
        4 2 4 2</rect></_>
    <_>
      <rect>
        4 10 2 2</rect></_>
    <_>
      <rect>
        4 12 2 3</rect></_>
    <_>
      <rect>
        4 13 3 4</rect></_>
    <_>
      <rect>
        5 0 1 1</rect></_>
    <_>
      <rect>
        5 1 2 1</rect></_>
    <_>
      <rect>
        5 4 2 3</rect></_>
    <_>
      <rect>
        5 5 1 2</rect></_>
    <_>
      <rect>
        5 5 2 1</rect></_>
    <_>
      <rect>
        5 6 2 2</rect></_>
    <_>
      <rect>
        5 7 1 1</rect></_>
    <_>
      <rect>
        5 10 2 2</rect></_>
    <_>
      <rect>
        5 11 2 2</rect></_>
    <_>
      <rect>
        5 11 2 3</rect></_>
    <_>
      <rect>
        5 11 2 5</rect></_>
    <_>
      <rect>
        5 12 3 3</rect></_>
    <_>
      <rect>
        5 13 2 3</rect></_>
    <_>
      <rect>
        5 14 2 3</rect></_>
    <_>
      <rect>
        5 15 2 2</rect></_>
    <_>
      <rect>
        5 16 2 1</rect></_>
    <_>
      <rect>
        5 17 2 1</rect></_>
    <_>
      <rect>
        5 17 2 3</rect></_>
    <_>
      <rect>
        5 19 2 1</rect></_>
    <_>
      <rect>
        5 20 2 3</rect></_>
    <_>
      <rect>
        5 21 2 2</rect></_>
    <_>
      <rect>
        5 22 2 2</rect></_>
    <_>
      <rect>
        6 0 1 1</rect></_>
    <_>
      <rect>
        6 0 3 6</rect></_>
    <_>
      <rect>
        6 2 2 1</rect></_>
    <_>
      <rect>
        6 4 3 2</rect></_>
    <_>
      <rect>
        6 7 2 1</rect></_>
    <_>
      <rect>
        6 11 2 2</rect></_>
    <_>
      <rect>
        6 13 2 1</rect></_>
    <_>
      <rect>
        6 14 2 2</rect></_>
    <_>
      <rect>
        6 15 2 1</rect></_>
    <_>
      <rect>
        6 15 2 4</rect></_>
    <_>
      <rect>
        6 18 2 4</rect></_>
    <_>
      <rect>
        6 20 3 3</rect></_>
    <_>
      <rect>
        6 24 1 2</rect></_>
    <_>
      <rect>
        7 0 2 3</rect></_>
    <_>
      <rect>
        7 0 3 8</rect></_>
    <_>
      <rect>
        7 1 3 5</rect></_>
    <_>
      <rect>
        7 2 1 1</rect></_>
    <_>
      <rect>
        7 5 1 2</rect></_>
    <_>
      <rect>
        7 11 2 1</rect></_>
    <_>
      <rect>
        7 11 2 2</rect></_>
    <_>
      <rect>
        7 12 2 2</rect></_>
    <_>
      <rect>
        7 15 3 4</rect></_>
    <_>
      <rect>
        7 17 3 1</rect></_>
    <_>
      <rect>
        8 0 1 1</rect></_>
    <_>
      <rect>
        8 0 2 1</rect></_>
    <_>
      <rect>
        8 3 2 1</rect></_>
    <_>
      <rect>
        8 6 1 1</rect></_>
    <_>
      <rect>
        8 6 2 1</rect></_>
    <_>
      <rect>
        8 8 1 1</rect></_>
    <_>
      <rect>
        8 10 1 2</rect></_>
    <_>
      <rect>
        8 13 2 3</rect></_>
    <_>
      <rect>
        8 15 2 1</rect></_>
    <_>
      <rect>
        8 16 1 1</rect></_>
    <_>
      <rect>
        8 16 2 1</rect></_>
    <_>
      <rect>
        9 0 1 1</rect></_>
    <_>
      <rect>
        9 0 2 1</rect></_>
    <_>
      <rect>
        9 1 2 1</rect></_>
    <_>
      <rect>
        9 12 1 1</rect></_>
    <_>
      <rect>
        9 17 2 3</rect></_>
    <_>
      <rect>
        9 24 2 2</rect></_>
    <_>
      <rect>
        9 27 1 1</rect></_>
    <_>
      <rect>
        9 27 2 1</rect></_>
    <_>
      <rect>
        10 0 1 1</rect></_>
    <_>
      <rect>
        10 0 2 3</rect></_>
    <_>
      <rect>
        10 1 2 1</rect></_>
    <_>
      <rect>
        10 2 2 9</rect></_>
    <_>
      <rect>
        10 4 2 8</rect></_>
    <_>
      <rect>
        10 5 2 8</rect></_>
    <_>
      <rect>
        10 9 2 2</rect></_>
    <_>
      <rect>
        10 11 1 2</rect></_>
    <_>
      <rect>
        10 11 2 2</rect></_>
    <_>
      <rect>
        10 13 1 3</rect></_>
    <_>
      <rect>
        10 13 2 2</rect></_>
    <_>
      <rect>
        10 13 2 5</rect></_>
    <_>
      <rect>
        10 14 2 5</rect></_>
    <_>
      <rect>
        10 15 1 1</rect></_>
    <_>
      <rect>
        10 27 2 1</rect></_>
    <_>
      <rect>
        11 2 1 1</rect></_>
    <_>
      <rect>
        11 7 1 1</rect></_>
    <_>
      <rect>
        11 11 1 1</rect></_>
    <_>
      <rect>
        12 10 1 1</rect></_>
    <_>
      <rect>
        12 11 1 1</rect></_>
    <_>
      <rect>
        12 12 1 1</rect></_>
    <_>
      <rect>
        12 27 1 1</rect></_>
    <_>
      <rect>
        13 13 1 1</rect></_>
    <_>
      <rect>
        13 15 1 3</rect></_>
    <_>
      <rect>
        13 21 1 1</rect></_></features></cascade>
</opencv_storage>
