<?xml version="1.0"?>
<opencv_storage>
<cascade>
  <stageType>BOOST</stageType>
  <featureType>LBP</featureType>
  <height>24</height>
  <width>36</width>
  <stageParams>
    <boostType>GAB</boostType>
    <minHitRate>9.9900001287460327e-01</minHitRate>
    <maxFalseAlarm>4.1999998688697815e-01</maxFalseAlarm>
    <weightTrimRate>9.4999998807907104e-01</weightTrimRate>
    <maxDepth>1</maxDepth>
    <maxWeakCount>100</maxWeakCount></stageParams>
  <featureParams>
    <maxCatCount>256</maxCatCount>
    <featSize>1</featSize></featureParams>
  <stageNum>14</stageNum>
  <stages>
    <!-- stage 0 -->
    <_>
      <maxWeakCount>3</maxWeakCount>
      <stageThreshold>-1.3490829467773438e+00</stageThreshold>
      <weakClassifiers>
        <_>
          <internalNodes>
            0 -1 2 -4391427 -40576556 -112337441 -37899425 -124462596
            -36667236 -5506049 -1048577</internalNodes>
          <leafValues>
            -9.0261739492416382e-01 7.6634383201599121e-01</leafValues></_>
        <_>
          <internalNodes>
            0 -1 29 -673260035 -11054179 -107028995 -2239156 -74544129
            -4609525 -75432966 -524242364</internalNodes>
          <leafValues>
            -8.7382513284683228e-01 5.3505057096481323e-01</leafValues></_>
        <_>
          <internalNodes>
            0 -1 47 -102957840 -16998945 -36650540 -1080231457
            -108667403 -4346401 -72761347 -4097</internalNodes>
          <leafValues>
            -8.9040881395339966e-01 4.2735958099365234e-01</leafValues></_></weakClassifiers></_>
    <!-- stage 1 -->
    <_>
      <maxWeakCount>5</maxWeakCount>
      <stageThreshold>-1.3087558746337891e+00</stageThreshold>
      <weakClassifiers>
        <_>
          <internalNodes>
            0 -1 22 -539688963 -46072963 2077326847 -11937 -73077763
            -34281059 -2228257 -4195329</internalNodes>
          <leafValues>
            -8.8986968994140625e-01 3.8755980134010315e-01</leafValues></_>
        <_>
          <internalNodes>
            0 -1 85 -2302467 -539429891 -104825347 -3212291 -3277315
            -1113002329 -84460609 -1</internalNodes>
          <leafValues>
            -7.5924605131149292e-01 4.1810473799705505e-01</leafValues></_>
        <_>
          <internalNodes>
            0 -1 98 786431999 117100462 -4588546 -1394696294 -65
            970961843 -22021122 -1392509953</internalNodes>
          <leafValues>
            -7.6074111461639404e-01 4.5798072218894958e-01</leafValues></_>
        <_>
          <internalNodes>
            0 -1 52 243288285 1040126429 798719487 -1075897347
            2111590909 -1075110917 2059402239 -17904684</internalNodes>
          <leafValues>
            -6.3215732574462891e-01 5.3083616495132446e-01</leafValues></_>
        <_>
          <internalNodes>
            0 -1 28 -2049 -8063755 -15139842 -26412049 -120717347
            -52368507 -7996459 -2229249</internalNodes>
          <leafValues>
            -6.0708600282669067e-01 6.1241108179092407e-01</leafValues></_></weakClassifiers></_>
    <!-- stage 2 -->
    <_>
      <maxWeakCount>6</maxWeakCount>
      <stageThreshold>-1.2963474988937378e+00</stageThreshold>
      <weakClassifiers>
        <_>
          <internalNodes>
            0 -1 32 -196611 -37947555 522158079 -3621 -67252739 -152641
            -4596737 -4211781</internalNodes>
          <leafValues>
            -8.1422352790832520e-01 2.4839505553245544e-01</leafValues></_>
        <_>
          <internalNodes>
            0 -1 15 -524425 2147481599 1267990399 -787493 2143777591
            2076010267 2080079871 1932752759</internalNodes>
          <leafValues>
            -7.4857074022293091e-01 3.9443111419677734e-01</leafValues></_>
        <_>
          <internalNodes>
            0 -1 75 487074064 431535388 -720150681 -1073770179
            1068908477 -1095033957 1072578479 -65612</internalNodes>
          <leafValues>
            -7.3125457763671875e-01 4.1110944747924805e-01</leafValues></_>
        <_>
          <internalNodes>
            0 -1 20 -540477220 -4402981 -803548676 -102769957 -774047328
            -103226744 -389748232 -639631361</internalNodes>
          <leafValues>
            -7.8527426719665527e-01 3.4061378240585327e-01</leafValues></_>
        <_>
          <internalNodes>
            0 -1 90 -268455937 538441721 -113118881 -1766071905
            697247669 479955375 -19268897 1442825337</internalNodes>
          <leafValues>
            -7.0178765058517456e-01 3.8657838106155396e-01</leafValues></_>
        <_>
          <internalNodes>
            0 -1 37 -36701473 180679615 285421979 266181353 2144936245
            999445150 2047048575 729791291</internalNodes>
          <leafValues>
            -7.7773052453994751e-01 3.3377870917320251e-01</leafValues></_></weakClassifiers></_>
    <!-- stage 3 -->
    <_>
      <maxWeakCount>8</maxWeakCount>
      <stageThreshold>-2.0267717838287354e+00</stageThreshold>
      <weakClassifiers>
        <_>
          <internalNodes>
            0 -1 57 -783810561 -150744069 1359601151 -203426817
            -787221761 -7093777 -2099205 -747642358</internalNodes>
          <leafValues>
            -7.5525587797164917e-01 2.1262457966804504e-01</leafValues></_>
        <_>
          <internalNodes>
            0 -1 13 -71419019 -67208517 -1099801161 -141354049 -71468464
            1005480497 -2392067 -8425601</internalNodes>
          <leafValues>
            -6.5929943323135376e-01 3.8626536726951599e-01</leafValues></_>
        <_>
          <internalNodes>
            0 -1 36 -29697 930606303 -1244419093 -1209579617 2143121279
            797060303 2147167103 1070551039</internalNodes>
          <leafValues>
            -6.7915284633636475e-01 4.1580116748809814e-01</leafValues></_>
        <_>
          <internalNodes>
            0 -1 96 -2869 -730021691 -1056245972 -640101442 1872978372
            -34754807 -1062319892 -186843690</internalNodes>
          <leafValues>
            -5.8577418327331543e-01 4.4363227486610413e-01</leafValues></_>
        <_>
          <internalNodes>
            0 -1 60 -672431218 1801621962 -1265395574 -1345670661
            -712000020 1534841243 -68209059 -209731649</internalNodes>
          <leafValues>
            -5.3146582841873169e-01 5.2205759286880493e-01</leafValues></_>
        <_>
          <internalNodes>
            0 -1 74 470818072 1001395677 -1620624019 -1111533337
            227687103 -1080350005 -1616110593 -1090615420</internalNodes>
          <leafValues>
            -7.0388716459274292e-01 3.8041090965270996e-01</leafValues></_>
        <_>
          <internalNodes>
            0 -1 7 -169870337 -749549350 1208053914 -1626288366
            -536689938 -108306487 -664346114 1393676051</internalNodes>
          <leafValues>
            -6.2513542175292969e-01 4.2900025844573975e-01</leafValues></_>
        <_>
          <internalNodes>
            0 -1 5 -327225526 -1566521875 -600138844 -526404777
            -226271371 1664109199 -16024794 -424149145</internalNodes>
          <leafValues>
            -6.6159975528717041e-01 4.3026906251907349e-01</leafValues></_></weakClassifiers></_>
    <!-- stage 4 -->
    <_>
      <maxWeakCount>8</maxWeakCount>
      <stageThreshold>-1.4909471273422241e+00</stageThreshold>
      <weakClassifiers>
        <_>
          <internalNodes>
            0 -1 18 2113896311 -572531713 -540279297 -2105865 2141945719
            -6066245 -2130057 -1</internalNodes>
          <leafValues>
            -8.0499887466430664e-01 6.2733694911003113e-02</leafValues></_>
        <_>
          <internalNodes>
            0 -1 53 766512380 -1073800194 -1138819107 -1077990948
            699141565 -1077981715 -1415939077 -38917124</internalNodes>
          <leafValues>
            -7.6946699619293213e-01 3.1025287508964539e-01</leafValues></_>
        <_>
          <internalNodes>
            0 -1 82 -101318916 -1771016 -672071684 -4392518 -1142051923
            -72303959 -72351748 -1049601</internalNodes>
          <leafValues>
            -7.0655918121337891e-01 3.3411476016044617e-01</leafValues></_>
        <_>
          <internalNodes>
            0 -1 39 -152374836 -707988514 -301016086 -286470706
            -241696815 1975111671 -6030352 -254805249</internalNodes>
          <leafValues>
            -6.7394775152206421e-01 3.9047572016716003e-01</leafValues></_>
        <_>
          <internalNodes>
            0 -1 109 -1912603141 265693175 -1379683489 -1075848963
            -1074807874 -904707865 1271521279 -905983755</internalNodes>
          <leafValues>
            -5.1060581207275391e-01 5.0270158052444458e-01</leafValues></_>
        <_>
          <internalNodes>
            0 -1 66 -333 -14222997 -1886810582 -1425094262 -544473827
            1966056285 -821097952 1965946751</internalNodes>
          <leafValues>
            -6.3742232322692871e-01 4.0674152970314026e-01</leafValues></_>
        <_>
          <internalNodes>
            0 -1 10 -138939729 -636639325 -885788645 1799916258 -3212289
            193088697 -629152073 1442052160</internalNodes>
          <leafValues>
            -6.3029730319976807e-01 4.1487461328506470e-01</leafValues></_>
        <_>
          <internalNodes>
            0 -1 93 1819262063 614460381 2140929855 -1342322593
            1664016351 255848663 -37906017 553641071</internalNodes>
          <leafValues>
            -7.2664242982864380e-01 3.1613931059837341e-01</leafValues></_></weakClassifiers></_>
    <!-- stage 5 -->
    <_>
      <maxWeakCount>6</maxWeakCount>
      <stageThreshold>-1.2692340612411499e+00</stageThreshold>
      <weakClassifiers>
        <_>
          <internalNodes>
            0 -1 51 1073225213 -1073767427 -1342177281 -1075995139
            -105095171 -33281 -98305 -65556</internalNodes>
          <leafValues>
            -8.1503629684448242e-01 1.8097876012325287e-01</leafValues></_>
        <_>
          <internalNodes>
            0 -1 70 1052254205 -32835 1073741823 -1090529283 -1141489665
            -1077977669 -1077985281 -1091683347</internalNodes>
          <leafValues>
            -6.5784394741058350e-01 3.8648894429206848e-01</leafValues></_>
        <_>
          <internalNodes>
            0 -1 58 -287506436 -1112998913 -134225936 -4264969 -36307459
            -67129089 -17847555 -1041</internalNodes>
          <leafValues>
            -8.0149030685424805e-01 3.2014194130897522e-01</leafValues></_>
        <_>
          <internalNodes>
            0 -1 17 2076147061 -3177 -555750401 -587272226 -35983
            -67145729 -1117110476 -99465</internalNodes>
          <leafValues>
            -6.3873374462127686e-01 3.8308545947074890e-01</leafValues></_>
        <_>
          <internalNodes>
            0 -1 77 -166797996 820436190 -12583348 -386990114 -211288068
            1987574781 -407111883 -201853961</internalNodes>
          <leafValues>
            -6.9254744052886963e-01 3.7212115526199341e-01</leafValues></_>
        <_>
          <internalNodes>
            0 -1 31 -207864836 266179583 -1346395396 -1073868426
            -44819236 -1410213171 -847267660 -1108344865</internalNodes>
          <leafValues>
            -7.8253465890884399e-01 3.1858342885971069e-01</leafValues></_></weakClassifiers></_>
    <!-- stage 6 -->
    <_>
      <maxWeakCount>6</maxWeakCount>
      <stageThreshold>-2.0221476554870605e+00</stageThreshold>
      <weakClassifiers>
        <_>
          <internalNodes>
            0 -1 86 1069039101 -1111949315 -2113537 -35 -4308993
            -1140853761 -1078318081 -268534036</internalNodes>
          <leafValues>
            -8.1724756956100464e-01 9.8650924861431122e-02</leafValues></_>
        <_>
          <internalNodes>
            0 -1 56 -458755 -1078157379 -1078077441 -1073880499 -196611
            -282625 -71320577 -4242</internalNodes>
          <leafValues>
            -6.2533783912658691e-01 4.0811431407928467e-01</leafValues></_>
        <_>
          <internalNodes>
            0 -1 89 -1078673476 -1648560204 -1679872134 -1462452296
            1072437948 -37917699 -1090635778 -166945</internalNodes>
          <leafValues>
            -7.3897767066955566e-01 2.9906013607978821e-01</leafValues></_>
        <_>
          <internalNodes>
            0 -1 16 -193 888553343 -524321 -67598 2147366783 2013232631
            -134580353 1944780711</internalNodes>
          <leafValues>
            -6.6306573152542114e-01 3.5209438204765320e-01</leafValues></_>
        <_>
          <internalNodes>
            0 -1 65 1035734525 803091455 -1610667009 -17475 -1174503427
            -1145882389 -1078050817 -1362334060</internalNodes>
          <leafValues>
            -6.7023497819900513e-01 3.6067941784858704e-01</leafValues></_>
        <_>
          <internalNodes>
            0 -1 102 -268435474 -1561667973 -153132892 -1493244161
            2080240740 1090111583 -491818496 -452989977</internalNodes>
          <leafValues>
            -5.7623600959777832e-01 4.2777651548385620e-01</leafValues></_></weakClassifiers></_>
    <!-- stage 7 -->
    <_>
      <maxWeakCount>8</maxWeakCount>
      <stageThreshold>-1.9772745370864868e+00</stageThreshold>
      <weakClassifiers>
        <_>
          <internalNodes>
            0 -1 1 -75499521 -70984725 -473982126 -305220789 -107103352
            -121591404 -349199675 -1049889</internalNodes>
          <leafValues>
            -8.1129378080368042e-01 -7.1671069599688053e-03</leafValues></_>
        <_>
          <internalNodes>
            0 -1 97 -4194625 -14680562 -856177946 -1397753170 1742691068
            -1916281477 -375174955 -1065877773</internalNodes>
          <leafValues>
            -5.8845508098602295e-01 3.4405446052551270e-01</leafValues></_>
        <_>
          <internalNodes>
            0 -1 103 -298844559 707316312 -415875286 -1095189222
            2062507349 1392285709 1957652272 -385879049</internalNodes>
          <leafValues>
            -5.5923658609390259e-01 3.8917759060859680e-01</leafValues></_>
        <_>
          <internalNodes>
            0 -1 44 -153362694 1599006439 -825315278 -1399522594
            -29502755 1278725279 2128472944 -704648481</internalNodes>
          <leafValues>
            -5.3263717889785767e-01 3.9536529779434204e-01</leafValues></_>
        <_>
          <internalNodes>
            0 -1 110 -1594983435 251592184 -151560705 -1073810465
            -100672003 -1159884871 -335588290 -1879063233</internalNodes>
          <leafValues>
            -5.0855827331542969e-01 4.2345559597015381e-01</leafValues></_>
        <_>
          <internalNodes>
            0 -1 71 -1068773561 -990677129 -15404547 1429443603
            615468271 -551327695 1759312362 1599470371</internalNodes>
          <leafValues>
            -5.0619828701019287e-01 4.4623711705207825e-01</leafValues></_>
        <_>
          <internalNodes>
            0 -1 26 -558441166 936703978 -1256866409 292608594
            -542705160 1480833443 -24903941 440575628</internalNodes>
          <leafValues>
            -5.8525699377059937e-01 3.8596284389495850e-01</leafValues></_>
        <_>
          <internalNodes>
            0 -1 27 1610870306 1913901395 1908800885 1120652051
            552765648 -531429966 1117246326 1115680375</internalNodes>
          <leafValues>
            -7.8414976596832275e-01 2.4983815848827362e-01</leafValues></_></weakClassifiers></_>
    <!-- stage 8 -->
    <_>
      <maxWeakCount>10</maxWeakCount>
      <stageThreshold>-1.8167045116424561e+00</stageThreshold>
      <weakClassifiers>
        <_>
          <internalNodes>
            0 -1 35 -948439213 2000932823 -292127881 -134611081
            -975568905 -1467552562 -822886417 -824180737</internalNodes>
          <leafValues>
            -6.9702816009521484e-01 1.1284513771533966e-01</leafValues></_>
        <_>
          <internalNodes>
            0 -1 84 -6295749 -141896784 -1131545032 -309802952 -75650145
            -49759987 2133540357 -1022362273</internalNodes>
          <leafValues>
            -5.1064532995223999e-01 3.7287670373916626e-01</leafValues></_>
        <_>
          <internalNodes>
            0 -1 6 -989921305 -1360595457 -277206164 -1562710062
            -722973424 1863358957 -202748428 -84412554</internalNodes>
          <leafValues>
            -5.1150000095367432e-01 3.8788959383964539e-01</leafValues></_>
        <_>
          <internalNodes>
            0 -1 78 -1914706492 -143138826 -278945580 2145114073
            1669422588 368522751 1023128540 2147476716</internalNodes>
          <leafValues>
            -5.6786739826202393e-01 3.4632283449172974e-01</leafValues></_>
        <_>
          <internalNodes>
            0 -1 100 721343999 777948538 -542244875 -1896212484
            -103289875 -1172315397 -285279907 -1895921154</internalNodes>
          <leafValues>
            -5.8387619256973267e-01 3.5613957047462463e-01</leafValues></_>
        <_>
          <internalNodes>
            0 -1 54 -419966985 -178258947 -1878526757 -34147845
            -314848267 1574660015 -862593132 -497563097</internalNodes>
          <leafValues>
            -4.3448573350906372e-01 4.6161124110221863e-01</leafValues></_>
        <_>
          <internalNodes>
            0 -1 87 -1131130380 1557947769 -48339459 -270827043
            -72723527 -6356481 2080021471 -525801852</internalNodes>
          <leafValues>
            -6.5401363372802734e-01 3.0632784962654114e-01</leafValues></_>
        <_>
          <internalNodes>
            0 -1 40 -201329674 -605047050 1340845621 -713707601 -196610
            528105466 -545263976 -320561156</internalNodes>
          <leafValues>
            -4.2790824174880981e-01 4.7208040952682495e-01</leafValues></_>
        <_>
          <internalNodes>
            0 -1 21 -212863113 -406141046 857944430 -1035677426
            -1191657464 -491984696 -757579772 -964967673</internalNodes>
          <leafValues>
            -5.4631215333938599e-01 3.8200539350509644e-01</leafValues></_>
        <_>
          <internalNodes>
            0 -1 105 -75501703 1169793183 1407162766 1956642591
            1942139401 -55605113 -390075132 -184561841</internalNodes>
          <leafValues>
            -4.4942915439605713e-01 4.5285302400588989e-01</leafValues></_></weakClassifiers></_>
    <!-- stage 9 -->
    <_>
      <maxWeakCount>10</maxWeakCount>
      <stageThreshold>-1.6121969223022461e+00</stageThreshold>
      <weakClassifiers>
        <_>
          <internalNodes>
            0 -1 64 -254279865 -589824163 -1261715969 -44564671
            -190840865 -149062908 -120718337 -102760585</internalNodes>
          <leafValues>
            -6.8062132596969604e-01 1.0771191865205765e-01</leafValues></_>
        <_>
          <internalNodes>
            0 -1 3 -134217729 -1618833058 -1050718050 527703876
            -1584584513 -877767485 -88126705 2071412583</internalNodes>
          <leafValues>
            -5.2011513710021973e-01 3.1593087315559387e-01</leafValues></_>
        <_>
          <internalNodes>
            0 -1 38 -178782241 -15205457 1400362331 -134219859
            -145499141 -67371025 -2105601 -1064909820</internalNodes>
          <leafValues>
            -6.3430863618850708e-01 2.8551295399665833e-01</leafValues></_>
        <_>
          <internalNodes>
            0 -1 12 -67195102 1945567119 2044477114 -201441850
            -296883238 317687690 -143679492 -119734344</internalNodes>
          <leafValues>
            -5.3970050811767578e-01 3.4480077028274536e-01</leafValues></_>
        <_>
          <internalNodes>
            0 -1 72 -4663115 520050687 -2017094869 199229359 -1076142082
            1072330987 2093946671 1072684795</internalNodes>
          <leafValues>
            -5.6062984466552734e-01 3.3428013324737549e-01</leafValues></_>
        <_>
          <internalNodes>
            0 -1 91 -304141345 496746971 -46010369 -503326415 803147701
            -20185205 -201336067 1475728261</internalNodes>
          <leafValues>
            -4.9857661128044128e-01 3.7129873037338257e-01</leafValues></_>
        <_>
          <internalNodes>
            0 -1 107 -20 580253067 -669127968 -1001457495 -952131036
            1475838379 -488715250 1621619255</internalNodes>
          <leafValues>
            -6.7071002721786499e-01 2.6566034555435181e-01</leafValues></_>
        <_>
          <internalNodes>
            0 -1 79 538721077 1060639092 2110377725 522198292 1018915832
            1065026582 416818140 -1347942105</internalNodes>
          <leafValues>
            -5.3084343671798706e-01 3.5303339362144470e-01</leafValues></_>
        <_>
          <internalNodes>
            0 -1 0 -1359584768 1863251274 2127620948 -35698955
            1985274741 1677196167 580379617 -168298637</internalNodes>
          <leafValues>
            -6.0690081119537354e-01 3.0079665780067444e-01</leafValues></_>
        <_>
          <internalNodes>
            0 -1 62 -492503290 -50931713 -1146423096 -1392575780
            -103039036 1660926391 -1286113340 -185091425</internalNodes>
          <leafValues>
            -7.0932704210281372e-01 2.4825561046600342e-01</leafValues></_></weakClassifiers></_>
    <!-- stage 10 -->
    <_>
      <maxWeakCount>10</maxWeakCount>
      <stageThreshold>-1.5234547853469849e+00</stageThreshold>
      <weakClassifiers>
        <_>
          <internalNodes>
            0 -1 34 1933573943 -8392898 1327234943 2105236799 119929791
            -384042513 340777215 -855639553</internalNodes>
          <leafValues>
            -6.9081377983093262e-01 7.8281342983245850e-02</leafValues></_>
        <_>
          <internalNodes>
            0 -1 33 1073689599 903834591 -338208837 536477663 997949046
            1039734911 339564475 2046558207</internalNodes>
          <leafValues>
            -6.1162221431732178e-01 2.4799457192420959e-01</leafValues></_>
        <_>
          <internalNodes>
            0 -1 92 2068117760 -598158339 2094767060 -40782851
            2112085375 -1713198755 94878607 1245446143</internalNodes>
          <leafValues>
            -6.0985732078552246e-01 2.7555078268051147e-01</leafValues></_>
        <_>
          <internalNodes>
            0 -1 106 -41477 -1623768615 -2120790437 -253825681 -24271059
            986131356 1854776332 1144188142</internalNodes>
          <leafValues>
            -5.4889392852783203e-01 3.3055531978607178e-01</leafValues></_>
        <_>
          <internalNodes>
            0 -1 9 -75563037 -202702866 -16842769 -876152070 -655375
            1974992767 -134744107 -235405485</internalNodes>
          <leafValues>
            -4.0951156616210938e-01 4.3014895915985107e-01</leafValues></_>
        <_>
          <internalNodes>
            0 -1 45 -615558992 2065179440 1503074619 359334899 209781484
            -1205855808 106530971 1263252691</internalNodes>
          <leafValues>
            -4.4210296869277954e-01 4.5250102877616882e-01</leafValues></_>
        <_>
          <internalNodes>
            0 -1 81 -3215548 784334846 -557844481 937359298 989790037
            989026750 1543443229 1962077932</internalNodes>
          <leafValues>
            -6.7490303516387939e-01 2.5466817617416382e-01</leafValues></_>
        <_>
          <internalNodes>
            0 -1 50 -388499668 75016173 -187435282 -822411812 1093004566
            1711200854 -1419781856 -2064124714</internalNodes>
          <leafValues>
            -6.5732777118682861e-01 2.6656779646873474e-01</leafValues></_>
        <_>
          <internalNodes>
            0 -1 24 -7337732 -87150306 -850383061 -1257562319 1330653867
            -632726824 1806921527 2075917081</internalNodes>
          <leafValues>
            -5.7719266414642334e-01 3.0320745706558228e-01</leafValues></_>
        <_>
          <internalNodes>
            0 -1 83 1130292180 -547418007 296965631 -15308339 1238402044
            -122969865 -35067650 -1058736606</internalNodes>
          <leafValues>
            -6.8425178527832031e-01 2.4429225921630859e-01</leafValues></_></weakClassifiers></_>
    <!-- stage 11 -->
    <_>
      <maxWeakCount>11</maxWeakCount>
      <stageThreshold>-1.9600996971130371e+00</stageThreshold>
      <weakClassifiers>
        <_>
          <internalNodes>
            0 -1 30 -747110537 -673728009 -552549033 -201859754
            -2067271721 -2002068848 -588517377 -825229313</internalNodes>
          <leafValues>
            -6.8024247884750366e-01 1.0643722116947174e-01</leafValues></_>
        <_>
          <internalNodes>
            0 -1 94 729776127 218101061 1607581119 -1074867233
            2061199293 436116991 2145614751 1056423887</internalNodes>
          <leafValues>
            -6.1324656009674072e-01 2.1782784163951874e-01</leafValues></_>
        <_>
          <internalNodes>
            0 -1 14 2144860017 -12648473 -205005313 -746594349
            2033155956 -1110218553 -854868034 -8946906</internalNodes>
          <leafValues>
            -4.7079360485076904e-01 3.5487902164459229e-01</leafValues></_>
        <_>
          <internalNodes>
            0 -1 73 489688508 1002654685 -1076289537 -1342241443
            1006518269 -1073773399 -1146209793 -1226540444</internalNodes>
          <leafValues>
            -7.2490048408508301e-01 2.3125329613685608e-01</leafValues></_>
        <_>
          <internalNodes>
            0 -1 59 -572523009 -73074434 -8389138 -18808852 -134217735
            -655492 -3 -1</internalNodes>
          <leafValues>
            -3.9076191186904907e-01 4.4615724682807922e-01</leafValues></_>
        <_>
          <internalNodes>
            0 -1 55 -421006813 -939600585 -335353058 -1471486146
            -894578273 -1736126376 -1528101628 1663367134</internalNodes>
          <leafValues>
            -6.5924274921417236e-01 2.6429331302642822e-01</leafValues></_>
        <_>
          <internalNodes>
            0 -1 104 -16781552 572053385 -144165454 948740130 -189144772
            395282633 1369568036 -421077642</internalNodes>
          <leafValues>
            -5.9660524129867554e-01 2.7966970205307007e-01</leafValues></_>
        <_>
          <internalNodes>
            0 -1 108 -1343160641 389461269 490903453 534754037
            -1920603395 -1980636790 797825500 150980793</internalNodes>
          <leafValues>
            -5.5891889333724976e-01 2.8468778729438782e-01</leafValues></_>
        <_>
          <internalNodes>
            0 -1 88 -958403738 1685829245 -996412638 1819800270
            1935504197 1446431239 -418939052 -134217905</internalNodes>
          <leafValues>
            -4.7849464416503906e-01 3.6201301217079163e-01</leafValues></_>
        <_>
          <internalNodes>
            0 -1 23 1442772710 780055514 1429705532 1810804954
            1761977336 -1147827781 -5800984 1873666038</internalNodes>
          <leafValues>
            -5.7967340946197510e-01 3.1056737899780273e-01</leafValues></_>
        <_>
          <internalNodes>
            0 -1 49 -270589125 -1076309613 245411512 150265050
            -350291268 1340278809 1115732158 395532846</internalNodes>
          <leafValues>
            -5.7911229133605957e-01 3.0432236194610596e-01</leafValues></_></weakClassifiers></_>
    <!-- stage 12 -->
    <_>
      <maxWeakCount>10</maxWeakCount>
      <stageThreshold>-1.5082726478576660e+00</stageThreshold>
      <weakClassifiers>
        <_>
          <internalNodes>
            0 -1 46 -620760065 -269536273 -1283861513 -74726545
            -73409713 -1443020165 -207628849 -336596737</internalNodes>
          <leafValues>
            -6.2574291229248047e-01 2.7215850353240967e-01</leafValues></_>
        <_>
          <internalNodes>
            0 -1 41 -283377793 525892830 -539021506 -1883739042
            -543326865 2147443121 881944296 768459388</internalNodes>
          <leafValues>
            -5.5724734067916870e-01 2.4460440874099731e-01</leafValues></_>
        <_>
          <internalNodes>
            0 -1 25 2113306484 -540053667 1230962037 1532623859
            -25198607 -1082430401 -65540 -13406341</internalNodes>
          <leafValues>
            -4.9747991561889648e-01 3.1394681334495544e-01</leafValues></_>
        <_>
          <internalNodes>
            0 -1 95 -337649153 -1562397347 -203315393 2079842750
            1526185983 1270561755 -1862763028 1216283860</internalNodes>
          <leafValues>
            -5.4075670242309570e-01 2.9836714267730713e-01</leafValues></_>
        <_>
          <internalNodes>
            0 -1 63 2146466804 -1083132931 1140589500 -4675147 -6095875
            -4355191 -358643719 -1361589505</internalNodes>
          <leafValues>
            -7.7343004941940308e-01 2.2105687856674194e-01</leafValues></_>
        <_>
          <internalNodes>
            0 -1 11 -103035138 841649946 -384985415 -574985550
            -1713758376 1269784931 1665916988 1195763058</internalNodes>
          <leafValues>
            -5.8603274822235107e-01 2.8164368867874146e-01</leafValues></_>
        <_>
          <internalNodes>
            0 -1 99 -855638132 -689974116 -288488850 -486614038
            1976526609 1939340188 -170169756 -1526734881</internalNodes>
          <leafValues>
            -5.2804630994796753e-01 3.0819776654243469e-01</leafValues></_>
        <_>
          <internalNodes>
            0 -1 48 -358636378 -1084361436 487687864 -1620123964
            1971582948 1985653003 -1269061660 -11089980</internalNodes>
          <leafValues>
            -5.5866283178329468e-01 2.9471376538276672e-01</leafValues></_>
        <_>
          <internalNodes>
            0 -1 76 -287647086 1526652315 -1030193102 -893466433
            -31462436 743819797 -1424162512 1349904379</internalNodes>
          <leafValues>
            -6.8016523122787476e-01 2.5402578711509705e-01</leafValues></_>
        <_>
          <internalNodes>
            0 -1 68 -1200595088 -34095621 -16810049 -134299974
            1459480565 -314704010 -826812738 -1082200102</internalNodes>
          <leafValues>
            -3.9779868721961975e-01 4.2652779817581177e-01</leafValues></_></weakClassifiers></_>
    <!-- stage 13 -->
    <_>
      <maxWeakCount>10</maxWeakCount>
      <stageThreshold>-1.4917757511138916e+00</stageThreshold>
      <weakClassifiers>
        <_>
          <internalNodes>
            0 -1 42 -866651533 -183242477 -316940329 -142608041
            -1060897537 -1772889313 -291767457 -301990337</internalNodes>
          <leafValues>
            -6.9227677583694458e-01 9.5948828384280205e-03</leafValues></_>
        <_>
          <internalNodes>
            0 -1 43 -2111613 -269622321 -712122610 -1899050292
            -609301078 -842242773 -917322472 -814753313</internalNodes>
          <leafValues>
            -4.7800332307815552e-01 2.9611784219741821e-01</leafValues></_>
        <_>
          <internalNodes>
            0 -1 101 -706761730 1063322296 -1064576810 -1087683641
            1896551896 -1163018199 679750396 217628655</internalNodes>
          <leafValues>
            -6.0558390617370605e-01 2.3430398106575012e-01</leafValues></_>
        <_>
          <internalNodes>
            0 -1 4 -339022302 -1527842478 -8582578 -968210610 1237676018
            1382643911 -2995263 1727080258</internalNodes>
          <leafValues>
            -6.9539463520050049e-01 2.4493792653083801e-01</leafValues></_>
        <_>
          <internalNodes>
            0 -1 19 -388179039 -35834965 -1792814147 -537057475
            -1712787783 -1426282326 -357602313 -288702521</internalNodes>
          <leafValues>
            -4.8555806279182434e-01 3.1221792101860046e-01</leafValues></_>
        <_>
          <internalNodes>
            0 -1 61 -162476124 -1435630355 1620305530 -2144928058
            -82095351 -107611777 -783165672 1165098874</internalNodes>
          <leafValues>
            -6.8946290016174316e-01 2.2886145114898682e-01</leafValues></_>
        <_>
          <internalNodes>
            0 -1 67 -279466113 -372980769 -809071298 -1145167868
            1020485629 1055214267 -1169286356 1858042767</internalNodes>
          <leafValues>
            -4.8391342163085938e-01 3.2439574599266052e-01</leafValues></_>
        <_>
          <internalNodes>
            0 -1 69 134219777 -271001605 -1342473089 -254565260
            -207596099 -1101274385 -1233930318 -1142016004</internalNodes>
          <leafValues>
            -4.4585776329040527e-01 3.4771165251731873e-01</leafValues></_>
        <_>
          <internalNodes>
            0 -1 80 -1068765857 -464553660 -1215770241 1493540803
            -1072827921 -334806926 -927733271 -1451788493</internalNodes>
          <leafValues>
            -4.0391391515731812e-01 4.0738689899444580e-01</leafValues></_>
        <_>
          <internalNodes>
            0 -1 8 -352400413 -271919995 -2117367357 -322770370
            386206531 -68022114 1944257829 -1258823835</internalNodes>
          <leafValues>
            -5.3001511096954346e-01 3.1892201304435730e-01</leafValues></_></weakClassifiers></_></stages>
  <features>
    <_>
      <rect>
        0 3 2 2</rect></_>
    <_>
      <rect>
        0 3 11 6</rect></_>
    <_>
      <rect>
        0 5 12 4</rect></_>
    <_>
      <rect>
        0 6 1 6</rect></_>
    <_>
      <rect>
        0 6 2 2</rect></_>
    <_>
      <rect>
        0 7 1 1</rect></_>
    <_>
      <rect>
        0 8 1 2</rect></_>
    <_>
      <rect>
        0 10 2 4</rect></_>
    <_>
      <rect>
        0 11 1 1</rect></_>
    <_>
      <rect>
        0 12 1 1</rect></_>
    <_>
      <rect>
        0 12 1 2</rect></_>
    <_>
      <rect>
        0 13 1 2</rect></_>
    <_>
      <rect>
        0 15 10 3</rect></_>
    <_>
      <rect>
        0 18 1 2</rect></_>
    <_>
      <rect>
        0 18 2 2</rect></_>
    <_>
      <rect>
        0 18 3 2</rect></_>
    <_>
      <rect>
        0 18 4 2</rect></_>
    <_>
      <rect>
        0 21 1 1</rect></_>
    <_>
      <rect>
        0 21 2 1</rect></_>
    <_>
      <rect>
        1 0 7 6</rect></_>
    <_>
      <rect>
        1 1 4 6</rect></_>
    <_>
      <rect>
        1 3 9 7</rect></_>
    <_>
      <rect>
        1 3 11 5</rect></_>
    <_>
      <rect>
        1 6 2 3</rect></_>
    <_>
      <rect>
        1 9 6 1</rect></_>
    <_>
      <rect>
        1 18 1 2</rect></_>
    <_>
      <rect>
        1 18 7 2</rect></_>
    <_>
      <rect>
        2 0 10 3</rect></_>
    <_>
      <rect>
        2 3 11 6</rect></_>
    <_>
      <rect>
        2 11 10 2</rect></_>
    <_>
      <rect>
        3 1 6 3</rect></_>
    <_>
      <rect>
        3 6 4 3</rect></_>
    <_>
      <rect>
        3 7 11 3</rect></_>
    <_>
      <rect>
        3 21 2 1</rect></_>
    <_>
      <rect>
        4 0 4 3</rect></_>
    <_>
      <rect>
        4 1 6 3</rect></_>
    <_>
      <rect>
        4 4 6 3</rect></_>
    <_>
      <rect>
        4 4 10 3</rect></_>
    <_>
      <rect>
        4 10 4 4</rect></_>
    <_>
      <rect>
        4 15 5 1</rect></_>
    <_>
      <rect>
        4 18 9 2</rect></_>
    <_>
      <rect>
        4 21 6 1</rect></_>
    <_>
      <rect>
        5 0 9 3</rect></_>
    <_>
      <rect>
        5 14 4 3</rect></_>
    <_>
      <rect>
        5 14 5 2</rect></_>
    <_>
      <rect>
        6 0 8 1</rect></_>
    <_>
      <rect>
        6 3 8 7</rect></_>
    <_>
      <rect>
        6 7 8 3</rect></_>
    <_>
      <rect>
        6 15 10 3</rect></_>
    <_>
      <rect>
        6 21 10 1</rect></_>
    <_>
      <rect>
        7 6 2 1</rect></_>
    <_>
      <rect>
        7 10 3 1</rect></_>
    <_>
      <rect>
        7 10 4 1</rect></_>
    <_>
      <rect>
        7 10 5 1</rect></_>
    <_>
      <rect>
        7 12 3 2</rect></_>
    <_>
      <rect>
        7 14 4 3</rect></_>
    <_>
      <rect>
        8 9 3 2</rect></_>
    <_>
      <rect>
        8 10 8 4</rect></_>
    <_>
      <rect>
        9 3 6 5</rect></_>
    <_>
      <rect>
        9 3 9 6</rect></_>
    <_>
      <rect>
        9 14 6 2</rect></_>
    <_>
      <rect>
        9 14 6 3</rect></_>
    <_>
      <rect>
        10 15 5 1</rect></_>
    <_>
      <rect>
        11 7 3 3</rect></_>
    <_>
      <rect>
        13 1 6 3</rect></_>
    <_>
      <rect>
        13 10 2 1</rect></_>
    <_>
      <rect>
        14 15 6 2</rect></_>
    <_>
      <rect>
        14 21 5 1</rect></_>
    <_>
      <rect>
        15 18 1 1</rect></_>
    <_>
      <rect>
        15 18 2 1</rect></_>
    <_>
      <rect>
        16 10 2 1</rect></_>
    <_>
      <rect>
        17 1 6 3</rect></_>
    <_>
      <rect>
        17 7 4 2</rect></_>
    <_>
      <rect>
        17 10 3 1</rect></_>
    <_>
      <rect>
        17 10 4 1</rect></_>
    <_>
      <rect>
        17 10 5 1</rect></_>
    <_>
      <rect>
        17 14 4 2</rect></_>
    <_>
      <rect>
        17 15 5 1</rect></_>
    <_>
      <rect>
        17 18 6 2</rect></_>
    <_>
      <rect>
        18 0 2 1</rect></_>
    <_>
      <rect>
        19 1 4 3</rect></_>
    <_>
      <rect>
        19 18 3 2</rect></_>
    <_>
      <rect>
        21 6 5 4</rect></_>
    <_>
      <rect>
        21 11 4 2</rect></_>
    <_>
      <rect>
        21 14 3 3</rect></_>
    <_>
      <rect>
        22 7 2 3</rect></_>
    <_>
      <rect>
        22 10 2 1</rect></_>
    <_>
      <rect>
        22 11 3 1</rect></_>
    <_>
      <rect>
        23 6 1 1</rect></_>
    <_>
      <rect>
        23 8 3 2</rect></_>
    <_>
      <rect>
        24 18 4 2</rect></_>
    <_>
      <rect>
        25 18 3 2</rect></_>
    <_>
      <rect>
        27 1 3 5</rect></_>
    <_>
      <rect>
        27 18 3 2</rect></_>
    <_>
      <rect>
        28 21 2 1</rect></_>
    <_>
      <rect>
        29 19 2 1</rect></_>
    <_>
      <rect>
        30 5 2 5</rect></_>
    <_>
      <rect>
        30 13 2 2</rect></_>
    <_>
      <rect>
        30 21 2 1</rect></_>
    <_>
      <rect>
        32 7 1 1</rect></_>
    <_>
      <rect>
        32 21 1 1</rect></_>
    <_>
      <rect>
        33 6 1 6</rect></_>
    <_>
      <rect>
        33 7 1 1</rect></_>
    <_>
      <rect>
        33 8 1 2</rect></_>
    <_>
      <rect>
        33 10 1 1</rect></_>
    <_>
      <rect>
        33 11 1 1</rect></_>
    <_>
      <rect>
        33 12 1 2</rect></_>
    <_>
      <rect>
        33 14 1 1</rect></_>
    <_>
      <rect>
        33 14 1 3</rect></_>
    <_>
      <rect>
        33 15 1 3</rect></_>
    <_>
      <rect>
        33 18 1 2</rect></_></features></cascade>
</opencv_storage>
