<?xml version="1.0"?>
<opencv_storage>
<cascade>
  <stageType>BOOST</stageType>
  <featureType>LBP</featureType>
  <height>30</height>
  <width>16</width>
  <stageParams>
    <boostType>GAB</boostType>
    <minHitRate>9.9900001287460327e-01</minHitRate>
    <maxFalseAlarm>4.0000000596046448e-01</maxFalseAlarm>
    <weightTrimRate>9.4999998807907104e-01</weightTrimRate>
    <maxDepth>1</maxDepth>
    <maxWeakCount>100</maxWeakCount></stageParams>
  <featureParams>
    <maxCatCount>256</maxCatCount>
    <featSize>1</featSize></featureParams>
  <stageNum>17</stageNum>
  <stages>
    <!-- stage 0 -->
    <_>
      <maxWeakCount>5</maxWeakCount>
      <stageThreshold>-1.5148117542266846e+00</stageThreshold>
      <weakClassifiers>
        <_>
          <internalNodes>
            0 -1 45 -169869313 -704905253 -180093443 1440733279
            -169345025 821426614 1435238351 1900540879</internalNodes>
          <leafValues>
            -8.7489324808120728e-01 4.8874062299728394e-01</leafValues></_>
        <_>
          <internalNodes>
            0 -1 37 -740492568 -185281060 -572984836 -34539306
            -118687747 -1330581327 -133826118 -253365801</internalNodes>
          <leafValues>
            -8.3822888135910034e-01 3.7052813172340393e-01</leafValues></_>
        <_>
          <internalNodes>
            0 -1 32 -4467329 -42470465 -44105729 -33570305 1537421168
            -57443777 -150505611 -12569</internalNodes>
          <leafValues>
            -6.3476741313934326e-01 5.4799979925155640e-01</leafValues></_>
        <_>
          <internalNodes>
            0 -1 92 -1542926928 -1465076543 1460139004 -40576034
            -379388937 -268455243 -1180238851 -17500460</internalNodes>
          <leafValues>
            -7.2708350419998169e-01 4.9386060237884521e-01</leafValues></_>
        <_>
          <internalNodes>
            0 -1 38 -50333705 -91237893 -1421489550 -639634348
            -645217665 -488915736 -503663944 1081397988</internalNodes>
          <leafValues>
            -8.6477196216583252e-01 3.7739402055740356e-01</leafValues></_></weakClassifiers></_>
    <!-- stage 1 -->
    <_>
      <maxWeakCount>7</maxWeakCount>
      <stageThreshold>-1.5699229240417480e+00</stageThreshold>
      <weakClassifiers>
        <_>
          <internalNodes>
            0 -1 189 -285218817 -388314121 -77609989 -840984845
            -2007764997 -1964323093 -5505541 -268697605</internalNodes>
          <leafValues>
            -7.3844981193542480e-01 5.1084595918655396e-01</leafValues></_>
        <_>
          <internalNodes>
            0 -1 8 -471796240 -5177354 -15532821 -918558 -167706636
            -1125077513 -210699781 -9047051</internalNodes>
          <leafValues>
            -7.1183001995086670e-01 3.7213748693466187e-01</leafValues></_>
        <_>
          <internalNodes>
            0 -1 22 -167776257 1957542910 -143400995 1405607883
            1961357047 -195781786 1976432623 1365758955</internalNodes>
          <leafValues>
            -7.1447938680648804e-01 4.3035799264907837e-01</leafValues></_>
        <_>
          <internalNodes>
            0 -1 164 1886388292 -707661220 -2128225794 -537529867
            -625913787 -108167037 -69146376 -124977164</internalNodes>
          <leafValues>
            -7.0121932029724121e-01 4.3318328261375427e-01</leafValues></_>
        <_>
          <internalNodes>
            0 -1 7 -211813650 -872382330 -552350768 -152790798
            -654443595 -18799630 -214473789 -680273933</internalNodes>
          <leafValues>
            -6.4621144533157349e-01 4.1506761312484741e-01</leafValues></_>
        <_>
          <internalNodes>
            0 -1 192 -943719489 177340667 394780157 240521690 -543433813
            -1800726349 -1417479233 -1908409925</internalNodes>
          <leafValues>
            -6.0353577136993408e-01 4.4210860133171082e-01</leafValues></_>
        <_>
          <internalNodes>
            0 -1 145 -1131376144 1290838236 -796674563 -1248009827
            -75488784 950569134 -509019400 -23279440</internalNodes>
          <leafValues>
            -6.7829239368438721e-01 4.0055623650550842e-01</leafValues></_></weakClassifiers></_>
    <!-- stage 2 -->
    <_>
      <maxWeakCount>8</maxWeakCount>
      <stageThreshold>-2.0324668884277344e+00</stageThreshold>
      <weakClassifiers>
        <_>
          <internalNodes>
            0 -1 21 -134217929 -8924137 -652476993 -533505 -72354511
            -56934384 -70779009 -524681</internalNodes>
          <leafValues>
            -7.6070117950439453e-01 3.7040442228317261e-01</leafValues></_>
        <_>
          <internalNodes>
            0 -1 187 -2101249 -1615479873 -34886785 13618623 -25229090
            1218353663 -624161537 218095599</internalNodes>
          <leafValues>
            -6.2557339668273926e-01 3.7483465671539307e-01</leafValues></_>
        <_>
          <internalNodes>
            0 -1 110 -1310721 -544155650 -719325185 -196612 -116596740
            -71464261 -7538692 -393940192</internalNodes>
          <leafValues>
            -5.2892577648162842e-01 4.5479956269264221e-01</leafValues></_>
        <_>
          <internalNodes>
            0 -1 140 2145386332 -2105473 -130752740 987363167 -255861488
            -122226629 -1193352968 -2130706753</internalNodes>
          <leafValues>
            -5.5733191967010498e-01 4.2331850528717041e-01</leafValues></_>
        <_>
          <internalNodes>
            0 -1 18 -673711105 -1625381093 1368097979 1006367066
            -347634757 -1152939918 669456130 1397192311</internalNodes>
          <leafValues>
            -5.1388072967529297e-01 4.6820619702339172e-01</leafValues></_>
        <_>
          <internalNodes>
            0 -1 125 -1946120928 -1114321486 -1254303267 -42545019
            -124454152 -33574721 -251592707 -828603116</internalNodes>
          <leafValues>
            -6.9943940639495850e-01 2.9054260253906250e-01</leafValues></_>
        <_>
          <internalNodes>
            0 -1 46 -186649604 1894306524 -851446827 1418123039
            -222888970 1622459248 -68949010 1925706214</internalNodes>
          <leafValues>
            -7.7199405431747437e-01 3.2524901628494263e-01</leafValues></_>
        <_>
          <internalNodes>
            0 -1 95 1809610685 -134842529 -1726656035 -1787976867
            1872518077 -1410686049 -18990850 167905314</internalNodes>
          <leafValues>
            -6.5292203426361084e-01 2.8751030564308167e-01</leafValues></_></weakClassifiers></_>
    <!-- stage 3 -->
    <_>
      <maxWeakCount>9</maxWeakCount>
      <stageThreshold>-1.2233175039291382e+00</stageThreshold>
      <weakClassifiers>
        <_>
          <internalNodes>
            0 -1 59 -2098177 -1 -580988198 -67440102 -341838849
            -1075054114 -67247896 -69472133</internalNodes>
          <leafValues>
            -6.8391662836074829e-01 4.3742689490318298e-01</leafValues></_>
        <_>
          <internalNodes>
            0 -1 192 -939532289 -1967152673 -76554497 -1426137601
            -605036545 -4235265 -79692801 -50350081</internalNodes>
          <leafValues>
            -6.0165154933929443e-01 3.9032560586929321e-01</leafValues></_>
        <_>
          <internalNodes>
            0 -1 35 -5 -285280264 -747384358 -610664462 -839004947
            -393682115 -405938435 -571085839</internalNodes>
          <leafValues>
            -5.0961518287658691e-01 4.6444249153137207e-01</leafValues></_>
        <_>
          <internalNodes>
            0 -1 3 -251698586 -35794465 -165863694 -600198 -71582722
            -33701905 -190071813 -168313993</internalNodes>
          <leafValues>
            -5.2205151319503784e-01 4.3637812137603760e-01</leafValues></_>
        <_>
          <internalNodes>
            0 -1 2 -270627029 -270810122 1472005623 1876893984 603929051
            -69595193 459767807 1833399667</internalNodes>
          <leafValues>
            -5.0468271970748901e-01 4.4401237368583679e-01</leafValues></_>
        <_>
          <internalNodes>
            0 -1 191 -318836737 -1461782177 -61343817 -6838301
            -2064976897 -2027700030 536857311 -319312079</internalNodes>
          <leafValues>
            -4.9731871485710144e-01 3.8721752166748047e-01</leafValues></_>
        <_>
          <internalNodes>
            0 -1 141 -50334448 362051004 -809447076 -1610681385
            1653205949 -139785333 -1426243651 205143358</internalNodes>
          <leafValues>
            -6.3171106576919556e-01 3.2913741469383240e-01</leafValues></_>
        <_>
          <internalNodes>
            0 -1 134 617124180 1776069631 -499536961 -274855126
            2053411199 -303845638 -4506115 -1073825798</internalNodes>
          <leafValues>
            -4.6577328443527222e-01 4.2525213956832886e-01</leafValues></_>
        <_>
          <internalNodes>
            0 -1 65 -270533771 2107609959 -1983789865 -34120889
            -213740622 -392818619 -587960456 -88965257</internalNodes>
          <leafValues>
            -4.6539756655693054e-01 4.4378381967544556e-01</leafValues></_></weakClassifiers></_>
    <!-- stage 4 -->
    <_>
      <maxWeakCount>11</maxWeakCount>
      <stageThreshold>-1.7285735607147217e+00</stageThreshold>
      <weakClassifiers>
        <_>
          <internalNodes>
            0 -1 123 -36646452 -170533921 -718284385 -7717 -97141585
            -70982998 -1141916737 -16401</internalNodes>
          <leafValues>
            -7.1670842170715332e-01 4.1891178488731384e-01</leafValues></_>
        <_>
          <internalNodes>
            0 -1 42 -15728698 -1219494966 352688623 -713038069
            -567624785 138685064 677894958 55567119</internalNodes>
          <leafValues>
            -6.8040835857391357e-01 2.6502099633216858e-01</leafValues></_>
        <_>
          <internalNodes>
            0 -1 9 -578831617 -1277184942 1357074511 -1142447333
            -506490692 -1784137478 -355935299 1024970615</internalNodes>
          <leafValues>
            -4.9372825026512146e-01 4.2499351501464844e-01</leafValues></_>
        <_>
          <internalNodes>
            0 -1 165 -335565760 1467999351 -1006570881 444462815
            -122979772 1501143590 -123750164 -119669794</internalNodes>
          <leafValues>
            -5.4598206281661987e-01 3.5587969422340393e-01</leafValues></_>
        <_>
          <internalNodes>
            0 -1 128 1614817012 -1105135300 -1194929987 -214243
            1069398501 983404779 -1009193985 -287506441</internalNodes>
          <leafValues>
            -5.6192588806152344e-01 3.5108727216720581e-01</leafValues></_>
        <_>
          <internalNodes>
            0 -1 30 -679480321 1607127247 1460689887 2013256509
            -118918401 1621174481 903695191 1663529754</internalNodes>
          <leafValues>
            -6.7913538217544556e-01 2.8757607936859131e-01</leafValues></_>
        <_>
          <internalNodes>
            0 -1 121 88878608 949626751 -1496212555 -1145946064
            1270057916 -1636063557 -1849720130 -1415831368</internalNodes>
          <leafValues>
            -5.4773569107055664e-01 3.6583182215690613e-01</leafValues></_>
        <_>
          <internalNodes>
            0 -1 33 -1602175262 183294370 -1994828854 -2188944 801880827
            1587380589 1539937279 -35144974</internalNodes>
          <leafValues>
            -4.9552166461944580e-01 4.0735542774200439e-01</leafValues></_>
        <_>
          <internalNodes>
            0 -1 185 -991968132 -1113746859 1896401372 -792951864
            1200212182 -103591887 -86003171 1079477375</internalNodes>
          <leafValues>
            -5.8743315935134888e-01 3.5183808207511902e-01</leafValues></_>
        <_>
          <internalNodes>
            0 -1 41 -484575374 -1177352973 -1861647139 -542670638
            1368026111 -595541853 1828963831 -952418041</internalNodes>
          <leafValues>
            -4.6270862221717834e-01 4.0532240271568298e-01</leafValues></_>
        <_>
          <internalNodes>
            0 -1 53 1876339502 777059670 1075170036 2140390897
            1854494513 1779900443 1252912570 -84935717</internalNodes>
          <leafValues>
            -4.8849844932556152e-01 3.9146062731742859e-01</leafValues></_></weakClassifiers></_>
    <!-- stage 5 -->
    <_>
      <maxWeakCount>11</maxWeakCount>
      <stageThreshold>-1.4806764125823975e+00</stageThreshold>
      <weakClassifiers>
        <_>
          <internalNodes>
            0 -1 84 -2097153 -77856873 -606087201 -2034736 -540279297
            -1074021825 -100993812 -1441798</internalNodes>
          <leafValues>
            -6.7030024528503418e-01 3.1246626377105713e-01</leafValues></_>
        <_>
          <internalNodes>
            0 -1 175 -1 -4098 -805306625 -536871170 1341607927 -37393
            -302015489 -923279361</internalNodes>
          <leafValues>
            -4.1672575473785400e-01 4.9791747331619263e-01</leafValues></_>
        <_>
          <internalNodes>
            0 -1 127 -1496597585 -1073775905 -79392257 -10591333
            -1610638404 -267914 -1354842115 -30606236</internalNodes>
          <leafValues>
            -4.3394312262535095e-01 3.9848804473876953e-01</leafValues></_>
        <_>
          <internalNodes>
            0 -1 32 -1086597257 -1064625 -573248514 -1107302049
            1605581681 -57198149 -1087161547 -587153</internalNodes>
          <leafValues>
            -5.3841286897659302e-01 3.1649118661880493e-01</leafValues></_>
        <_>
          <internalNodes>
            0 -1 168 -857551652 -597368676 1474150698 -65740292
            -189261379 -1187508215 2061029166 -1627661441</internalNodes>
          <leafValues>
            -4.9853518605232239e-01 3.7121134996414185e-01</leafValues></_>
        <_>
          <internalNodes>
            0 -1 135 169869588 650016702 -2095626881 -1114997268
            1535948697 196815522 -1117261590 -1074840660</internalNodes>
          <leafValues>
            -4.9339693784713745e-01 3.3020874857902527e-01</leafValues></_>
        <_>
          <internalNodes>
            0 -1 196 -285560874 -732200962 -1224753954 -166019330
            -8393636 -193333249 -193081684 -93647345</internalNodes>
          <leafValues>
            -4.0150427818298340e-01 4.1698357462882996e-01</leafValues></_>
        <_>
          <internalNodes>
            0 -1 158 -75528957 213021674 -624308911 -537068067
            1344425300 1970004918 -879240204 -353510404</internalNodes>
          <leafValues>
            -5.0951069593429565e-01 3.1313809752464294e-01</leafValues></_>
        <_>
          <internalNodes>
            0 -1 104 1947471344 -168783362 1036250623 -142654979
            712260020 -41408521 -469770241 -1462956905</internalNodes>
          <leafValues>
            -4.0943369269371033e-01 4.0989291667938232e-01</leafValues></_>
        <_>
          <internalNodes>
            0 -1 133 -170595332 -1561534483 -753870051 593226695
            1809708305 601674017 -414895058 125152110</internalNodes>
          <leafValues>
            -5.8998340368270874e-01 2.7587765455245972e-01</leafValues></_>
        <_>
          <internalNodes>
            0 -1 4 -179046216 -54409033 -7808174 -662899364 -51405864
            -33517135 -55063592 -1002113132</internalNodes>
          <leafValues>
            -7.6547878980636597e-01 2.1235799789428711e-01</leafValues></_></weakClassifiers></_>
    <!-- stage 6 -->
    <_>
      <maxWeakCount>11</maxWeakCount>
      <stageThreshold>-1.5366384983062744e+00</stageThreshold>
      <weakClassifiers>
        <_>
          <internalNodes>
            0 -1 60 -1 -76286061 -538980357 -34545934 -606077441
            -81266689 -33554945 -786438</internalNodes>
          <leafValues>
            -6.3386398553848267e-01 3.7194338440895081e-01</leafValues></_>
        <_>
          <internalNodes>
            0 -1 16 -52515017 -234930177 -33573275 -537937302 1571847671
            -6307921 -178949727 -134752265</internalNodes>
          <leafValues>
            -4.9226379394531250e-01 3.5877653956413269e-01</leafValues></_>
        <_>
          <internalNodes>
            0 -1 154 -555221436 1602191071 -54788099 -18877601
            -1075813547 -26006608 -55593220 -117639425</internalNodes>
          <leafValues>
            -5.3350597620010376e-01 3.3283868432044983e-01</leafValues></_>
        <_>
          <internalNodes>
            0 -1 172 -385878017 678853429 -1378159657 -1141182477
            -36175889 -1732624841 -861929921 -2009632969</internalNodes>
          <leafValues>
            -4.9943825602531433e-01 3.3751314878463745e-01</leafValues></_>
        <_>
          <internalNodes>
            0 -1 93 -303238288 2103239157 -1074872355 -2297864
            -1375938576 -604257795 -67569217 -541492803</internalNodes>
          <leafValues>
            -5.6707537174224854e-01 3.2016983628273010e-01</leafValues></_>
        <_>
          <internalNodes>
            0 -1 69 -2026056783 -506528782 -10619489 -35792176
            2136620031 -17454417 -217319945 -67306571</internalNodes>
          <leafValues>
            -4.4871059060096741e-01 3.8579306006431580e-01</leafValues></_>
        <_>
          <internalNodes>
            0 -1 144 650612493 5959647 -418447764 775092734 -262065707
            -587989003 -1327140 -54657414</internalNodes>
          <leafValues>
            -5.2030199766159058e-01 3.1418067216873169e-01</leafValues></_>
        <_>
          <internalNodes>
            0 -1 48 1870606205 -1181240093 1327493615 -1409816434
            1939437363 -1558245273 1999058709 2134326134</internalNodes>
          <leafValues>
            -6.9502103328704834e-01 2.1526955068111420e-01</leafValues></_>
        <_>
          <internalNodes>
            0 -1 43 -282172768 1322177894 -858163724 -410236434
            1172427263 -972312329 1359401152 -178330398</internalNodes>
          <leafValues>
            -5.1539754867553711e-01 2.9707986116409302e-01</leafValues></_>
        <_>
          <internalNodes>
            0 -1 132 -990315012 -616628411 -8203 -746868995 -276926503
            -554172561 -1073760272 -1547719877</internalNodes>
          <leafValues>
            -3.8852933049201965e-01 4.1852727532386780e-01</leafValues></_>
        <_>
          <internalNodes>
            0 -1 169 -337645972 1951761885 1368379710 -42470561
            980668025 -1126179367 -1661994437 -1071453526</internalNodes>
          <leafValues>
            -4.5279815793037415e-01 3.4915745258331299e-01</leafValues></_></weakClassifiers></_>
    <!-- stage 7 -->
    <_>
      <maxWeakCount>11</maxWeakCount>
      <stageThreshold>-2.0251641273498535e+00</stageThreshold>
      <weakClassifiers>
        <_>
          <internalNodes>
            0 -1 27 -589833 -2101281 -806355969 -16449 -135135241
            -536873985 -269488129 -1045</internalNodes>
          <leafValues>
            -6.2208068370819092e-01 4.1258740425109863e-01</leafValues></_>
        <_>
          <internalNodes>
            0 -1 109 -2005400752 412711805 -50419974 -75965484
            -1145152655 2080299773 -4816931 -16980156</internalNodes>
          <leafValues>
            -6.4880532026290894e-01 2.2595083713531494e-01</leafValues></_>
        <_>
          <internalNodes>
            0 -1 150 -33706627 494781951 -436404737 -299521 -838861313
            -855769225 -51004225 -1392508929</internalNodes>
          <leafValues>
            -3.4241676330566406e-01 5.4550039768218994e-01</leafValues></_>
        <_>
          <internalNodes>
            0 -1 106 145282336 -1431250000 -1157663235 -33628706
            -8848483 -18130881 -545718300 -117696416</internalNodes>
          <leafValues>
            -6.6758906841278076e-01 2.7193123102188110e-01</leafValues></_>
        <_>
          <internalNodes>
            0 -1 26 -495841617 -134873295 -305932339 -947373 1664108657
            1999843703 -1460273801 1064515411</internalNodes>
          <leafValues>
            -6.6544508934020996e-01 2.5418820977210999e-01</leafValues></_>
        <_>
          <internalNodes>
            0 -1 131 485769132 -1884291799 -304469025 -1564737538
            467303209 -306285891 -2102915 -1448924357</internalNodes>
          <leafValues>
            -5.0316363573074341e-01 3.3281859755516052e-01</leafValues></_>
        <_>
          <internalNodes>
            0 -1 107 -1377890522 788411609 2113384383 721317199
            -1879163983 -101190657 2144016305 -397122000</internalNodes>
          <leafValues>
            -6.5618610382080078e-01 2.2507247328758240e-01</leafValues></_>
        <_>
          <internalNodes>
            0 -1 178 -320027584 -1999831812 -1094795092 -1200180260
            -928970244 -1311918033 -339822476 -1191977153</internalNodes>
          <leafValues>
            -6.0036820173263550e-01 2.8225174546241760e-01</leafValues></_>
        <_>
          <internalNodes>
            0 -1 39 1148415759 1524289534 -1061124 -817353978 1130200437
            -93833350 -186164427 -278460577</internalNodes>
          <leafValues>
            -5.0387316942214966e-01 3.0645266175270081e-01</leafValues></_>
        <_>
          <internalNodes>
            0 -1 103 1892745015 -458163331 -1343097378 1304747332
            2112993365 -853219949 511032413 739554184</internalNodes>
          <leafValues>
            -5.8900570869445801e-01 2.7753594517707825e-01</leafValues></_>
        <_>
          <internalNodes>
            0 -1 129 206052512 -1096882948 -1244260365 -1359162468
            527982388 -307444850 -69444619 -293040476</internalNodes>
          <leafValues>
            -7.0794034004211426e-01 2.1314318478107452e-01</leafValues></_></weakClassifiers></_>
    <!-- stage 8 -->
    <_>
      <maxWeakCount>13</maxWeakCount>
      <stageThreshold>-1.5168629884719849e+00</stageThreshold>
      <weakClassifiers>
        <_>
          <internalNodes>
            0 -1 162 -1 -6307841 -2361345 -1310769 1426062591 -574882661
            -50987780 -33686273</internalNodes>
          <leafValues>
            -6.3636362552642822e-01 2.8588098287582397e-01</leafValues></_>
        <_>
          <internalNodes>
            0 -1 20 -939526273 -219226114 1850704587 1473117903
            -282854732 1706349536 1866594283 1465904863</internalNodes>
          <leafValues>
            -6.0184359550476074e-01 2.1992737054824829e-01</leafValues></_>
        <_>
          <internalNodes>
            0 -1 102 204472636 1669258975 -1556874337 -1108128401
            2130214257 1358658922 -1079052102 -85000</internalNodes>
          <leafValues>
            -4.6308198571205139e-01 3.4890857338905334e-01</leafValues></_>
        <_>
          <internalNodes>
            0 -1 1 -18391202 -1196752937 1504945134 -269681680
            -539952667 -59332291 2079407025 -302646413</internalNodes>
          <leafValues>
            -4.7601646184921265e-01 2.9876059293746948e-01</leafValues></_>
        <_>
          <internalNodes>
            0 -1 153 74728468 1568552276 -27658928 -143206915 -58191500
            -1413484535 -28573716 -1130336728</internalNodes>
          <leafValues>
            -6.6634142398834229e-01 2.2693461179733276e-01</leafValues></_>
        <_>
          <internalNodes>
            0 -1 147 -120588839 872442666 -658120772 809492442
            -1848934809 -329538967 -77596119 3138415</internalNodes>
          <leafValues>
            -6.1052584648132324e-01 2.4612176418304443e-01</leafValues></_>
        <_>
          <internalNodes>
            0 -1 57 1876881270 -341431842 -142087721 -280785974
            1273415420 778963911 1436782525 1207380747</internalNodes>
          <leafValues>
            -4.5508056879043579e-01 3.2431173324584961e-01</leafValues></_>
        <_>
          <internalNodes>
            0 -1 159 -1406224076 -1434412323 -607682316 -1107330595
            721457340 -76820279 -289611540 -84086996</internalNodes>
          <leafValues>
            -5.5019903182983398e-01 2.6935127377510071e-01</leafValues></_>
        <_>
          <internalNodes>
            0 -1 5 -699501310 774029794 361059588 -104925498 1535895983
            892860594 -1314545163 -101207051</internalNodes>
          <leafValues>
            -5.3407740592956543e-01 2.6847398281097412e-01</leafValues></_>
        <_>
          <internalNodes>
            0 -1 123 1975581412 -261031988 -610667537 894822289
            -634079551 -218832192 800075695 1184176693</internalNodes>
          <leafValues>
            -6.3953101634979248e-01 2.3258844017982483e-01</leafValues></_>
        <_>
          <internalNodes>
            0 -1 142 863043532 1583120475 -855343618 -1202499318
            -787357376 -88100392 -256914478 -1338245413</internalNodes>
          <leafValues>
            -5.4754835367202759e-01 2.5950726866722107e-01</leafValues></_>
        <_>
          <internalNodes>
            0 -1 25 -539754699 -671879078 -234638855 -70125081
            -867209868 -1485346204 -251808263 -1359550286</internalNodes>
          <leafValues>
            -4.5958575606346130e-01 3.2078221440315247e-01</leafValues></_>
        <_>
          <internalNodes>
            0 -1 11 -311448029 -957164545 -742331025 -9775661 2138769175
            450077883 2078305102 -5835609</internalNodes>
          <leafValues>
            -4.7157269716262817e-01 3.2666337490081787e-01</leafValues></_></weakClassifiers></_>
    <!-- stage 9 -->
    <_>
      <maxWeakCount>13</maxWeakCount>
      <stageThreshold>-1.6720581054687500e+00</stageThreshold>
      <weakClassifiers>
        <_>
          <internalNodes>
            0 -1 115 -9439233 -8421444 -150210821 -107642 2110781951
            -2098229 -54205188 -898</internalNodes>
          <leafValues>
            -6.3890963792800903e-01 2.8736963868141174e-01</leafValues></_>
        <_>
          <internalNodes>
            0 -1 198 -285214729 -235415578 -67704901 1352067743
            1604045252 -1183866204 -1081360643 -220205073</internalNodes>
          <leafValues>
            -3.9676657319068909e-01 3.9009544253349304e-01</leafValues></_>
        <_>
          <internalNodes>
            0 -1 138 -33554433 626589623 -552625953 -1938229505
            -27271169 140419059 -309331230 16763515</internalNodes>
          <leafValues>
            -6.4270836114883423e-01 2.2564862668514252e-01</leafValues></_>
        <_>
          <internalNodes>
            0 -1 66 -612894721 8386269 -208474625 533978707 -32049300
            -533805457 2086436856 200347339</internalNodes>
          <leafValues>
            -4.5411118865013123e-01 2.8222018480300903e-01</leafValues></_>
        <_>
          <internalNodes>
            0 -1 117 1794698036 992345975 796441969 1165828991
            1576818677 1996486651 -950585031 -1343247377</internalNodes>
          <leafValues>
            -3.6232030391693115e-01 3.9462223649024963e-01</leafValues></_>
        <_>
          <internalNodes>
            0 -1 17 -508100801 -1612785602 -741936450 -487694081
            -24870929 -246767457 -198151195 566753139</internalNodes>
          <leafValues>
            -4.7160753607749939e-01 2.9755699634552002e-01</leafValues></_>
        <_>
          <internalNodes>
            0 -1 99 -33755656 728948412 -1980928839 737740648 2077845813
            785339775 1521444133 24709054</internalNodes>
          <leafValues>
            -6.2194925546646118e-01 2.0135755836963654e-01</leafValues></_>
        <_>
          <internalNodes>
            0 -1 56 1868496894 2128215788 -779110946 1642265522
            1855766380 -2102713322 -202416008 -1070354310</internalNodes>
          <leafValues>
            -4.9125662446022034e-01 2.4864590167999268e-01</leafValues></_>
        <_>
          <internalNodes>
            0 -1 51 -497388617 -1211969572 990896063 1298072384
            1057484581 -41225338 721903423 1535051089</internalNodes>
          <leafValues>
            -4.8927515745162964e-01 2.7589866518974304e-01</leafValues></_>
        <_>
          <internalNodes>
            0 -1 126 -55715508 -48986429 -344479288 -660780737
            -203949756 -46034298 -55281096 -319501569</internalNodes>
          <leafValues>
            -5.6999820470809937e-01 2.3995383083820343e-01</leafValues></_>
        <_>
          <internalNodes>
            0 -1 174 437537372 929022429 -1308952577 -547653735
            -423247340 -574647773 -18547848 -26154607</internalNodes>
          <leafValues>
            -5.5860644578933716e-01 2.0757998526096344e-01</leafValues></_>
        <_>
          <internalNodes>
            0 -1 130 -347160868 -356520428 805289887 1001906111
            -139007083 -1678266561 1995939839 -377754053</internalNodes>
          <leafValues>
            -3.0001381039619446e-01 4.3666458129882813e-01</leafValues></_>
        <_>
          <internalNodes>
            0 -1 120 1071151580 1605766065 1330516341 -1888060929
            747303101 -494567065 725595005 -1082184442</internalNodes>
          <leafValues>
            -3.8356819748878479e-01 3.7070530652999878e-01</leafValues></_></weakClassifiers></_>
    <!-- stage 10 -->
    <_>
      <maxWeakCount>15</maxWeakCount>
      <stageThreshold>-1.3954412937164307e+00</stageThreshold>
      <weakClassifiers>
        <_>
          <internalNodes>
            0 -1 61 -2099201 -33842177 -2049452521 -992368 -73482753
            -68175153 -117440786 -262149</internalNodes>
          <leafValues>
            -6.0426127910614014e-01 3.9380529522895813e-01</leafValues></_>
        <_>
          <internalNodes>
            0 -1 77 -202442890 -269579038 -373061 2112613026 -475730001
            -291324613 -773128533 -840178181</internalNodes>
          <leafValues>
            -3.4566462039947510e-01 4.1819703578948975e-01</leafValues></_>
        <_>
          <internalNodes>
            0 -1 0 -790942854 964686109 -1610297217 369079166
            -2133890914 -1714712369 -1067454214 -578814428</internalNodes>
          <leafValues>
            -4.6173775196075439e-01 3.0481213331222534e-01</leafValues></_>
        <_>
          <internalNodes>
            0 -1 114 -679742209 -839926795 -134875139 161914361
            1987508805 -1619366915 -9733395 -203443461</internalNodes>
          <leafValues>
            -2.5699979066848755e-01 5.0655549764633179e-01</leafValues></_>
        <_>
          <internalNodes>
            0 -1 148 -1477509356 -131701398 -610722307 1991140286
            -1854151875 1196678971 -272631892 390020798</internalNodes>
          <leafValues>
            -4.7631117701530457e-01 2.6216039061546326e-01</leafValues></_>
        <_>
          <internalNodes>
            0 -1 181 -297649218 -184106347 -685313127 -571021955
            -479320133 -94916435 -459600996 149391295</internalNodes>
          <leafValues>
            -4.6755895018577576e-01 2.6526248455047607e-01</leafValues></_>
        <_>
          <internalNodes>
            0 -1 75 -135549397 -2125964440 -1953184950 -199938
            1994658148 811848404 -44009135 -85059</internalNodes>
          <leafValues>
            -3.8481286168098450e-01 3.3602538704872131e-01</leafValues></_>
        <_>
          <internalNodes>
            0 -1 34 2012145278 -1534167474 -240888578 -67857456
            -74892289 -859727195 992171007 -1778956425</internalNodes>
          <leafValues>
            -4.3184384703636169e-01 2.8523841500282288e-01</leafValues></_>
        <_>
          <internalNodes>
            0 -1 167 794787759 659561548 -149888594 235501006 1488841640
            1475429021 -324101468 -1434453825</internalNodes>
          <leafValues>
            -4.1232222318649292e-01 3.0225643515586853e-01</leafValues></_>
        <_>
          <internalNodes>
            0 -1 98 802300437 911106543 -11442755 2146463454 1671035637
            -2043990981 -408948182 959060922</internalNodes>
          <leafValues>
            -3.9650610089302063e-01 3.1287443637847900e-01</leafValues></_>
        <_>
          <internalNodes>
            0 -1 15 -304093916 1790169340 -1723739719 1576967659
            449655287 61810731 1087190002 -402690265</internalNodes>
          <leafValues>
            -4.4420567154884338e-01 2.7631035447120667e-01</leafValues></_>
        <_>
          <internalNodes>
            0 -1 122 1092654495 1595281909 -1445997027 2010435028
            204647415 -1732582985 626604987 173781627</internalNodes>
          <leafValues>
            -4.1096964478492737e-01 3.3246809244155884e-01</leafValues></_>
        <_>
          <internalNodes>
            0 -1 29 790503188 -1076822633 2034684861 2096551898
            -1690615833 -74530425 -1076107532 -151896720</internalNodes>
          <leafValues>
            -5.2558082342147827e-01 2.3461267352104187e-01</leafValues></_>
        <_>
          <internalNodes>
            0 -1 88 -1034137820 -249944359 -1724266529 -1143003425
            -608253155 -2130745685 -208750986 2008758139</internalNodes>
          <leafValues>
            -4.5967826247215271e-01 2.8113844990730286e-01</leafValues></_>
        <_>
          <internalNodes>
            0 -1 156 -2005988339 -1343430536 -1736354405 2013189087
            1801006437 520187401 -144585056 -1073813121</internalNodes>
          <leafValues>
            -4.0022283792495728e-01 3.1643274426460266e-01</leafValues></_></weakClassifiers></_>
    <!-- stage 11 -->
    <_>
      <maxWeakCount>15</maxWeakCount>
      <stageThreshold>-1.5591425895690918e+00</stageThreshold>
      <weakClassifiers>
        <_>
          <internalNodes>
            0 -1 80 -571473953 -73665121 -145260705 -2573318 -2097169
            -71304321 -5507860 -397574</internalNodes>
          <leafValues>
            -6.4872741699218750e-01 2.1343669295310974e-01</leafValues></_>
        <_>
          <internalNodes>
            0 -1 163 -37543888 -1102064244 -174858435 -13571 -35930633
            -1610896609 -106972755 -1077940248</internalNodes>
          <leafValues>
            -3.7796649336814880e-01 3.8634848594665527e-01</leafValues></_>
        <_>
          <internalNodes>
            0 -1 179 -268456197 -16781569 -268505091 -805306374
            1845442550 -671089163 -1913135681 -847774210</internalNodes>
          <leafValues>
            -3.1019744277000427e-01 3.9603945612907410e-01</leafValues></_>
        <_>
          <internalNodes>
            0 -1 190 -1643071448 788347866 1562322092 -721488386
            -134223868 2121192499 -1208041588 314572479</internalNodes>
          <leafValues>
            -4.9868386983871460e-01 2.4289701879024506e-01</leafValues></_>
        <_>
          <internalNodes>
            0 -1 83 1727980100 -495256066 951566719 -1120818 1733755764
            1280547962 2145341364 1744766394</internalNodes>
          <leafValues>
            -5.2130919694900513e-01 2.4077273905277252e-01</leafValues></_>
        <_>
          <internalNodes>
            0 -1 176 -1395986876 2105510359 -1375581588 -1332203202
            -392442876 1958594808 -88879384 -218765570</internalNodes>
          <leafValues>
            -4.9142628908157349e-01 2.3603335022926331e-01</leafValues></_>
        <_>
          <internalNodes>
            0 -1 161 -811597956 -59746264 -206113051 -164439073
            -265290473 1383594517 -122701506 -500745955</internalNodes>
          <leafValues>
            -4.7261431813240051e-01 2.3761694133281708e-01</leafValues></_>
        <_>
          <internalNodes>
            0 -1 14 -1622172868 840304110 8561373 1606371658 -991560968
            -666122264 1783085855 1215444343</internalNodes>
          <leafValues>
            -5.0273120403289795e-01 2.3575946688652039e-01</leafValues></_>
        <_>
          <internalNodes>
            0 -1 72 650276786 1339500319 -19255972 -1210306563 318912359
            -27675081 2139500476 792685875</internalNodes>
          <leafValues>
            -5.3868854045867920e-01 2.1907015144824982e-01</leafValues></_>
        <_>
          <internalNodes>
            0 -1 105 -1563853478 -1789092116 -561409634 218001098
            -103154712 -1133889121 -21416361 586301290</internalNodes>
          <leafValues>
            -5.4478710889816284e-01 2.1503965556621552e-01</leafValues></_>
        <_>
          <internalNodes>
            0 -1 183 -895549546 178122814 -920960801 1914162814
            -268342926 -1424287054 -1084515107 -218116177</internalNodes>
          <leafValues>
            -4.1718354821205139e-01 2.8598856925964355e-01</leafValues></_>
        <_>
          <internalNodes>
            0 -1 119 597441040 -281541923 -485357263 1674783195
            987926901 1572076269 1504686780 1002050012</internalNodes>
          <leafValues>
            -5.3542315959930420e-01 2.3342087864875793e-01</leafValues></_>
        <_>
          <internalNodes>
            0 -1 139 -867816896 -542737512 -964209711 -270888739
            2114279492 -1583636257 -1161581663 -1465599180</internalNodes>
          <leafValues>
            -6.2229967117309570e-01 1.8339651823043823e-01</leafValues></_>
        <_>
          <internalNodes>
            0 -1 136 -647823916 1291277274 -1793953079 -2109438760
            -132396189 -870450921 744188413 765141388</internalNodes>
          <leafValues>
            -5.5411964654922485e-01 2.2728861868381500e-01</leafValues></_>
        <_>
          <internalNodes>
            0 -1 202 -1140915276 -1728272580 -669754795 1070350320
            1518990276 -886861630 -236420199 -1090663763</internalNodes>
          <leafValues>
            -4.3618020415306091e-01 2.9381167888641357e-01</leafValues></_></weakClassifiers></_>
    <!-- stage 12 -->
    <_>
      <maxWeakCount>15</maxWeakCount>
      <stageThreshold>-1.4275728464126587e+00</stageThreshold>
      <weakClassifiers>
        <_>
          <internalNodes>
            0 -1 186 -3145985 -75500709 -787349505 -2623633 1708594302
            -8175485 -98631942 -131073</internalNodes>
          <leafValues>
            -5.8723694086074829e-01 4.4873949885368347e-01</leafValues></_>
        <_>
          <internalNodes>
            0 -1 78 -1014038564 -276901507 301945821 -1376810659
            -865148179 -308516227 -40380006 -307245889</internalNodes>
          <leafValues>
            -3.7412926554679871e-01 3.5604891180992126e-01</leafValues></_>
        <_>
          <internalNodes>
            0 -1 36 -1655206378 -2221441 -529663138 1944859644
            1535615760 -600462967 -1301432942 -185306644</internalNodes>
          <leafValues>
            -6.4435040950775146e-01 1.7498010396957397e-01</leafValues></_>
        <_>
          <internalNodes>
            0 -1 90 -181013136 -623916114 -636731041 529761024
            1366357872 2122830397 1202058238 842152750</internalNodes>
          <leafValues>
            -5.0180888175964355e-01 2.4475397169589996e-01</leafValues></_>
        <_>
          <internalNodes>
            0 -1 74 -1162939020 -537603836 -1300593192 -109262203
            -658989196 -88040045 -210382884 -602324701</internalNodes>
          <leafValues>
            -4.8655402660369873e-01 2.1021747589111328e-01</leafValues></_>
        <_>
          <internalNodes>
            0 -1 151 -16785409 -218104492 -259 -395 -1073744385
            -570556420 -65793 -2128880953</internalNodes>
          <leafValues>
            -2.8309348225593567e-01 4.1990751028060913e-01</leafValues></_>
        <_>
          <internalNodes>
            0 -1 71 -382732882 -469057072 -712428996 -145230902
            468446023 -886394132 1730702709 -1612925643</internalNodes>
          <leafValues>
            -4.6672281622886658e-01 2.5286000967025757e-01</leafValues></_>
        <_>
          <internalNodes>
            0 -1 203 237316309 -21680403 -33767429 -467462 -134223875
            -293646371 -147533 -537116996</internalNodes>
          <leafValues>
            -2.9876977205276489e-01 3.8871437311172485e-01</leafValues></_>
        <_>
          <internalNodes>
            0 -1 85 -11571330 -1421055274 -469625670 -234628480
            1869348187 1530319109 -725327745 -130812673</internalNodes>
          <leafValues>
            -3.9040824770927429e-01 3.1790292263031006e-01</leafValues></_>
        <_>
          <internalNodes>
            0 -1 50 1254561506 -92319383 1006295 -47245262 -1826882573
            -68648829 -89924932 7799335</internalNodes>
          <leafValues>
            -4.7072786092758179e-01 2.4283404648303986e-01</leafValues></_>
        <_>
          <internalNodes>
            0 -1 44 -738263426 -1906386995 -1949894639 21876684
            2012421905 1887493508 1797125708 1464968031</internalNodes>
          <leafValues>
            -6.4284688234329224e-01 1.8165893852710724e-01</leafValues></_>
        <_>
          <internalNodes>
            0 -1 157 612370432 251187588 -1822565932 804047852
            2064988241 998526987 -872523052 -290662155</internalNodes>
          <leafValues>
            -7.6601260900497437e-01 1.4238102734088898e-01</leafValues></_>
        <_>
          <internalNodes>
            0 -1 160 -2104116874 773129652 -686267906 991891549
            1786378301 -1373864737 786251150 2302991</internalNodes>
          <leafValues>
            -5.4660540819168091e-01 1.8753099441528320e-01</leafValues></_>
        <_>
          <internalNodes>
            0 -1 123 -137250546 -1334370736 730328054 1968825257
            1474147285 -152263008 -1819133013 76099839</internalNodes>
          <leafValues>
            -4.5437186956405640e-01 2.5925502181053162e-01</leafValues></_>
        <_>
          <internalNodes>
            0 -1 81 1736440701 208900068 -316940545 306389200 1999039320
            -1807459604 -1189888480 -93965578</internalNodes>
          <leafValues>
            -4.0820029377937317e-01 3.0826300382614136e-01</leafValues></_></weakClassifiers></_>
    <!-- stage 13 -->
    <_>
      <maxWeakCount>18</maxWeakCount>
      <stageThreshold>-1.9752568006515503e+00</stageThreshold>
      <weakClassifiers>
        <_>
          <internalNodes>
            0 -1 62 -225 -15603439 -1050236489 -581572031 -117443601
            -1658328467 -221577217 -1052673</internalNodes>
          <leafValues>
            -5.7955509424209595e-01 4.0821459889411926e-01</leafValues></_>
        <_>
          <internalNodes>
            0 -1 100 138938960 -572851266 -304226497 -404772653
            -207621131 -205563649 -1078985409 2147431898</internalNodes>
          <leafValues>
            -4.1729497909545898e-01 2.9251879453659058e-01</leafValues></_>
        <_>
          <internalNodes>
            0 -1 47 1475541815 -1211975397 -37381143 -408401645
            -227475465 -810424093 -170531913 1973941015</internalNodes>
          <leafValues>
            -3.9989015460014343e-01 3.0478766560554504e-01</leafValues></_>
        <_>
          <internalNodes>
            0 -1 111 954204908 -910481937 1996616189 1066221053
            800042032 1835936495 -354730308 -1912920769</internalNodes>
          <leafValues>
            -4.1591352224349976e-01 2.7953591942787170e-01</leafValues></_>
        <_>
          <internalNodes>
            0 -1 166 -334565913 -246352913 -769883371 523522798
            1469322305 2114979973 -28513362 -298523537</internalNodes>
          <leafValues>
            -4.3585237860679626e-01 2.9129654169082642e-01</leafValues></_>
        <_>
          <internalNodes>
            0 -1 118 -746655523 -791252643 1879823359 206718950
            -149749953 -1618570868 830176948 968432620</internalNodes>
          <leafValues>
            -4.8666244745254517e-01 2.1863654255867004e-01</leafValues></_>
        <_>
          <internalNodes>
            0 -1 94 -335544337 1077882719 -8401543 1005584377
            -1493176782 -1351270401 1442838234 -2049</internalNodes>
          <leafValues>
            -2.5341299176216125e-01 4.5598778128623962e-01</leafValues></_>
        <_>
          <internalNodes>
            0 -1 52 1894048359 -104636017 285568876 623584156 526461921
            -1416140393 784842661 1274898728</internalNodes>
          <leafValues>
            -4.0365752577781677e-01 2.9543483257293701e-01</leafValues></_>
        <_>
          <internalNodes>
            0 -1 70 -322506112 -1398222430 2086803483 -40087100
            -1396061954 -71337813 -346305793 -1360771387</internalNodes>
          <leafValues>
            -4.6130916476249695e-01 2.5177010893821716e-01</leafValues></_>
        <_>
          <internalNodes>
            0 -1 12 1989603270 -225322189 17810138 -1030817364
            -438471809 -72708241 -16265296 -451952541</internalNodes>
          <leafValues>
            -4.3941587209701538e-01 2.6977944374084473e-01</leafValues></_>
        <_>
          <internalNodes>
            0 -1 23 1054686010 1975673091 -712720165 -778268162
            -1283124588 -1042177991 2071400413 -1295825</internalNodes>
          <leafValues>
            -3.9812672138214111e-01 2.8819203376770020e-01</leafValues></_>
        <_>
          <internalNodes>
            0 -1 108 668462634 -1093411874 -1150419048 1945818830
            -1474612739 1003082731 -1970670360 -1753359138</internalNodes>
          <leafValues>
            -4.2932751774787903e-01 2.7622422575950623e-01</leafValues></_>
        <_>
          <internalNodes>
            0 -1 195 -1342270497 -1468061089 -1521321138 215939727
            -70732131 -1551871863 908846933 71128010</internalNodes>
          <leafValues>
            -6.0010886192321777e-01 2.2328487038612366e-01</leafValues></_>
        <_>
          <internalNodes>
            0 -1 73 -45101265 -1141217189 -1148659312 -620640100
            708906022 900463103 1808497515 -606798849</internalNodes>
          <leafValues>
            -3.6645263433456421e-01 3.1638479232788086e-01</leafValues></_>
        <_>
          <internalNodes>
            0 -1 54 -627953950 1131744019 -1857908322 1167501211
            -2004040962 -1180971205 -896940816 84541699</internalNodes>
          <leafValues>
            -5.3293037414550781e-01 2.3210711777210236e-01</leafValues></_>
        <_>
          <internalNodes>
            0 -1 173 427867837 131986141 -2046322339 937277900
            2074160008 -1212309294 -1391653410 205295358</internalNodes>
          <leafValues>
            -4.7499221563339233e-01 2.4559321999549866e-01</leafValues></_>
        <_>
          <internalNodes>
            0 -1 193 -1610644572 2042467163 809599754 436404011
            144392292 1839728714 -1168446844 1923612471</internalNodes>
          <leafValues>
            -4.0724411606788635e-01 2.8693726658821106e-01</leafValues></_>
        <_>
          <internalNodes>
            0 -1 91 -1151993891 1289354667 -272662786 -370661384
            -1138315339 -566886412 -1627979940 -1758216457</internalNodes>
          <leafValues>
            -3.2403695583343506e-01 3.8602721691131592e-01</leafValues></_></weakClassifiers></_>
    <!-- stage 14 -->
    <_>
      <maxWeakCount>16</maxWeakCount>
      <stageThreshold>-1.5980365276336670e+00</stageThreshold>
      <weakClassifiers>
        <_>
          <internalNodes>
            0 -1 194 -352325633 -7080985 -1018072673 -10489085
            -994719493 -920840401 -1000233745 -46663681</internalNodes>
          <leafValues>
            -6.0421878099441528e-01 3.0510753393173218e-01</leafValues></_>
        <_>
          <internalNodes>
            0 -1 116 585099199 1606086567 -1285601505 -67456230
            -36704771 -1623486481 -453140256 -537072978</internalNodes>
          <leafValues>
            -4.2480930685997009e-01 3.0276393890380859e-01</leafValues></_>
        <_>
          <internalNodes>
            0 -1 146 -273129988 2018817020 319394777 -1627492004
            -348742660 -543521349 -51611209 -1096270404</internalNodes>
          <leafValues>
            -5.2245736122131348e-01 2.3272567987442017e-01</leafValues></_>
        <_>
          <internalNodes>
            0 -1 68 -807996417 -1915825700 29618589 -153210854
            1940160511 1585927327 -539071490 1607934050</internalNodes>
          <leafValues>
            -3.7356641888618469e-01 3.1212034821510315e-01</leafValues></_>
        <_>
          <internalNodes>
            0 -1 101 -61293400 -1302143719 -213162627 558616498
            228537621 337055031 1820922923 393164718</internalNodes>
          <leafValues>
            -4.5209121704101563e-01 2.7020797133445740e-01</leafValues></_>
        <_>
          <internalNodes>
            0 -1 199 -1344320033 36324571 2014839166 -1930558994
            -1177554313 -1434102869 -80792195 -142673942</internalNodes>
          <leafValues>
            -4.3807932734489441e-01 2.7066457271575928e-01</leafValues></_>
        <_>
          <internalNodes>
            0 -1 87 -2084132076 -350568425 -1055695521 2103321334
            -1731542119 -694178761 -1143342792 1455376735</internalNodes>
          <leafValues>
            -4.2758587002754211e-01 2.5422137975692749e-01</leafValues></_>
        <_>
          <internalNodes>
            0 -1 171 -1349469252 987623929 467899677 -1161966385
            263449188 1006410345 -1144286530 -1409508500</internalNodes>
          <leafValues>
            -3.6354106664657593e-01 3.2576176524162292e-01</leafValues></_>
        <_>
          <internalNodes>
            0 -1 86 -1365488567 -481386260 1443244222 -544071185
            1202510660 152121485 -31197482 1905753394</internalNodes>
          <leafValues>
            -4.7458574175834656e-01 2.3993235826492310e-01</leafValues></_>
        <_>
          <internalNodes>
            0 -1 152 -201803778 1420051507 -2052930866 1938459356
            1607581825 -1909667063 -1077191033 694116025</internalNodes>
          <leafValues>
            -4.0602490305900574e-01 2.8649663925170898e-01</leafValues></_>
        <_>
          <internalNodes>
            0 -1 40 -816093689 -1188007607 -2092312626 -14978290
            1835923827 -160356623 1307492556 2109596326</internalNodes>
          <leafValues>
            -3.9719501137733459e-01 2.9335239529609680e-01</leafValues></_>
        <_>
          <internalNodes>
            0 -1 177 -807940316 -1990205233 89748480 92655770 176844836
            1025604232 1054260798 141811259</internalNodes>
          <leafValues>
            -4.8076000809669495e-01 2.4691613018512726e-01</leafValues></_>
        <_>
          <internalNodes>
            0 -1 89 -437254342 594161515 -1610674318 -823322 -302110977
            1071079419 -67108964 -605126926</internalNodes>
          <leafValues>
            -3.3399027585983276e-01 3.4858027100563049e-01</leafValues></_>
        <_>
          <internalNodes>
            0 -1 201 47450553 -1324035628 268616031 1016587160 7713744
            -1191129069 323924943 -1963410052</internalNodes>
          <leafValues>
            -6.4223575592041016e-01 1.9535492360591888e-01</leafValues></_>
        <_>
          <internalNodes>
            0 -1 96 -381785312 578311481 -1070054785 59970971 -873985513
            120821819 -1505176193 -138679604</internalNodes>
          <leafValues>
            -4.6361249685287476e-01 2.4003635346889496e-01</leafValues></_>
        <_>
          <internalNodes>
            0 -1 155 1786978839 -1212278562 -1742667433 1045492031
            1930113403 -342154678 -73268872 -1710193371</internalNodes>
          <leafValues>
            -4.8570972681045532e-01 2.3495633900165558e-01</leafValues></_></weakClassifiers></_>
    <!-- stage 15 -->
    <_>
      <maxWeakCount>16</maxWeakCount>
      <stageThreshold>-1.7122004032135010e+00</stageThreshold>
      <weakClassifiers>
        <_>
          <internalNodes>
            0 -1 82 -33563905 -212607294 625203155 -606086160 -68432977
            -291796797 -93324049 -132097</internalNodes>
          <leafValues>
            -5.6913828849792480e-01 4.4058501720428467e-01</leafValues></_>
        <_>
          <internalNodes>
            0 -1 63 -44545 994310143 -17039365 1425079920 -281100401
            -1082146822 -1235494294 -537400525</internalNodes>
          <leafValues>
            -3.2983642816543579e-01 3.8106709718704224e-01</leafValues></_>
        <_>
          <internalNodes>
            0 -1 149 118417204 1992462682 1888480783 775933690
            2035981085 1878665986 581939100 897523964</internalNodes>
          <leafValues>
            -5.3371059894561768e-01 2.1566784381866455e-01</leafValues></_>
        <_>
          <internalNodes>
            0 -1 6 -398135766 2092566560 -1390258678 -61526076
            1347539311 1351038567 1100210732 1303868791</internalNodes>
          <leafValues>
            -4.8157468438148499e-01 2.2193701565265656e-01</leafValues></_>
        <_>
          <internalNodes>
            0 -1 24 -1929371120 -1429178819 -585535137 268222709
            286265700 1361184919 -498059153 1922563671</internalNodes>
          <leafValues>
            -6.6890954971313477e-01 1.6351690888404846e-01</leafValues></_>
        <_>
          <internalNodes>
            0 -1 59 -852512769 2112279452 1417827152 -1599544808
            -607431988 910888426 -500236208 -1454161910</internalNodes>
          <leafValues>
            -4.3965616822242737e-01 3.0282056331634521e-01</leafValues></_>
        <_>
          <internalNodes>
            0 -1 112 113138989 -1575260129 -1789945537 -671163297
            -2102230832 -1876488117 1788672504 1677506398</internalNodes>
          <leafValues>
            -4.1465130448341370e-01 2.6132670044898987e-01</leafValues></_>
        <_>
          <internalNodes>
            0 -1 170 -1933210564 165250064 -1303535026 622769958
            279382201 72040616 -1299433314 851350459</internalNodes>
          <leafValues>
            -5.3212732076644897e-01 2.3156209290027618e-01</leafValues></_>
        <_>
          <internalNodes>
            0 -1 19 576470972 -343965035 -1853173155 1356223172
            -598181091 -2128363456 562518136 -407296304</internalNodes>
          <leafValues>
            -5.7630854845046997e-01 1.9305343925952911e-01</leafValues></_>
        <_>
          <internalNodes>
            0 -1 49 -1467225430 -416407166 -713178715 -542293758
            1104037039 -396318557 1612420011 -2098223</internalNodes>
          <leafValues>
            -3.4202605485916138e-01 3.3356153964996338e-01</leafValues></_>
        <_>
          <internalNodes>
            0 -1 137 -1627341764 853289113 1292488433 1972489712
            -494746704 -811334908 840573434 1064372600</internalNodes>
          <leafValues>
            -4.8428568243980408e-01 2.5887143611907959e-01</leafValues></_>
        <_>
          <internalNodes>
            0 -1 197 -897723827 -1874648314 2114031806 1477628110
            -225854952 -735436525 -376835668 -210503098</internalNodes>
          <leafValues>
            -3.7975731492042542e-01 2.9896223545074463e-01</leafValues></_>
        <_>
          <internalNodes>
            0 -1 180 -671144665 44047792 -1220013880 -403140123
            1728619062 296258050 -1884331224 -67195476</internalNodes>
          <leafValues>
            -3.9019924402236938e-01 3.1207841634750366e-01</leafValues></_>
        <_>
          <internalNodes>
            0 -1 31 803154708 -1252476478 -620252739 -474816251
            2076781170 -930551274 -1547018496 449884948</internalNodes>
          <leafValues>
            -6.7297714948654175e-01 1.7431670427322388e-01</leafValues></_>
        <_>
          <internalNodes>
            0 -1 64 -1813204443 -670604985 17301576 -753635053
            -275426731 -2113863544 -510851594 1222918759</internalNodes>
          <leafValues>
            -5.7852399349212646e-01 1.8961453437805176e-01</leafValues></_>
        <_>
          <internalNodes>
            0 -1 55 -741170402 -552516857 -1792953877 1844200339
            -1970922770 -2102663550 -754855877 -1049935329</internalNodes>
          <leafValues>
            -3.4240391850471497e-01 3.4953776001930237e-01</leafValues></_></weakClassifiers></_>
    <!-- stage 16 -->
    <_>
      <maxWeakCount>15</maxWeakCount>
      <stageThreshold>-1.8107125759124756e+00</stageThreshold>
      <weakClassifiers>
        <_>
          <internalNodes>
            0 -1 188 -144706849 -2368621 -266899041 -264225 -54002434
            -549516917 -858013958 -131109</internalNodes>
          <leafValues>
            -5.7237178087234497e-01 3.8723403215408325e-01</leafValues></_>
        <_>
          <internalNodes>
            0 -1 113 -6293794 1570762487 1073741663 -1154753631
            -25247749 -1074332163 2147172559 -747658549</internalNodes>
          <leafValues>
            -2.8436893224716187e-01 4.7059401869773865e-01</leafValues></_>
        <_>
          <internalNodes>
            0 -1 10 -640699713 290816543 -1874689761 505562715
            -791682643 -871727029 -378803202 -26153090</internalNodes>
          <leafValues>
            -3.3689650893211365e-01 3.3226832747459412e-01</leafValues></_>
        <_>
          <internalNodes>
            0 -1 143 1826051013 1157486823 -683347090 1165108075
            -472577826 1837804404 -1087657202 928053927</internalNodes>
          <leafValues>
            -3.3457854390144348e-01 3.2941564917564392e-01</leafValues></_>
        <_>
          <internalNodes>
            0 -1 13 -137456876 -407023277 1235477267 -2000215234
            -1329280058 -2001778656 1633713617 -790120525</internalNodes>
          <leafValues>
            -4.4639548659324646e-01 2.6199382543563843e-01</leafValues></_>
        <_>
          <internalNodes>
            0 -1 97 775687748 -879980386 -2127670793 1998227911
            -1467020742 -1063091453 2034463737 -973603756</internalNodes>
          <leafValues>
            -4.4133213162422180e-01 2.6715868711471558e-01</leafValues></_>
        <_>
          <internalNodes>
            0 -1 79 1130241428 -2008865977 1364181471 683901795
            191002855 205630298 1471150869 1169101967</internalNodes>
          <leafValues>
            -4.5713609457015991e-01 2.6791039109230042e-01</leafValues></_>
        <_>
          <internalNodes>
            0 -1 184 -289414516 -62465663 -1014251239 -648846650
            -232525304 -736165852 -242042712 -1523392178</internalNodes>
          <leafValues>
            -3.9988413453102112e-01 2.8464320302009583e-01</leafValues></_>
        <_>
          <internalNodes>
            0 -1 200 1790636865 2045147117 329488886 -1369532968
            945186629 -1660861752 321381314 -1124605444</internalNodes>
          <leafValues>
            -3.8058349490165710e-01 3.2117816805839539e-01</leafValues></_>
        <_>
          <internalNodes>
            0 -1 58 -1378987705 726361363 -2138582371 -145686830
            -1620923751 437995659 535515253 -109531424</internalNodes>
          <leafValues>
            -3.7251591682434082e-01 3.0816629528999329e-01</leafValues></_>
        <_>
          <internalNodes>
            0 -1 28 -72499698 -105053863 33587265 -821100285 -1112965060
            875941044 -746385825 648754971</internalNodes>
          <leafValues>
            -5.7604593038558960e-01 1.9871003925800323e-01</leafValues></_>
        <_>
          <internalNodes>
            0 -1 76 -354506916 1996806424 -1878937127 355587859
            -1951207506 -1147493610 1770886031 -1053046726</internalNodes>
          <leafValues>
            -3.4648236632347107e-01 3.3324167132377625e-01</leafValues></_>
        <_>
          <internalNodes>
            0 -1 67 -495972126 1801679617 -1458091243 -981237113
            747485200 -148666265 -259028657 -1073803985</internalNodes>
          <leafValues>
            -3.2062926888465881e-01 3.9449098706245422e-01</leafValues></_>
        <_>
          <internalNodes>
            0 -1 182 1338950376 -1576398057 1342247701 -1318952806
            -760380431 -334952278 -165164941 -2143609041</internalNodes>
          <leafValues>
            -4.3617486953735352e-01 2.7641642093658447e-01</leafValues></_>
        <_>
          <internalNodes>
            0 -1 124 402595287 979763394 -1652155924 773490141
            1284125612 -1152472936 1486432798 2027269832</internalNodes>
          <leafValues>
            -4.3621730804443359e-01 2.7213814854621887e-01</leafValues></_></weakClassifiers></_></stages>
  <features>
    <_>
      <rect>
        0 0 2 10</rect></_>
    <_>
      <rect>
        0 0 3 5</rect></_>
    <_>
      <rect>
        0 0 4 3</rect></_>
    <_>
      <rect>
        0 0 5 1</rect></_>
    <_>
      <rect>
        0 0 5 6</rect></_>
    <_>
      <rect>
        0 1 2 1</rect></_>
    <_>
      <rect>
        0 1 2 3</rect></_>
    <_>
      <rect>
        0 1 3 1</rect></_>
    <_>
      <rect>
        0 4 4 3</rect></_>
    <_>
      <rect>
        0 5 2 6</rect></_>
    <_>
      <rect>
        0 5 2 8</rect></_>
    <_>
      <rect>
        0 5 3 1</rect></_>
    <_>
      <rect>
        0 6 2 3</rect></_>
    <_>
      <rect>
        0 8 2 3</rect></_>
    <_>
      <rect>
        0 8 2 6</rect></_>
    <_>
      <rect>
        0 10 2 1</rect></_>
    <_>
      <rect>
        0 10 2 2</rect></_>
    <_>
      <rect>
        0 11 2 2</rect></_>
    <_>
      <rect>
        0 11 2 3</rect></_>
    <_>
      <rect>
        0 12 1 4</rect></_>
    <_>
      <rect>
        0 12 5 5</rect></_>
    <_>
      <rect>
        0 13 2 5</rect></_>
    <_>
      <rect>
        0 14 5 5</rect></_>
    <_>
      <rect>
        0 15 1 4</rect></_>
    <_>
      <rect>
        0 15 5 1</rect></_>
    <_>
      <rect>
        0 17 2 3</rect></_>
    <_>
      <rect>
        0 17 3 1</rect></_>
    <_>
      <rect>
        0 20 4 3</rect></_>
    <_>
      <rect>
        0 20 5 2</rect></_>
    <_>
      <rect>
        0 22 1 2</rect></_>
    <_>
      <rect>
        0 24 5 2</rect></_>
    <_>
      <rect>
        0 27 1 1</rect></_>
    <_>
      <rect>
        0 27 2 1</rect></_>
    <_>
      <rect>
        1 0 2 1</rect></_>
    <_>
      <rect>
        1 0 2 2</rect></_>
    <_>
      <rect>
        1 0 3 7</rect></_>
    <_>
      <rect>
        1 0 5 7</rect></_>
    <_>
      <rect>
        1 2 5 4</rect></_>
    <_>
      <rect>
        1 2 5 9</rect></_>
    <_>
      <rect>
        1 3 2 2</rect></_>
    <_>
      <rect>
        1 4 3 2</rect></_>
    <_>
      <rect>
        1 8 2 2</rect></_>
    <_>
      <rect>
        1 9 5 2</rect></_>
    <_>
      <rect>
        1 11 1 1</rect></_>
    <_>
      <rect>
        1 13 5 4</rect></_>
    <_>
      <rect>
        1 14 5 5</rect></_>
    <_>
      <rect>
        1 18 5 4</rect></_>
    <_>
      <rect>
        1 22 2 2</rect></_>
    <_>
      <rect>
        1 27 2 1</rect></_>
    <_>
      <rect>
        2 0 1 1</rect></_>
    <_>
      <rect>
        2 0 4 1</rect></_>
    <_>
      <rect>
        2 1 2 3</rect></_>
    <_>
      <rect>
        2 2 2 3</rect></_>
    <_>
      <rect>
        2 5 3 1</rect></_>
    <_>
      <rect>
        2 9 2 2</rect></_>
    <_>
      <rect>
        2 9 3 2</rect></_>
    <_>
      <rect>
        2 11 4 3</rect></_>
    <_>
      <rect>
        2 12 2 2</rect></_>
    <_>
      <rect>
        2 12 2 3</rect></_>
    <_>
      <rect>
        2 12 4 3</rect></_>
    <_>
      <rect>
        2 13 2 3</rect></_>
    <_>
      <rect>
        2 13 3 3</rect></_>
    <_>
      <rect>
        2 14 1 3</rect></_>
    <_>
      <rect>
        2 14 3 3</rect></_>
    <_>
      <rect>
        2 15 1 4</rect></_>
    <_>
      <rect>
        2 15 1 5</rect></_>
    <_>
      <rect>
        2 15 3 4</rect></_>
    <_>
      <rect>
        2 15 4 2</rect></_>
    <_>
      <rect>
        2 24 2 2</rect></_>
    <_>
      <rect>
        3 0 1 1</rect></_>
    <_>
      <rect>
        3 0 2 1</rect></_>
    <_>
      <rect>
        3 1 1 1</rect></_>
    <_>
      <rect>
        3 3 2 2</rect></_>
    <_>
      <rect>
        3 5 2 1</rect></_>
    <_>
      <rect>
        3 5 3 3</rect></_>
    <_>
      <rect>
        3 6 1 1</rect></_>
    <_>
      <rect>
        3 9 3 2</rect></_>
    <_>
      <rect>
        3 11 1 2</rect></_>
    <_>
      <rect>
        3 11 2 2</rect></_>
    <_>
      <rect>
        3 12 2 2</rect></_>
    <_>
      <rect>
        3 12 3 3</rect></_>
    <_>
      <rect>
        3 12 3 5</rect></_>
    <_>
      <rect>
        3 13 1 3</rect></_>
    <_>
      <rect>
        3 13 2 1</rect></_>
    <_>
      <rect>
        3 13 3 3</rect></_>
    <_>
      <rect>
        3 13 4 3</rect></_>
    <_>
      <rect>
        3 14 1 1</rect></_>
    <_>
      <rect>
        3 14 3 1</rect></_>
    <_>
      <rect>
        3 15 2 1</rect></_>
    <_>
      <rect>
        3 16 1 1</rect></_>
    <_>
      <rect>
        3 18 2 4</rect></_>
    <_>
      <rect>
        3 19 3 3</rect></_>
    <_>
      <rect>
        4 0 1 1</rect></_>
    <_>
      <rect>
        4 4 2 3</rect></_>
    <_>
      <rect>
        4 4 3 1</rect></_>
    <_>
      <rect>
        4 8 2 2</rect></_>
    <_>
      <rect>
        4 11 3 1</rect></_>
    <_>
      <rect>
        4 12 1 1</rect></_>
    <_>
      <rect>
        4 14 2 1</rect></_>
    <_>
      <rect>
        4 14 2 2</rect></_>
    <_>
      <rect>
        4 15 3 1</rect></_>
    <_>
      <rect>
        4 15 3 2</rect></_>
    <_>
      <rect>
        4 16 2 1</rect></_>
    <_>
      <rect>
        4 16 3 4</rect></_>
    <_>
      <rect>
        4 21 2 2</rect></_>
    <_>
      <rect>
        4 24 3 2</rect></_>
    <_>
      <rect>
        5 0 1 1</rect></_>
    <_>
      <rect>
        5 2 2 1</rect></_>
    <_>
      <rect>
        5 5 2 1</rect></_>
    <_>
      <rect>
        5 7 1 1</rect></_>
    <_>
      <rect>
        5 8 2 1</rect></_>
    <_>
      <rect>
        5 10 1 2</rect></_>
    <_>
      <rect>
        5 11 2 3</rect></_>
    <_>
      <rect>
        5 11 2 5</rect></_>
    <_>
      <rect>
        5 12 2 5</rect></_>
    <_>
      <rect>
        5 12 3 3</rect></_>
    <_>
      <rect>
        5 13 2 3</rect></_>
    <_>
      <rect>
        5 15 2 2</rect></_>
    <_>
      <rect>
        5 15 2 4</rect></_>
    <_>
      <rect>
        5 16 2 1</rect></_>
    <_>
      <rect>
        5 16 2 2</rect></_>
    <_>
      <rect>
        5 17 2 1</rect></_>
    <_>
      <rect>
        5 20 2 2</rect></_>
    <_>
      <rect>
        5 20 2 3</rect></_>
    <_>
      <rect>
        5 27 2 1</rect></_>
    <_>
      <rect>
        6 0 1 1</rect></_>
    <_>
      <rect>
        6 0 3 5</rect></_>
    <_>
      <rect>
        6 2 1 1</rect></_>
    <_>
      <rect>
        6 5 2 2</rect></_>
    <_>
      <rect>
        6 7 1 1</rect></_>
    <_>
      <rect>
        6 10 2 2</rect></_>
    <_>
      <rect>
        6 11 1 2</rect></_>
    <_>
      <rect>
        6 11 2 2</rect></_>
    <_>
      <rect>
        6 14 2 2</rect></_>
    <_>
      <rect>
        6 16 1 1</rect></_>
    <_>
      <rect>
        6 16 2 1</rect></_>
    <_>
      <rect>
        6 16 2 3</rect></_>
    <_>
      <rect>
        6 22 2 2</rect></_>
    <_>
      <rect>
        6 24 3 2</rect></_>
    <_>
      <rect>
        7 0 2 1</rect></_>
    <_>
      <rect>
        7 0 3 2</rect></_>
    <_>
      <rect>
        7 1 2 3</rect></_>
    <_>
      <rect>
        7 1 3 1</rect></_>
    <_>
      <rect>
        7 2 3 3</rect></_>
    <_>
      <rect>
        7 4 3 2</rect></_>
    <_>
      <rect>
        7 7 1 1</rect></_>
    <_>
      <rect>
        7 8 1 1</rect></_>
    <_>
      <rect>
        7 9 3 2</rect></_>
    <_>
      <rect>
        7 13 2 1</rect></_>
    <_>
      <rect>
        7 14 2 1</rect></_>
    <_>
      <rect>
        7 17 3 1</rect></_>
    <_>
      <rect>
        7 17 3 4</rect></_>
    <_>
      <rect>
        7 21 2 3</rect></_>
    <_>
      <rect>
        8 0 1 1</rect></_>
    <_>
      <rect>
        8 0 2 1</rect></_>
    <_>
      <rect>
        8 2 1 1</rect></_>
    <_>
      <rect>
        8 5 1 1</rect></_>
    <_>
      <rect>
        8 6 1 1</rect></_>
    <_>
      <rect>
        8 6 2 1</rect></_>
    <_>
      <rect>
        8 7 1 1</rect></_>
    <_>
      <rect>
        8 8 2 2</rect></_>
    <_>
      <rect>
        8 11 2 2</rect></_>
    <_>
      <rect>
        8 13 2 3</rect></_>
    <_>
      <rect>
        8 16 2 1</rect></_>
    <_>
      <rect>
        9 0 1 1</rect></_>
    <_>
      <rect>
        9 0 2 1</rect></_>
    <_>
      <rect>
        9 0 2 6</rect></_>
    <_>
      <rect>
        9 2 2 2</rect></_>
    <_>
      <rect>
        9 4 2 3</rect></_>
    <_>
      <rect>
        9 7 2 3</rect></_>
    <_>
      <rect>
        9 14 2 2</rect></_>
    <_>
      <rect>
        9 16 1 1</rect></_>
    <_>
      <rect>
        9 17 2 3</rect></_>
    <_>
      <rect>
        9 27 1 1</rect></_>
    <_>
      <rect>
        10 0 1 1</rect></_>
    <_>
      <rect>
        10 0 2 10</rect></_>
    <_>
      <rect>
        10 1 2 1</rect></_>
    <_>
      <rect>
        10 1 2 3</rect></_>
    <_>
      <rect>
        10 3 2 3</rect></_>
    <_>
      <rect>
        10 5 2 8</rect></_>
    <_>
      <rect>
        10 6 1 1</rect></_>
    <_>
      <rect>
        10 7 2 5</rect></_>
    <_>
      <rect>
        10 8 2 2</rect></_>
    <_>
      <rect>
        10 10 2 1</rect></_>
    <_>
      <rect>
        10 11 1 2</rect></_>
    <_>
      <rect>
        10 11 2 2</rect></_>
    <_>
      <rect>
        10 12 1 3</rect></_>
    <_>
      <rect>
        10 12 2 3</rect></_>
    <_>
      <rect>
        10 13 1 3</rect></_>
    <_>
      <rect>
        10 13 2 5</rect></_>
    <_>
      <rect>
        10 15 1 1</rect></_>
    <_>
      <rect>
        10 16 2 4</rect></_>
    <_>
      <rect>
        10 27 2 1</rect></_>
    <_>
      <rect>
        11 13 1 2</rect></_>
    <_>
      <rect>
        11 14 1 3</rect></_>
    <_>
      <rect>
        11 27 1 1</rect></_>
    <_>
      <rect>
        12 10 1 1</rect></_>
    <_>
      <rect>
        12 11 1 1</rect></_>
    <_>
      <rect>
        12 12 1 1</rect></_>
    <_>
      <rect>
        12 27 1 1</rect></_>
    <_>
      <rect>
        13 2 1 2</rect></_>
    <_>
      <rect>
        13 7 1 7</rect></_>
    <_>
      <rect>
        13 15 1 3</rect></_>
    <_>
      <rect>
        13 22 1 1</rect></_></features></cascade>
</opencv_storage>
